svm_type c_svc
kernel_type rbf
gamma 0.25
nr_class 2
total_sv 265
rho 1.02447
label 1 -1
nr_sv 135 130
SV
63.74224 12:-0.428571 37:0.548596 45:-0.428571 93:-0.682955 94:-0.773989 96:-0.115055 105:-0.5 106:-0.6 109:-0.555556 111:0.294786 119:0.363635 121:0.226105 122:-0.9 125:-0.9 130:-0.296 146:-1 147:-1 184:-1 
63.74224 12:-0.428571 37:0.62203 45:-0.428571 93:-0.592106 94:-0.912768 96:-0.316885 105:-0.5 106:-0.6 109:-0.492063 111:0.443986 119:-0.00649432 121:0.104422 122:-0.592678 125:-0.858124 130:-0.296 146:-1 147:-0.68302 184:-1 
61.20304 12:-0.142857 37:0.732181 45:-0.142857 93:-0.703192 94:-0.682624 96:-0.171541 105:-0.25 106:-0.4 109:-0.346405 111:0.308465 119:0.323527 121:0.397316 122:-0.44056 125:-0.93007 130:-0.200001 146:-1 147:-1 184:-1 
61.20304 12:-0.428571 37:0.660907 45:-0.428571 93:-0.655556 94:-0.508916 96:-0.31327 105:-0.25 106:-0.4 109:-0.407407 111:0.224272 119:0.227272 121:0.133625 122:-0.954545 125:-0.727272 130:-0.08 146:-1 147:-0.160003 184:-1 
14.2191527560986 12:-0.428571 37:0.557235 45:-0.428571 93:-0.660585 94:-0.201539 96:-0.10675 105:-0.25 106:-0.4 109:-0.0697689 111:0.359862 119:0.14165 121:0.0921972 122:-0.5 125:-0.5 130:-0.680001 146:-0.614034 147:-1 184:-0.714286 
26.04133681654474 12:-0.714286 37:0.529158 45:-0.428571 93:-0.403846 94:0.0199436 96:-0.572115 105:-0.25 106:-0.6 109:-0.444444 111:0.535817 119:0.107953 121:0.476768 122:-0.515152 125:-0.878788 130:0.382858 146:-1 147:-1 184:-1 
1.775190922282673 12:-0.428571 37:0.784017 45:-0.142857 93:-0.755263 94:-0.56384 96:-0.219297 105:-0.25 106:-0.4 109:-0.222222 111:0.256885 119:0.329545 121:0.217586 122:-0.87395 125:-0.991597 130:-0.680001 146:-1 147:-0.366041 184:-1 
37.23175918931317 12:-0.142857 37:0.537797 45:-0.142857 93:-0.847542 94:-0.266392 96:0.27664 105:-0.5 106:-0.2 109:0.300809 111:0.35577 119:0.247228 121:0.25685 122:-0.832727 125:-0.745454 130:-0.62 146:-1 147:-1 184:-1 
8.416233175846701 12:-0.428571 37:0.784017 45:-0.428571 93:-0.130842 94:0.0223303 96:-0.688083 105:-0.5 106:-0.6 109:-0.305556 111:0.404701 119:-0.0411934 121:0.0752183 122:-0.628572 125:-0.771428 130:-0.296 146:-0.576922 147:-0.353849 184:-1 
38.35943520890212 12:-0.714286 37:0.907127 45:-0.714286 93:-0.76356 94:-0.494349 96:-0.528601 105:-0.25 106:-0.4 109:-0.649123 111:0.575211 119:0.23804 121:0.401837 122:-0.222222 125:-0.962963 130:-0.512 146:-1 147:-0.657143 184:-0.714286 
17.53778169533781 12:-0.714286 37:0.473002 45:-0.428571 93:-0.638835 94:-0.517259 96:-0.135921 105:-0.5 106:-0.6 109:-0.629629 111:0.378887 119:0.193183 121:0.379423 122:-0.884615 125:-0.865385 130:-0.440001 146:-1 147:-0.650002 184:-1 
7.56668095085852 12:-0.428571 37:0.853132 45:-0.428571 93:-0.695082 94:-0.673952 96:-0.27049 105:-0.25 106:-0.6 109:-0.457995 111:0.46599 119:-0.0521079 121:0.424236 122:-0.69855 125:-0.994203 130:-0.57091 146:-1 147:-0.733334 184:-1 
5.327853735489113 12:-0.714286 37:0.455724 45:-0.428571 93:-0.616495 94:-0.384878 96:-0.197164 105:-0.5 106:-0.6 109:-0.492063 111:0.375616 119:0.227272 121:0.446522 122:-0.416666 125:-0.916667 130:-0.08 146:-1 147:-0.200003 184:-0.714286 
14.06850232717649 12:-0.714286 37:0.615551 45:-0.428571 93:-0.867143 94:-0.857936 96:-0.682143 105:-0.5 106:-0.6 109:-0.316239 111:0.352295 119:0.337412 121:0.541352 122:-0.642858 125:-0.571428 130:0.0742866 146:-0.333334 147:-1 184:-1 
37.3960190564362 12:-0.428571 37:0.693305 45:-0.428571 93:-0.535001 94:-0.801111 96:-0.7775 105:-0.5 106:-0.2 109:-0.607844 111:0.556979 119:0.20321 121:0.586281 122:-0.6 125:-0.733334 130:-0.512 146:-0.541667 147:-0.650002 184:-1 
3.969604368912141 12:-0.428571 37:0.768898 45:-0.428571 93:-0.845 94:-0.751388 96:-0.629166 105:-0.5 106:-0.4 109:-0.241192 111:0.52259 119:0.247228 121:0.474096 122:-0.175 125:-0.85 130:-0.512 146:-0.633333 147:0.119997 184:-0.714286 
25.72019652032269 12:-0.714286 37:0.334773 45:-0.428571 93:-0.577274 94:-0.434974 96:-0.115055 106:-0.6 109:-0.111111 111:0.397534 119:0.295456 121:0.347784 122:-0.472222 125:-0.486112 130:-0.08 146:-1 147:-0.557896 184:-1 
4.865662438405502 12:-0.428571 37:0.367171 45:-0.428571 93:-0.817648 94:-0.902505 96:-0.563725 105:-0.25 106:-0.6 109:0.0158756 111:0.438603 119:0.577921 121:0.534132 122:-0.528206 125:-0.815385 130:0.382858 146:-0.531915 147:-0.285109 184:-1 
61.20304 12:-0.428571 37:0.7473 45:-0.428571 93:-0.788636 94:-0.773989 96:-0.620738 105:-0.5 106:-0.6 109:-0.346405 111:0.207846 119:0.323527 121:0.315719 122:-0.555556 125:-1 130:-0.234287 146:-1 147:-0.600002 184:-1 
41.39606623341917 12:-0.714286 37:0.799136 45:-0.714286 93:-0.628 94:-0.701666 96:-0.221249 105:-0.25 106:-0.6 109:-0.191919 111:0.429466 119:0.115701 121:0.300883 122:-0.515152 125:-0.878788 130:-0.200001 146:-0.56 147:-0.664001 184:-0.714286 
4.209941225526823 12:-0.142857 37:0.637149 45:-0.142857 93:-0.870833 94:-0.585647 96:-0.0729156 105:-0.5 106:-0.4 109:-0.670782 111:0.418903 119:0.287879 121:0.448376 122:-0.866667 125:-0.933333 130:-0.296 146:-1 147:-1 184:-1 
0.00271026883844694 12:-0.714286 37:0.87473 45:-0.428571 93:-0.624243 94:-0.799102 96:-0.550505 105:-0.5 106:-0.6 109:-0.238095 111:0.313522 119:0.461039 121:0.346394 122:-0.533334 125:-0.8 130:0.136 146:-1 147:-1 184:-1 
28.69643337670712 12:-0.428571 37:0.516199 45:-0.428571 93:-0.764557 94:-0.748241 96:-0.436708 105:-0.5 106:-0.6 109:-0.48718 111:0.588793 119:0.573425 121:0.614361 122:-0.933333 125:-0.511112 130:0.568 146:-1 147:-1 184:-1 
24.28373916331377 12:-0.142857 37:0.863931 45:-0.142857 93:-0.471591 94:-1 96:0.137789 105:-0.25 106:-0.4 109:-0.365079 111:0.373824 119:0.0957784 121:0.0439295 122:-0.555556 125:-0.722222 130:-0.08 146:-1 147:-0.626668 184:-1 
61.20304 12:-0.142857 37:0.896328 45:-0.142857 93:-0.418751 94:-1 96:-0.443749 105:-0.25 106:-0.4 109:-0.365079 111:0.498439 119:0.0957784 121:0.268169 122:-0.982906 125:-0.760684 130:-0.440001 146:-1 147:-0.533334 184:-0.714286 
44.17649215819221 12:-0.428571 37:0.436285 45:-0.428571 93:-0.628 94:-1 96:-0.332499 105:-0.5 106:-0.6 109:-0.0572356 111:0.441058 119:0.239668 121:0.212388 122:-0.542858 125:-0.622858 130:-0.542858 146:-1 147:-1 184:-1 
42.54590368741044 12:-0.142857 37:0.75378 45:-0.142857 93:-0.354168 94:-1 96:-0.536457 105:-0.25 106:-0.4 109:0.111111 111:0.451104 119:0.278409 121:0.288162 122:-0.824176 125:-0.758242 130:-0.728 146:-1 147:-1 184:-1 
12.69383664605326 12:-0.714286 37:0.645788 45:-0.714286 93:-0.758442 94:-1 96:-0.277596 105:-0.5 106:-0.6 109:-0.233716 111:0.409203 119:0.551722 121:0.563622 122:-0.535714 125:-0.928571 130:0.382858 146:-0.388888 147:-1 184:-0.714286 
61.20304 12:-0.714286 37:0.507559 45:-0.428571 93:-0.26854 94:-0.888264 96:1.1125e-06 105:-0.25 106:-0.6 109:-0.283154 111:0.383591 119:0.253667 121:0.447328 122:-0.8 125:-0.942857 130:-0.08 146:-1 147:-0.580001 184:-1 
2.805912640265785 12:0.142857 37:0.781857 45:0.142857 93:-1 94:-0.865616 96:-0.0979714 105:-0.75 106:-0.2 109:-0.227053 111:0.416119 119:0.0671952 121:0.33551 122:-0.919192 125:-0.79798 130:0.0742866 146:-1 147:-1 184:-1 
61.20304 12:-0.142857 37:0.75162 45:-0.142857 93:-0.256001 94:-0.900555 96:-0.554999 105:-0.25 106:-0.4 109:-0.0277778 111:0.366869 119:0.278409 121:0.193858 122:-0.497326 125:-0.572192 130:-0.542858 146:-0.476191 147:-0.600002 184:-1 
61.20304 12:-0.428571 37:0.643629 45:-0.142857 93:-0.351164 94:-0.537467 96:-0.223836 105:-0.5 106:-0.2 109:-0.111111 111:0.340126 119:0.159089 121:0.114155 122:-0.466666 125:-0.733334 130:-0.296 146:-1 147:-1 184:-1 
25.75876657566574 12:-0.714286 37:0.758099 45:-0.142857 93:-0.7675 94:-1 96:-0.304686 105:-0.5 106:-0.4 109:-0.386973 111:0.23182 119:0.41066 121:0.206132 122:-0.866667 125:-0.633334 130:-0.08 146:-0.45 147:-0.580001 184:-1 
11.23479755038889 12:-0.714286 37:0.7473 45:-0.428571 93:-0.7 94:-0.89307 96:-0.521504 105:-0.25 106:-0.6 109:-0.0572356 111:0.408102 119:0.301653 121:0.384955 122:-0.828571 125:-0.571428 130:0.19 146:-1 147:-0.600002 184:-0.714286 
61.02260399462608 12:-0.714286 37:0.565875 45:-0.428571 93:-0.815842 94:-1 96:-0.559405 105:-0.5 106:-0.6 109:-0.753086 111:0.488022 119:0.420453 121:0.525441 122:-0.833333 125:-0.566666 130:-0.440001 146:-1 147:-0.642554 184:-1 
2.709279878786311 12:-0.714286 37:0.557235 45:0.142857 93:-0.729127 94:-0.806903 96:-0.0279116 105:-0.5 106:-0.2 109:-0.426524 111:0.642244 119:0.121702 121:0.376675 122:-0.615384 125:-0.461538 130:-0.234287 146:-1 147:-1 184:-1 
61.20304 12:-0.714286 37:0.887689 45:-0.714286 93:-0.599139 94:-0.828544 96:-0.328663 105:-0.5 106:-0.4 109:-0.75976 111:0.395809 119:0.10565 121:0.0475917 122:-0.739348 125:-0.954887 130:-0.62 146:-1 147:-0.694547 184:-1 
10.0553312187102 12:-0.428571 37:0.822894 45:-0.428571 93:-0.731731 94:-0.90438 96:-0.465144 105:-0.5 106:-0.4 109:-0.506172 111:0.598978 119:0.136364 121:0.59845 122:-0.555556 125:-0.666666 130:-0.512 146:-1 147:-1 184:-0.714286 
3.679532397879271 12:-0.142857 37:0.781857 45:-0.142857 93:-0.59121 94:-1 96:0.100276 105:-0.25 106:-0.4 109:-0.111111 111:0.399939 119:0.227272 121:0.342919 122:-0.948718 125:-0.938462 130:0.0400009 146:-0.476191 147:-1 184:-1 
49.83544153680241 12:-0.714286 37:0.431965 45:-0.428571 93:-0.489011 94:-1 96:-0.0219764 105:-0.25 106:-0.6 109:-0.0849689 111:0.399939 119:0.50401 121:0.401612 122:0.066666 125:-0.866667 130:-0.440001 146:-1 147:-0.569233 184:-1 
9.652158295769516 12:-0.428571 37:0.421166 45:-0.142857 93:-0.761539 94:-0.490027 96:-0.286857 105:-0.5 106:-0.4 109:-0.0476178 111:0.399088 119:0.16883 121:0.39333 122:-0.833333 125:-0.583334 130:0.0742866 146:-0.371429 147:-1 184:-1 
58.71859114139465 12:-0.714286 37:0.658747 45:-0.714286 93:-0.577274 94:-0.849327 96:0.0113653 105:-0.25 106:-0.8 109:-0.777778 111:0.487988 119:0.227272 121:0.228537 122:-0.622222 125:-0.622222 130:-0.296 146:-1 147:-1 184:-1 
3.693016774471019 12:-0.714286 37:0.758099 45:-0.714286 93:-0.225001 94:-0.48206 96:-0.0729156 105:-0.25 106:-0.6 109:-0.206349 111:0.417294 119:0.022727 121:0.0960784 122:-0.428572 125:-0.920635 130:-0.35 146:-1 147:-1 184:-1 
15.59406066486272 12:-0.714286 37:0.576674 45:-0.142857 93:-0.896667 94:-0.779012 96:-0.752778 105:-0.5 106:-0.4 109:-0.111111 111:0.315863 119:0.295456 121:0.128757 122:-0.166666 125:-0.424242 130:-0.728 146:-1 147:-1 184:-1 
18.56630142549081 12:-0.714286 37:0.561555 45:-0.428571 93:-0.824529 94:-1 96:-0.790094 105:-0.5 106:-0.6 109:-0.492063 111:0.486464 119:0.227272 121:0.22958 122:-0.925926 125:-0.94709 130:-0.799999 146:-1 147:-0.18049 184:-1 
21.23269370103714 12:-0.142857 37:0.695464 45:-0.142857 93:-0.786207 94:-0.542784 96:-0.232758 105:-0.5 106:-0.4 109:-0.54023 111:0.433118 119:0.269593 121:0.528376 122:-1 125:-1 130:0.0742866 146:-1 147:-1 184:-1 
61.20304 12:-0.714286 37:0.855292 45:-0.714286 93:-0.659756 94:-0.878726 96:-0.457316 105:-0.25 106:-0.6 109:-0.613526 111:0.513778 119:0.24506 121:0.272024 122:-0.791208 125:-0.593406 130:0.280001 146:-1 147:-0.520002 184:-1 
30.38335099491458 12:0.142857 37:0.7473 45:0.142857 93:-0.483333 94:-0.723765 96:-0.278934 105:-0.25 106:-0.2 109:0.176471 111:0.513358 119:0.263371 121:0.526157 122:-0.411764 125:-0.509804 130:-0.35 146:-1 147:-0.328002 184:-1 
52.81339757246592 12:-0.428571 37:0.365011 45:-0.428571 93:-0.791791 94:-0.777362 96:-0.0867529 105:-0.5 106:-0.2 109:-0.191919 111:0.473307 119:0.16219 121:0.390486 122:-0.846491 125:-0.837719 130:-0.296 146:-0.645162 147:-1 184:-1 
17.42904882522557 12:-0.142857 37:0.779698 45:-0.142857 93:-0.14592 94:-1 96:-0.0918348 105:-0.25 106:-0.4 109:-0.73064 111:0.415224 119:0.239668 121:0.261058 122:-0.978947 125:-0.473684 130:-0.680001 146:-1 147:-1 184:-1 
61.20304 12:-0.428571 37:0.773218 45:-0.428571 93:-0.734286 94:-0.810582 96:-0.470238 105:-0.5 106:-0.4 109:-0.59596 111:0.384312 119:0.239668 121:0.150438 122:-0.571428 125:-0.809524 130:-0.234287 146:-0.52174 147:-0.634784 184:-1 
20.36095911451983 12:-0.714286 37:0.816415 45:-0.428571 93:-0.741667 94:-0.539608 96:-0.381943 105:-0.5 106:-0.6 109:-0.298245 111:0.163448 119:0.23804 121:0.0982745 122:-0.807692 125:-0.884615 130:-0.08 146:-1 147:-0.328002 184:-1 
45.4023588041452 12:-0.714286 37:0.7473 45:-0.714286 93:-0.912264 94:-0.812369 96:-0.685141 105:-0.5 106:-0.6 109:-0.135803 111:0.296177 119:0.306816 121:0.21718 122:-0.736842 125:-0.884211 130:-0.542858 146:-1 147:-1 184:-1 
36.09505625356454 12:-0.428571 37:0.537797 45:-0.142857 93:-0.827778 94:-1 96:-0.278934 105:-0.5 106:-0.4 109:-0.382716 111:0.384558 119:0.420453 121:0.298302 122:-0.927126 125:-0.967611 130:-0.35 146:-0.185186 147:-0.37778 184:-1 
59.58784 12:-0.428571 37:0.557235 45:-0.428571 93:-0.500001 94:-0.89307 96:-0.521504 105:-0.25 106:-0.6 109:-0.0804622 111:0.445496 119:0.128526 121:0.296763 122:-0.591666 125:-0.841667 130:-0.08 146:-0.488372 147:-0.609304 184:-1 
43.91287275301077 12:-0.428571 37:0.414687 45:-0.428571 93:-0.667857 94:-0.526455 96:-0.470238 105:-0.5 106:-0.6 109:-0.25926 111:0.608427 119:-0.147729 121:0.257741 122:-0.727272 125:-1 130:-0.35 146:-1 147:-1 184:-1 
59.58784 12:-0.428571 37:0.537797 45:-0.142857 93:-0.852381 94:-0.684303 96:-0.293649 105:-0.5 106:-0.4 109:-0.349594 111:0.341623 119:0.0476734 121:0.12864 122:-0.938375 125:-0.69748 130:-0.374546 146:-1 147:-0.115792 184:-0.714286 
59.58784 12:-0.714286 37:0.473002 45:-0.142857 93:-0.786207 94:-1 96:0.150861 105:-0.5 106:-0.4 109:-0.206349 111:0.363831 119:0.16883 121:0.184732 122:-0.833333 125:-0.833333 130:-0.08 146:-1 147:-0.569233 184:-1 
59.58784 12:-0.428571 37:0.606911 45:-0.142857 93:-0.738029 94:-0.719875 96:-0.373239 105:-0.5 106:-0.4 109:-0.444444 111:0.302801 119:0.278409 121:0.10564 122:-0.944444 125:-0.805556 130:-0.296 146:-1 147:-0.475002 184:-1 
59.58784 12:-0.714286 37:0.637149 45:-0.428571 93:-0.661819 94:-0.728788 96:-0.190908 105:-0.25 106:-0.6 109:-0.238095 111:0.374879 119:0.16883 121:0.125282 122:-0.625418 125:-0.953177 130:-0.440001 146:-1 147:-1 184:-1 
59.58784 12:-0.428571 37:0.814255 45:-0.428571 93:-0.615703 94:-0.753443 96:-0.0805774 105:-0.5 106:-0.6 109:-0.666667 111:0.369514 119:-0.130682 121:0.279643 122:-0.939799 125:-0.752508 130:-0.512 146:-0.576922 147:-0.676924 184:-1 
59.58784 12:-0.714286 37:0.706263 45:-0.428571 93:-0.65125 94:-0.875694 96:-0.582812 105:-0.5 106:-0.6 109:-0.0740711 111:0.402804 119:0.022727 121:0.160396 122:-1 125:-1 130:-0.234287 146:-1 147:-1 184:-1 
59.58784 12:-0.714286 37:0.667387 45:-0.428571 93:-0.551807 94:-0.640561 96:-0.0617461 105:-0.5 106:-0.6 109:-0.0476178 111:0.27955 119:0.16883 121:0.210808 122:-0.863248 125:-0.65812 130:0.0742866 146:-1 147:-1 184:-1 
50.17972097480114 12:-0.428571 37:0.555076 45:-0.428571 93:-0.411393 94:-0.748241 96:0.549059 105:-0.25 106:-0.4 109:-0.506172 111:0.29532 119:0.136364 121:0.150932 122:-0.742424 125:-0.818182 130:0.0742866 146:-0.405406 147:-0.545948 184:-1 
4.481456 12:-0.714286 37:0.958963 45:-0.714286 93:-0.122643 94:-0.155659 96:-0.160376 106:-0.6 109:-0.181286 111:0.298366 119:0.130383 121:0.228923 122:-0.766666 125:-0.666666 130:-0.08 146:-1 147:-0.657143 184:-0.714286 
4.481456 12:-0.428571 37:0.356371 45:-0.428571 93:-0.483333 94:-0.337036 96:-0.258332 105:-0.25 109:-0.59596 111:0.156149 119:-0.00826568 121:-0.0796484 122:-0.2 125:-0.5 130:0.0742866 146:-1 147:-1 184:-0.714286 
4.324681679856108 12:-0.428571 37:0.49892 45:0.428571 93:-0.891861 94:-0.537467 96:-0.482558 105:-0.5 109:-0.0572356 111:0.135242 119:0.115701 121:0.00884723 122:-0.833333 125:-0.5 130:0.280001 146:-1 147:-1 184:0.142857 
4.481456 12:-0.142857 37:0.883369 45:-0.142857 93:0.149442 94:-0.329587 96:-0.374999 106:-0.4 109:-0.25926 111:0.61804 119:-0.147729 121:-0.113387 122:-0.865546 125:-0.333334 130:-0.799999 146:-1 147:-0.580001 184:-1 
3.316080759755471 12:-0.428571 37:0.215983 45:-0.142857 93:-0.500001 94:-1 96:-0.521504 105:-0.25 106:-0.4 109:0.03704 111:0.258526 119:0.227272 121:0.0654847 122:-0.952381 125:0.04762 130:-0.440001 146:-0.388888 147:-1 184:-1 
4.481456 12:-0.714286 37:0.75378 45:-0.142857 93:-0.243025 94:-0.537467 96:-0.223836 105:-0.25 106:-0.4 109:-0.670782 111:0.248467 119:0.136364 121:-0.0545742 122:-0.507936 125:-0.698412 130:0.136 146:-1 147:-0.0400024 184:-1 
4.481456 12:-0.428571 37:0.395248 45:-0.428571 93:-0.898913 94:-0.891908 96:-0.516303 105:-0.5 106:-0.6 109:-0.506172 111:0.346102 119:0.363635 121:0.432151 122:-0.777778 125:-0.111112 130:-0.62 146:-1 147:-0.618183 184:-0.714286 
3.624540470120053 12:-0.714286 37:0.0431965 45:-0.142857 93:-0.564063 94:-0.0677069 96:-0.304686 105:-0.25 106:-0.4 109:-1 111:-0.249253 119:-0.166666 121:-0.330388 122:-0.333334 125:-0.333334 130:0.280001 146:-1 147:-1 184:-1 
4.481456 12:-0.142857 37:-0.401728 45:-0.142857 93:-0.386814 94:-1 96:-0.633242 105:-0.25 106:-0.4 109:-0.888889 111:-0.410237 119:0.176136 121:-0.180313 122:-0.2 125:-1 130:0.280001 146:-1 147:-0.618183 184:-1 
4.481456 12:-0.714286 37:0.341253 45:-0.428571 93:-0.77037 94:0.104939 96:-0.31327 105:-0.5 106:-0.6 109:-0.346405 111:0.0239134 119:0.383688 121:0.221236 122:-0.066666 125:-1 130:0.136 146:-1 147:-1 184:-0.714286 
4.481456 12:-1 37:0.846652 45:-0.714286 93:-0.916216 94:-0.731231 96:-0.899775 105:-0.5 106:-0.8 109:-1 111:0.443272 119:0.453348 121:0.517116 122:-0.799044 125:-0.799044 130:-0.234287 146:-1 147:-0.650002 184:-1 
4.481456 12:-0.714286 37:0.773218 45:-0.428571 93:-0.738029 94:-1 96:-0.216548 105:-0.5 106:-0.6 109:-1 111:0.41709 119:0.278409 121:0.245572 122:-0.545454 125:-0.931818 130:-0.728 146:-1 147:-1 184:-1 
0.9092480938828197 12:-0.142857 37:0.611231 45:-0.142857 93:-0.663856 94:-0.400936 96:-0.597891 105:-0.5 106:-0.2 109:0.07744 111:-0.142234 119:0.177687 121:-0.00442873 122:-1 125:0.5 130:0.136 146:-0.405406 147:-1 184:-1 
4.481456 12:-0.428571 37:0.0712743 45:-0.142857 93:-0.567443 94:-0.884367 96:-0.482558 106:-0.2 109:-0.365079 111:0.0220169 119:0.461039 121:0.254613 122:0.333334 125:-0.428572 130:0.382858 146:-1 147:-1 184:-1 
4.481456 12:-0.714286 37:0.87473 45:-0.714286 93:-1 94:-0.431745 96:0.112502 105:-0.75 106:-0.6 109:-0.0476178 111:0.203255 119:0.387988 121:0.440263 122:-0.4 125:-0.866667 130:0.568 146:-1 147:-1 184:-1 
4.481456 12:-0.142857 37:0.563715 45:-0.142857 93:-0.0461558 94:-0.362534 96:-0.572115 105:-0.25 106:-0.4 109:-0.426524 111:-0.0378448 119:0.0557202 121:-0.0660892 122:-0.142858 125:-0.428572 130:-0.296 146:-1 147:-0.545948 184:-1 
4.481456 12:-0.142857 45:-0.142857 93:-0.0379347 94:-0.771392 96:-0.488505 105:-0.25 106:-0.4 109:-0.477124 111:-0.0199095 119:0.20321 121:0.135343 122:-0.583334 125:-0.666666 130:0.691429 146:-1 147:-1 184:-1 
0.9669997807907423 12:-0.428571 37:-0.0367171 45:-0.142857 93:-0.070001 94:-1 96:-0.860937 105:-0.25 106:-0.4 109:-0.856631 111:-0.0695747 119:0.121702 121:-0.0943495 122:-0.5 125:-0.75 130:1 146:-1 147:-1 184:-1 
4.481456 12:-0.428571 37:0.200864 45:-0.428571 93:-0.832433 94:-0.820821 96:-0.298422 105:-0.5 106:-0.6 109:-0.279279 111:0.489223 119:0.32678 121:0.544844 122:-0.74436 125:-0.458646 130:0.0742866 146:-1 147:-1 184:-1 
4.481456 12:-0.428571 37:0.285097 45:-0.428571 93:-0.358622 94:-1 96:0.0229898 105:-0.25 106:-0.6 109:-0.68254 111:0.387813 119:0.314937 121:0.184732 122:-0.921569 125:-0.751634 130:-0.440001 146:-1 147:0.399995 184:-1 
4.481456 12:-0.428571 37:0.315335 45:0.142857 93:0.239996 94:-0.204443 96:-0.258332 105:0.5 106:-0.2 109:-0.48718 111:0.00364804 119:-0.37063 121:-0.250513 122:-0.434344 125:-0.919192 130:-0.08 146:-1 147:-1 184:-1 
4.481456 12:0.142857 37:0.49892 45:0.142857 93:-0.411393 94:-0.874121 96:0.408227 106:-0.2 109:-0.814815 111:0.309993 119:0.107953 121:0.0387138 122:-0.734266 125:-0.972028 130:0.691429 146:-1 147:-1 184:-1 
4.028019654544329 12:0.142857 37:0.0691145 45:0.142857 93:-0.411393 94:-1 96:-0.436708 106:-0.2 109:0.0728 111:-0.0773878 119:0.128526 121:-0.201714 122:-1 125:-0.111112 130:0.46 146:-1 147:-1 184:-1 
4.481456 12:-0.142857 37:-0.730022 45:-0.142857 93:-0.631683 94:-1 96:-0.22896 105:-0.25 106:-0.4 109:-0.818594 111:-0.558711 119:0.419296 121:-0.0946387 122:-1 125:-1 130:1 146:-1 147:-1 184:-1 
1.941554032536492 12:-0.142857 37:-0.198704 45:-0.142857 93:-0.432928 94:-1 96:-0.457316 105:-0.25 106:-0.4 109:-0.619048 111:-0.354217 119:0.285715 121:-0.170927 122:0.333334 125:-0.333334 130:-0.08 146:-1 147:-1 184:-1 
4.481456 12:-0.714286 37:0.894168 45:-0.714286 93:-0.786207 94:-1 96:0.278743 105:-0.25 106:-0.6 109:-0.746032 111:0.273225 119:0.402596 121:0.504929 122:-0.52381 125:-0.809524 130:0.0742866 146:-1 147:-1 184:-0.714286 
1.442667301596029 12:-0.428571 37:-0.272138 45:-0.428571 93:-0.867143 94:-1 96:-0.0464269 105:-0.5 106:-0.6 109:-0.722222 111:-0.694307 119:0.150568 121:-0.458659 122:1 125:-1 130:1 146:-1 147:-1 184:-1 
4.481456 12:-0.428571 37:0.183585 45:-0.428571 93:-0.202858 94:-1 96:-0.682143 106:-0.4 109:-0.851852 111:0.0111551 119:0.431818 121:0.216368 122:-0.5 130:1 146:-1 147:-1 184:-1 
2.51598736564732 12:0.714286 37:-0.153348 45:0.714286 93:0.328569 94:-0.810582 96:-0.57619 106:0.2 109:-0.365079 111:0.125973 119:-0.357142 121:-0.396213 122:-0.546558 125:-0.748988 130:-0.234287 146:-1 147:-0.642554 184:-0.714286 
4.481456 12:-0.714286 37:0.0691145 45:-0.142857 93:0.430766 94:0.243058 96:-0.251201 105:0.25 106:-0.4 109:-0.506172 111:-0.02967 119:-0.318181 121:-0.411509 122:-0.970588 125:-0.568628 130:-0.234287 146:-1 147:-1 184:-1 
4.481456 12:-0.714286 37:-0.0712743 45:0.142857 93:-0.103616 94:-0.880187 96:-0.865964 105:-0.25 106:-0.2 109:-0.305556 111:-0.220446 119:-0.0411934 121:-0.349145 122:-0.6 125:-0.933333 130:0.280001 146:-1 147:-0.590246 184:-1 
2.315070675898993 12:0.142857 37:0.151188 45:0.142857 93:0.00843509 94:-0.760374 96:0.0722904 106:-0.2 109:-0.506172 111:0.117541 119:-0.0151507 121:-0.276306 122:-0.216784 125:-0.412588 130:-0.234287 146:-1 147:-1 184:-1 
3.682845851438742 12:-0.428571 37:-0.24622 45:-0.428571 93:-0.465517 94:-0.885695 96:-0.616378 105:-0.25 106:-0.4 109:-0.519519 111:-0.406312 119:0.10565 121:-0.236551 122:-0.9 125:0.2 130:0.46 146:-1 147:-1 184:-1 
4.481456 12:-0.714286 37:0.526998 45:-0.142857 93:-0.879221 94:-1 96:-0.422076 105:-0.5 106:-0.4 109:-0.25926 111:0.297798 119:0.500001 121:0.484069 122:-0.392858 125:-0.392858 130:0.382858 146:-0.388888 147:-1 184:-1 
4.481456 12:-0.714286 37:0.354212 45:-0.714286 93:-0.718182 94:-0.899551 96:-0.550505 105:-0.5 106:-0.4 109:-0.63964 111:0.435297 119:0.54791 121:0.667184 122:-0.91453 125:-0.948718 130:-0.08 146:-1 147:-0.626668 184:-1 
3.668789465969315 12:-0.428571 37:-0.012959 45:-0.142857 93:-0.0035712 94:-0.881613 96:-0.470238 105:-0.25 106:-0.4 109:-0.426524 111:-0.214061 119:-0.208213 121:-0.343994 122:-0.533334 125:-0.4 130:0.639999 146:-1 147:-1 184:-1 
4.481456 12:-0.428571 37:0.62203 45:-0.428571 93:-0.886586 94:-0.878726 96:-0.592987 105:-0.5 106:-0.2 109:0.07744 111:0.197116 119:0.42562 121:0.389379 122:-0.833333 125:-0.5 130:0.639999 146:-0.421052 147:-1 184:-1 
4.481456 12:-0.714286 37:0.323974 45:-0.142857 93:-0.764557 94:-1 96:-0.155062 105:-0.5 106:-0.4 109:-0.25926 111:0.139781 119:0.431818 121:0.23097 122:-0.428572 125:0.142858 130:-0.08 146:-1 147:-0.533334 184:-1 
4.481456 12:-0.714286 37:0.634989 45:-0.714286 93:-0.595652 94:-1 96:-0.193839 105:-0.5 106:-0.6 109:-0.822222 111:0.332663 119:0.227272 121:0.256281 122:-0.388888 125:-0.861111 130:-0.62 146:-1 147:0.0181792 184:-1 
4.481456 12:-0.714286 37:0.473002 45:-0.142857 93:-1 94:-0.863775 96:-0.39041 105:-0.75 106:-0.4 109:-0.233716 111:0.207883 119:0.551722 121:0.523342 122:-0.6 125:-0.3 130:0.136 146:-1 147:-1 184:-1 
4.481456 12:-0.428571 37:0.0583153 45:0.142857 93:0.0546374 94:-0.282359 96:-0.426545 106:-0.2 109:-0.583333 111:0.0840208 119:-0.232955 121:-0.271575 122:-0.637254 125:-0.696078 130:-0.08 146:-1 147:-0.218608 184:-1 
4.481456 12:-0.714286 37:0.149028 45:-0.428571 93:-0.243903 94:-0.434055 96:-0.366869 105:-0.25 106:-0.6 109:-0.4709 111:0.362985 119:0.0714293 121:0.182994 122:-0.80117 125:-0.432748 130:0.0400009 146:-1 147:-0.160003 184:-0.714286 
2.744113759204637 12:-0.142857 37:0.224622 45:0.428571 93:-0.191305 94:-0.308212 96:-0.322825 105:-0.25 109:-0.202279 111:0.106197 119:-0.0559452 121:-0.0707998 122:-0.333334 125:-0.958333 130:0.19 146:-1 147:-0.664001 184:-1 
4.481456 12:-0.428571 37:-0.185745 45:-0.428571 93:-0.341593 94:-0.383972 96:-0.507742 106:-0.6 109:0.0526311 111:0.0860726 119:0.130383 121:-0.132282 122:-0.644444 125:-0.933333 130:-0.08 146:-1 147:-0.0307725 184:-1 
4.481456 12:-0.428571 37:0.660907 45:-0.428571 93:-1 94:-1 96:-0.24393 105:-0.75 106:-0.4 109:-0.349594 111:0.228078 119:0.496675 121:0.45985 122:-0.7 125:-0.35 130:0.280001 146:-1 147:-0.664001 184:-0.714286 
4.481456 12:-0.714286 37:0.576674 45:-0.142857 93:-0.781177 94:-1 96:-0.607353 105:-0.5 106:-0.4 109:-0.111111 111:0.193124 119:0.295456 121:0.128757 122:-0.25 125:-0.3 130:-0.296 146:-1 147:-1 184:-1 
4.481456 12:-0.428571 37:0.760259 45:-0.428571 93:0.187237 94:0.0579215 96:-0.0531898 106:-0.6 109:0.185182 111:0.320797 119:-0.181818 121:0.0265446 122:-0.2 125:-0.6 130:0.46 146:-1 147:-1 184:-1 
4.363184 12:-0.428571 37:0.25486 45:-0.428571 93:-0.206098 94:-0.151082 96:-0.185975 105:-0.25 106:-0.4 109:-0.426524 111:0.0105106 119:-0.0102661 121:-0.0660892 122:-0.472222 125:-0.833333 130:0.280001 146:-1 147:-1 184:-1 
4.363184 12:-0.142857 37:0.235421 45:-0.142857 93:-0.886586 94:-0.878726 96:-0.457316 105:-0.5 106:-0.4 109:-0.506172 111:-0.119548 119:0.306816 121:-0.0464644 122:-0.2 125:-0.066666 130:-0.08 146:-1 147:-1 184:-0.714286 
4.363184 12:-0.428571 37:0.328294 45:-0.142857 93:-0.577274 94:-0.54798 96:-0.494318 106:-0.4 109:-0.461279 111:0.131444 119:0.363635 121:0.238937 122:-0.583334 125:-0.944444 130:-0.08 146:-1 147:-1 184:-1 
4.363184 12:-0.142857 37:0.330454 45:-0.142857 93:-0.0802208 94:-0.453601 96:0.100276 106:-0.4 109:-0.283154 111:0.198669 119:0.121702 121:0.0893499 122:-0.8 125:-0.6 130:0.46 146:0.0999999 147:-0.580001 184:-1 
4.363184 12:-0.714286 37:0.719222 45:-0.714286 93:-0.65125 94:-0.751388 96:-0.165624 105:-0.25 106:-0.2 109:-0.206349 111:0.0173662 119:0.0957784 121:-0.164669 122:-0.5 125:-1 130:-0.296 146:-0.371429 147:-1 184:-1 
4.363184 12:-0.714286 37:0.460043 45:0.142857 93:-0.905102 94:-0.391155 96:-0.205356 105:-0.5 106:-0.2 109:-0.73064 111:0.275646 119:0.239668 121:0.15929 122:-0.166666 125:-0.733334 130:-0.234287 146:-1 147:-1 184:-0.714286 
4.363184 12:-0.428571 37:0.179266 45:-0.428571 93:-0.551807 94:-0.520749 96:-0.0617461 105:-0.5 106:-0.6 109:-0.166667 111:0.0337412 119:0.278409 121:0.120849 122:-0.460318 125:-1 130:0.691429 146:-0.45 147:-0.580001 184:-1 
4.363184 12:-0.142857 37:0.38013 45:-0.142857 93:-0.693407 94:-0.125762 96:0.100276 105:-0.5 106:-0.4 109:-0.0572356 111:0.152808 119:0.177687 121:0.0973429 122:-0.611112 125:-0.777778 130:-0.440001 146:-1 147:-1 184:-1 
4.363184 12:-0.428571 37:0.140389 45:-0.428571 93:-0.715307 94:-0.797051 96:-0.205356 105:-0.5 106:-0.4 109:-0.25926 111:0.24016 119:0.136364 121:0.233405 122:-0.285714 125:-0.828571 130:0.52 146:-1 147:-1 184:-1 
4.363184 12:-0.428571 37:0.572354 45:-0.428571 93:-0.788636 94:0.0170498 96:-0.367897 105:-0.5 106:-0.6 109:-0.583333 111:0.115635 119:-0.0411934 121:-0.0342953 122:-0.566666 125:-0.566666 130:-0.542858 146:-1 147:-0.590246 184:-1 
4.363184 12:-0.142857 37:0.343413 45:-0.142857 93:-0.895505 94:-0.553058 96:-0.249999 105:-0.5 106:-0.4 109:0.142853 111:0.0188963 119:0.110391 121:0.0543581 122:-0.771428 125:-0.8 130:0.0742866 146:-1 147:-1 184:-1 
4.363184 12:-0.428571 37:0.0194384 45:-0.428571 93:-0.675582 94:-0.421834 96:-0.482558 105:-0.5 106:-0.6 109:-0.444444 111:0.0840208 119:0.150568 121:0.157353 122:-0.955556 125:-0.888889 130:0.691429 146:-1 147:-0.590246 184:-1 
4.363184 12:-0.428571 37:0.909287 45:-0.428571 93:-0.225001 94:-0.644841 96:-0.470238 105:0.25 106:-0.6 109:-0.713261 111:0.252382 119:0.121702 121:0.258918 122:-0.85 125:-0.9 130:-0.08 146:-1 147:-0.557896 184:-0.714286 
4.363184 12:-0.428571 37:0.0302376 45:-0.142857 93:-0.604256 94:-0.259455 96:-0.289892 105:-0.25 106:-0.4 109:-0.03904 111:0.170345 119:0.160934 121:0.162041 122:-0.876923 125:-0.507692 130:0.0742866 146:-1 147:-0.657143 184:-0.714286 
4.363184 12:-0.428571 37:0.522678 45:-0.428571 93:-0.703192 94:-0.682624 96:-0.0531898 105:-0.25 106:-0.6 109:-0.326599 111:0.190077 119:0.301653 121:0.207963 122:-0.558442 125:-0.87013 130:0.0742866 146:-1 147:-1 184:-1 
4.363184 12:-0.428571 37:0.209503 45:-0.142857 93:-0.328867 94:-0.589919 96:-0.541237 105:-0.25 106:-0.4 109:-0.326599 111:0.339764 119:0.239668 121:0.331857 122:-0.961905 125:-0.961905 130:0.784 146:-1 147:-0.642554 184:-1 
4.363184 12:-0.428571 37:0.218143 45:0.142857 93:-0.775904 94:-0.400936 96:-0.463854 105:-0.5 106:-0.2 109:-0.341564 111:0.287931 119:0.21212 121:0.172563 122:-0.755556 125:-0.711112 130:-0.08 146:-1 147:-1 184:-1 
4.363184 12:-0.428571 37:0.2527 45:-0.428571 93:-0.535001 94:-0.502777 96:-0.165624 105:-0.25 106:-0.6 109:-0.426524 111:-0.0232063 119:0.187685 121:0.098768 122:-0.866667 125:-0.133334 130:0.136 146:-1 147:-0.520002 184:-1 
4.363184 12:-0.142857 37:0.697624 45:-0.142857 93:-0.781177 94:0.403919 96:-0.607353 105:-0.5 106:-0.4 109:-0.346405 111:-0.0823609 119:-0.0374339 121:-0.19964 122:-0.371428 125:-0.714286 130:-0.440001 146:-1 147:-1 184:-0.428571 
4.363184 12:-0.714286 37:0.846652 45:-0.428571 93:-0.655556 94:-0.877229 96:-0.0385782 105:-0.5 106:-0.6 109:-0.426524 111:0.0668483 119:0.253667 121:0.122321 122:-0.8 125:-0.666666 130:0.568 146:-1 147:-1 184:-0.714286 
4.363184 12:0.142857 37:0.695464 45:0.142857 93:-0.783721 94:-0.884367 96:-0.353197 105:-0.5 106:-0.2 109:-0.569892 111:0.124459 119:0.319649 121:0.1129 122:-0.733334 125:-0.866667 130:0.280001 146:-1 147:-0.580001 184:-1 
4.363184 12:-0.428571 37:0.656587 45:-0.428571 93:-0.557144 94:-0.171295 96:-0.337797 105:-0.5 106:-0.4 109:-0.365079 111:0.0812619 119:-0.196427 121:-0.227246 122:-0.571428 125:-0.75 130:-0.296 146:-1 147:-1 184:-1 
4.363184 12:-0.714286 37:0.447084 45:-0.714286 93:-0.9 94:-1 96:-0.760752 105:-0.5 106:-0.6 109:-0.426524 111:0.285949 119:0.253667 121:0.207105 122:-0.571428 125:-0.460318 130:-0.08 146:-1 147:-1 184:-1 
4.363184 12:-0.142857 37:0.535637 45:-0.142857 93:-0.649057 94:-0.155659 96:-0.475235 105:-0.5 106:-0.4 109:0.0256444 111:0.0971431 119:0.25874 121:0.146355 122:-1 125:-0.712122 130:0.46 146:-1 147:-1 184:-0.714286 
-0.6381808081688416 12:-0.428571 37:0.669546 45:-0.428571 93:-0.500001 94:0.390086 96:0.19624 105:-0.25 106:-0.4 109:-0.569892 111:0.248555 119:-0.0762484 121:-0.0849314 122:-0.958333 125:-0.75 130:-0.234287 146:-1 147:-1 184:-1 
-8.407118230704327 12:-0.714286 37:0.617711 45:-0.428571 93:-0.693407 94:-1 96:-0.877747 105:-0.5 106:-0.6 109:-0.555556 111:0.552802 119:0.227272 121:0.274775 122:-0.719298 125:-0.4269 130:-0.542858 146:-1 147:-1 184:-0.714286 
-46.2786454184179 12:-0.428571 37:0.518359 45:-0.142857 93:-0.34353 94:-0.181045 96:-0.345588 105:-0.25 106:-0.4 109:-0.341564 111:0.337684 119:-0.0151507 121:0.0589957 122:-0.733334 125:-0.733334 130:-0.234287 146:-1 147:-1 184:-1 
-58.60591557685435 12:-0.428571 37:0.62851 45:-0.428571 93:-0.791012 94:-1 96:-0.624999 105:-0.5 106:-0.6 109:-0.713261 111:0.404432 119:0.319649 121:0.258918 122:-0.86014 125:-0.748252 130:-0.35 146:-1 147:-0.590246 184:-0.714286 
-2.452279702323056 12:-0.714286 37:0.289417 45:-0.428571 93:-1 94:-1 96:-0.541237 105:-0.75 106:-0.6 109:-0.607844 111:0.421029 119:0.383688 121:0.581985 122:-0.584416 125:-0.844156 130:0.52 146:0.404255 147:-0.642554 184:-1 
-13.68401080933078 12:-0.714286 37:0.535637 45:-0.714286 93:-0.424743 94:-0.589919 96:-0.197164 105:0.25 106:-0.6 109:-0.477124 111:0.514244 119:0.323527 121:0.414494 122:0.047058 125:-0.764706 130:-0.08 146:-0.488372 147:-0.609304 184:-0.714286 
-34.62950708224623 12:-0.714286 37:0.313175 45:-0.428571 93:-0.682955 94:-0.54798 96:0.517052 105:-0.5 106:-0.6 109:-0.166667 111:0.0866546 119:0.278409 121:0.0660921 122:-0.333334 125:-0.833333 130:-0.08 146:-1 147:-1 184:-1 
-5.113176839116448 12:-0.714286 37:0.75378 45:-0.428571 93:-0.808247 94:-0.89748 96:-0.197164 105:-0.25 106:-0.4 109:-0.444444 111:0.282401 119:0.214488 121:0.139101 122:-0.525 125:-0.375 130:-0.234287 146:-1 147:-1 184:-1 
-3.12713379570009 12:-0.428571 37:0.434125 45:-0.428571 93:-0.726471 94:-0.707516 96:-0.236518 105:-0.5 106:-0.6 109:-0.461279 111:0.361323 119:0.0537198 121:0.141589 122:-0.936508 125:-0.888889 130:-0.542858 146:-1 147:-0.664001 184:-1 
-48.77204970591661 12:-0.428571 37:0.758099 45:-0.428571 93:-0.494566 94:-0.783816 96:-0.153531 105:-0.25 106:-0.6 109:-0.426524 111:0.393985 119:0.121702 121:0.348412 122:-0.722222 125:-1 130:0.19 146:-1 147:-1 184:-0.714286 
-35.07694143402919 12:-0.714286 37:0.451404 45:-0.142857 93:-0.6 94:-1 96:-0.282257 105:-0.5 106:-0.4 109:-0.166667 111:0.325835 119:0.214488 121:0.303371 122:-0.974026 125:-0.506494 130:0.0742866 146:-1 147:-1 184:-1 
-28.53931762968191 12:-0.142857 37:0.775378 45:-0.142857 93:-0.682955 94:-1 96:-0.620738 105:-0.5 106:-0.4 109:-0.0476178 111:0.294786 119:0.16883 121:0.0178536 122:-0.52381 125:-0.873016 130:0.136 146:-0.511112 147:-0.626668 184:-1 
-29.92288168296615 12:-0.428571 37:0.390929 45:-0.142857 93:-0.6 94:-0.572281 96:-0.401881 105:-0.5 106:-0.4 109:-0.407407 111:0.340793 119:0.0909102 121:0.0606165 122:-0.553572 125:-0.910714 130:-0.62 146:-1 147:-0.253336 184:-1 
-8.90945917793651 12:0.142857 37:0.691145 45:0.142857 93:-0.898913 94:-0.567632 96:-0.637228 105:-0.5 106:-0.2 109:-0.283154 111:0.373824 119:-0.0102661 121:0.254207 122:-0.960784 125:-0.51634 130:-0.542858 146:-1 147:-1 184:-1 
-61.20304 12:-0.428571 37:0.835853 45:-0.428571 93:-0.806251 94:-1 96:-0.304686 105:-0.5 106:-0.6 109:-0.607844 111:0.284467 119:0.263371 121:0.143931 122:-0.503268 125:-0.699346 130:-0.440001 146:-1 147:-1 184:-1 
-61.20304 12:-0.714286 37:0.915767 45:-0.714286 93:-0.565421 94:-0.814122 96:-0.584111 105:-0.25 106:-0.4 109:-0.569892 111:0.640876 119:-0.0102661 121:0.522693 122:-0.587302 125:-0.746032 130:-0.512 146:-0.568628 147:-0.67059 184:-1 
-11.5661814544674 12:-0.142857 37:0.712743 45:-0.142857 93:-0.530303 94:-0.698653 96:-0.550505 105:-0.25 106:-0.4 109:-0.279279 111:0.31118 119:0.271499 121:0.221236 122:-0.873016 125:-0.68254 130:-0.35 146:-1 147:-1 184:-0.714286 
-12.93026963454365 12:-0.428571 37:0.222462 45:-0.428571 93:-0.635294 94:-0.415032 96:0.0906878 105:-0.5 106:-0.6 109:-0.215686 111:0.272678 119:0.143049 121:0.00220925 122:-0.70238 125:-0.940476 130:-0.440001 146:-1 147:-1 184:-1 
-18.02936693473989 12:-0.428571 37:0.555076 45:-0.142857 93:-0.358622 94:-0.657087 96:-0.232758 105:-0.25 106:-0.4 109:-0.48718 111:0.510398 119:0.022727 121:0.187541 122:-0.222222 125:-0.805556 130:-0.234287 146:-1 147:-0.609304 184:-0.714286 
-61.20304 12:-0.714286 37:0.758099 45:-0.428571 93:-0.9 94:-0.78614 96:-0.521504 105:-0.5 106:-0.6 109:-0.73064 111:0.355749 119:0.239668 121:0.247785 122:-0.935897 125:-0.961538 130:-0.35 146:-1 147:-1 184:-1 
-57.04889605904832 12:-0.714286 37:0.550756 45:-0.428571 93:-0.608421 94:-0.895322 96:-0.180262 105:-0.5 106:-0.6 109:-0.583333 111:0.328065 119:0.150568 121:0.056966 122:-0.846154 125:-1 130:-0.234287 146:-1 147:-0.236367 184:-0.714286 
-29.89953653097819 12:-0.714286 37:0.265659 45:-0.428571 93:-0.582023 94:-0.664793 96:0.499997 106:-0.6 109:-0.444444 111:0.388803 119:0.342329 121:0.294245 122:-0.933333 125:-0.6 130:-0.08 146:-1 147:-0.590246 184:-0.714286 
-61.20304 12:-0.428571 37:0.580994 45:-0.142857 93:-0.163001 94:-0.900555 96:-0.443749 105:-0.25 106:-0.4 109:-0.0572356 111:0.325137 119:0.177687 121:0.230085 122:-0.835897 125:-0.651282 130:-0.234287 146:-1 147:-0.253336 184:-1 
-58.53296620485422 12:-0.428571 37:0.732181 45:-0.428571 93:-0.500001 94:-0.572281 96:-0.641128 105:-0.5 106:-0.6 109:-0.111111 111:0.338299 119:0.022727 121:0.00220925 122:-0.733334 125:-1 130:-0.542858 146:-1 147:-1 184:-1 
-20.00324310421853 12:-0.428571 37:0.704104 45:-0.428571 93:-0.819417 94:-0.903452 96:-0.24393 105:-0.5 106:-0.6 109:-0.703704 111:0.525196 119:-0.0454561 121:0.128757 122:-0.628572 125:-0.757142 130:-0.542858 146:-1 147:-1 184:-1 
-43.81705569087904 12:-0.714286 37:0.825054 45:-0.428571 93:-0.489011 94:-0.453601 96:-0.144229 105:-0.25 106:-0.6 109:-0.703704 111:0.369366 119:0.159089 121:0.323449 122:-0.811765 125:-0.611764 130:0.46 146:-1 147:-0.634784 184:-1 
-20.84926791829573 12:-0.714286 37:0.833693 45:-0.714286 93:-0.7 94:-0.572281 96:-0.521504 105:-0.25 106:-0.4 109:-0.426524 111:0.29592 119:0.121702 121:0.0186947 122:-0.925134 125:-0.657754 130:-0.440001 146:-1 147:-0.642554 184:-1 
-9.536393509827688 12:-0.428571 37:0.395248 45:-0.428571 93:-0.424743 94:-0.89748 96:-0.197164 105:-0.5 106:-0.6 109:-0.326599 111:0.344544 119:0.301653 121:0.380527 122:-0.444444 125:-0.777778 130:0.46 146:-0.463416 147:-0.590246 184:-1 
-0.2154184823991399 12:-0.714286 37:0.786177 45:-0.428571 93:-0.393479 94:-0.783816 96:0.0883171 105:-0.5 106:-0.6 109:-0.703704 111:0.363743 119:0.022727 121:0.26991 122:-0.71591 125:-0.613636 130:0.280001 146:-0.511112 147:-1 184:-1 
-61.20304 12:-0.428571 37:0.479482 45:-0.428571 93:-0.595652 94:-0.783816 96:-0.153531 105:-0.5 106:-0.4 109:-0.326599 111:0.225143 119:0.363635 121:0.314156 122:-0.5 125:-0.535714 130:0.280001 146:-0.52174 147:-0.634784 184:-1 
-2.677121810982937 12:-0.428571 37:0.488121 45:-0.428571 93:-1 94:-0.368605 96:-0.823413 105:-0.75 106:-0.6 109:0.0582044 111:0.337944 119:0.16883 121:0.311627 122:-0.75 125:-1 130:1 146:-1 147:-1 184:-1 
-34.18553692204026 12:-0.714286 37:0.647948 45:-0.428571 93:-0.895505 94:-0.888264 96:-0.124998 105:-0.5 106:-0.6 109:-0.139785 111:0.268973 119:0.385632 121:0.27776 122:-0.762238 125:-0.986014 130:0.382858 146:-1 147:-1 184:-1 
-14.57599604489518 12:-0.714286 37:0.36933 45:-0.428571 93:-0.734286 94:-0.810582 96:0.0595255 105:-0.25 106:-0.6 109:-0.132791 111:0.366648 119:0.496675 121:0.588063 122:0.076924 125:-0.48718 130:-0.542858 146:-1 147:-1 184:-0.714286 
-9.260776482856173 12:-0.714286 37:0.615551 45:-0.428571 93:-0.65125 94:-0.627083 96:-0.582812 105:-0.25 106:-0.4 109:-0.316239 111:0.353538 119:0.180072 121:0.238084 122:-0.7 125:-0.9 130:-0.234287 146:-1 147:-1 184:-1 
-14.88826232552681 12:-0.428571 37:0.544276 45:-0.142857 93:-0.706317 94:-0.476607 96:0.0539485 105:-0.5 106:-0.4 109:-0.326599 111:0.164556 119:0.301653 121:0.0265446 122:-0.979798 125:-0.636364 130:-0.296 146:-1 147:-1 184:-1 
-61.20304 12:-0.428571 37:0.673866 45:-0.428571 93:-0.586668 94:-0.779012 96:-0.505555 105:-0.5 106:-0.6 109:-0.25926 111:0.246311 119:0.295456 121:0.177431 122:-0.584616 125:-0.615384 130:-0.234287 146:-1 147:-1 184:-1 
-22.03384770933653 12:-0.428571 37:0.647948 45:-0.428571 93:-0.307447 94:-0.471039 96:-0.171541 106:-0.6 109:-0.0277778 111:0.298598 119:0.0866475 121:0.29881 122:-0.782052 125:-0.961538 130:-0.200001 146:-1 147:-1 184:-1 
-6.741514473366895 12:0.142857 37:0.820734 45:0.142857 93:-0.225001 94:-0.896412 96:-0.1888 105:-0.25 106:-0.2 109:-0.856631 111:0.332769 119:0.0557202 121:-0.113192 122:-0.419608 125:-0.552942 130:-0.440001 146:-1 147:-0.253336 184:-1 
-26.46462687966307 12:-0.714286 37:0.440605 45:-0.428571 93:-0.452942 94:-0.649019 96:-0.0838226 105:-0.25 106:-0.4 109:-0.233716 111:0.389508 119:0.0579948 121:0.321939 122:-1 125:-0.5 130:0.280001 146:-1 147:-0.580001 184:-1 
-28.02206462397749 12:-0.428571 37:0.604752 45:0.142857 93:-0.400001 94:-0.78614 96:-0.162633 106:-0.2 109:-0.0123467 111:0.535242 119:0.21212 121:0.313175 122:0.09804 125:-0.796078 130:-0.234287 146:-1 147:-0.590246 184:-1 
-48.45764129099435 12:-0.714286 37:0.74946 45:-0.714286 93:-0.232991 94:-0.69244 96:-0.197164 105:-0.25 106:-0.4 109:-0.191919 111:0.275231 119:0.115701 121:0.132741 122:-0.29697 125:-0.769696 130:-0.234287 146:-1 147:-1 184:-1 
-45.96634767429447 12:-0.142857 37:0.63067 45:-0.142857 93:-0.696739 94:-0.891908 96:-0.516303 105:-0.25 106:-0.4 109:-0.139785 111:0.247822 119:0.187685 121:0.136452 122:-0.984127 125:-0.825397 130:-0.08 146:-1 147:-0.138463 184:-1 
-61.20304 12:-0.714286 37:0.490281 45:-0.428571 93:-0.577274 94:-0.886995 96:-0.367897 105:-0.5 106:-0.6 109:-0.386973 111:0.442322 119:0.199057 121:0.342078 122:-0.588236 125:-0.529412 130:0.19 146:-1 147:-1 184:-1 
-6.240034692151579 12:-0.714286 37:0.855292 45:-0.714286 93:-0.586668 94:-0.668518 96:-0.629166 105:-0.25 106:-0.4 109:0.00358222 111:0.344199 119:-0.0102661 121:0.178844 122:-0.803922 125:-0.588236 130:-0.234287 146:-0.388888 147:-1 184:-0.714286 
-55.66151854430919 12:-0.428571 37:0.49892 45:-0.428571 93:-0.709375 94:-0.792824 96:-0.0729156 105:-0.5 106:-0.6 109:-0.569892 111:0.340014 119:0.187685 121:0.183555 122:-0.87013 125:-0.935065 130:-0.234287 146:-1 147:-1 184:-1 
-28.74094179563035 12:-0.428571 37:0.650108 45:-0.428571 93:-0.520619 94:-0.89748 96:0.0322181 105:-0.25 106:-0.6 109:-0.461279 111:0.236988 119:0.115701 121:0.168138 122:-0.813187 125:-0.516484 130:-0.440001 146:-0.52174 147:-0.634784 184:-1 
-18.96987874777797 12:-0.428571 37:0.654428 45:-0.428571 93:-0.489011 94:-0.89072 96:-0.266482 105:-0.25 106:-0.6 109:-0.0277778 111:0.371913 119:0.150568 121:0.171041 122:-0.324676 125:-0.844156 130:-0.440001 146:-1 147:-1 184:-0.714286 
-14.77502334868872 12:0.428571 37:0.647948 45:0.428571 93:-0.335715 94:-0.898526 96:-0.432397 105:-0.5 109:-0.139785 111:0.55007 119:0.253667 121:0.546243 122:-0.396826 125:-0.539682 130:-0.512 146:-1 147:-1 184:-1 
-4.505358842348466 12:-0.428571 37:0.520518 45:-0.428571 93:-0.781177 94:-1 96:-0.47647 105:-0.5 106:-0.6 109:-0.407407 111:0.239492 119:0.500001 121:0.308847 122:-0.666666 125:-0.733334 130:0.280001 146:-1 147:-0.520002 184:-1 
-44.36908168372372 12:-0.428571 37:0.766739 45:-0.428571 93:-0.624243 94:-0.497754 96:-0.213382 105:-0.5 106:-0.4 109:-0.444444 111:0.229214 119:-0.0411934 121:-0.171187 122:-0.983806 125:-0.805668 130:-0.234287 146:-1 147:-0.328002 184:-1 
-61.20304 12:-0.714286 37:0.682505 45:-0.714286 93:-0.6 94:-1 96:-0.641128 105:-0.25 106:-0.6 109:-0.693486 111:0.547706 119:0.269593 121:0.4025 122:-0.5 125:-0.75 130:-0.542858 146:-1 147:-0.618183 184:-1 
-7.701193863734064 12:-0.714286 37:0.928726 45:-0.714286 93:-0.910577 94:-0.90438 96:-0.0372577 105:-0.5 106:-0.4 109:-0.59596 111:0.563311 119:-0.070247 121:0.570795 122:-0.111112 125:-0.933333 130:-0.512 146:-0.0638297 147:-0.642554 184:-1 
-35.07847161609481 12:-0.428571 37:0.758099 45:-0.428571 93:-0.510527 94:-0.895322 96:-0.297367 105:-0.5 106:-0.6 109:-0.555556 111:0.347589 119:-0.0454561 121:0.0849518 122:-0.783334 125:-0.958333 130:-0.542858 146:-1 147:-0.618183 184:-1 
-36.49006340142309 12:-0.428571 37:0.572354 45:-0.428571 93:-0.552885 94:-0.617521 96:-0.0372577 105:-0.5 106:-0.6 109:-0.135803 111:0.14644 119:0.193183 121:0.0589927 122:-0.809524 125:-0.904762 130:-0.234287 146:-0.531915 147:-0.642554 184:-1 
-41.59784378634042 12:-0.714286 37:0.600432 45:-0.142857 93:-0.821154 94:-0.80876 96:-0.144229 105:-0.5 109:-0.181286 111:0.2044 119:0.291864 121:0.140541 122:-0.846154 125:-0.846154 130:-0.234287 146:-0.56 147:-0.664001 184:-1 
-5.376982310199663 12:0.142857 37:0.87689 45:0.428571 93:-0.638835 94:-0.806903 96:-0.675971 105:-0.25 109:0.0457511 111:0.585971 119:0.564171 121:0.758069 122:-0.160714 125:-0.946429 130:-0.440001 146:-0.102041 147:-1 184:-1 
-9.57293984504167 12:-0.428571 37:0.568035 45:-0.142857 93:-0.693407 94:-0.89072 96:-0.266482 105:-0.5 106:-0.4 109:-0.670782 111:0.458534 119:0.0606048 121:0.102258 122:-0.428572 125:-0.333334 130:-0.08 146:-1 147:-0.642554 184:-1 
-39.3537207698007 12:-0.142857 37:0.485961 45:-0.142857 93:-0.535001 94:-1 96:0.251564 105:-0.25 106:-0.4 109:-0.316239 111:0.420192 119:0.180072 121:0.120148 122:-0.923077 125:-0.961538 130:-0.440001 146:-1 147:-1 184:-1 
-38.57268960149819 12:-0.714286 37:0.723542 45:-0.714286 93:-0.709375 94:-1 96:-0.420572 105:-0.25 106:-0.6 109:-0.139785 111:0.289299 119:0.121702 121:-0.000144558 122:-0.821429 125:-0.946429 130:-0.440001 146:-0.52174 147:-0.634784 184:-1 
-53.50946133544273 12:-0.142857 37:0.803456 45:-0.142857 93:-0.179413 94:-1 96:-0.127449 105:-0.25 106:-0.4 109:-0.111111 111:0.243127 119:0.285715 121:0.146142 122:-0.784616 125:-0.784616 130:-0.542858 146:-0.55102 147:-0.657143 184:-1 
-0.9638265643569148 12:-0.428571 37:0.941685 45:-0.428571 93:-0.546342 94:-0.514904 96:-0.0503029 105:-0.25 106:-0.6 109:-0.233716 111:0.185804 119:0.269593 121:0.216202 122:-0.7 125:-0.9 130:0.46 146:0.157895 147:-1 184:-1 
-3.848133021020117 12:-0.714286 37:0.663067 45:-0.142857 93:-0.608421 94:-0.26725 96:-0.648684 105:-0.25 106:-0.4 109:-0.166667 111:0.259732 119:0.150568 121:0.21211 122:-1 125:-0.833333 130:-0.200001 146:-1 147:-0.609304 184:-1 
-4.650326342061295 12:-0.714286 37:0.645788 45:-0.428571 93:-0.675582 94:-0.537467 96:-0.353197 105:-0.5 106:-0.4 109:-1 111:0.410218 119:0.0606048 121:0.286133 122:-1 125:-0.666666 130:-0.35 146:-0.421052 147:-0.557896 184:-1 
-8.739580988085875 12:-0.714286 37:0.792657 45:-0.428571 93:-1 94:-0.553058 96:-0.874999 105:-0.75 106:-0.6 109:-0.703704 111:0.300232 119:0.159089 121:0.0946883 122:-0.17647 125:-0.960784 130:0.0742866 146:-1 147:-0.634784 184:-1 
-10.19873920918904 12:-0.428571 37:0.654428 45:-0.428571 93:-0.806251 94:-0.585647 96:-0.536457 105:-0.5 106:-0.6 109:-0.444444 111:0.291712 119:0.150568 121:0.16648 122:0.1 125:-1 130:0.46 146:-1 147:-0.160003 184:-1 
-3.348488964547745 12:-0.714286 37:0.831533 45:-0.714286 93:-0.425927 94:-0.631687 96:-0.450617 105:-0.5 106:-0.6 109:-0.822222 111:0.499047 119:0.0636361 121:0.0635368 122:-0.555556 125:-0.888889 130:-0.440001 146:-1 147:-1 184:-0.714286 
-0.1152012117098427 12:-0.714286 37:0.466523 45:-0.428571 93:-0.712372 94:-0.0773182 96:-1 105:-0.25 106:-0.6 109:-0.444444 111:0.380397 119:0.214488 121:0.408323 122:-0.875 125:-0.910714 130:0.76 146:-1 147:-0.626668 184:-1 
-0.4585014908999789 12:-0.714286 37:0.434125 45:-0.142857 93:-0.516883 94:-0.354255 96:0.0113653 105:-0.5 106:-0.4 109:-0.316239 111:0.2436 119:0.101399 121:0.204389 122:-0.873016 125:-0.650794 130:0.280001 146:-1 147:-0.475002 184:-1 
-24.62100355853107 12:-0.142857 37:0.572354 45:-0.142857 93:-0.510527 94:-0.581286 96:-0.0631567 105:-0.25 106:-0.4 109:-0.583333 111:0.35491 119:0.0866475 121:0.202984 122:-0.990385 125:-0.634616 130:-0.08 146:-0.531915 147:-0.285109 184:-1 
-19.46475068487413 12:0.142857 37:0.578834 45:0.142857 93:-0.797827 94:0.080923 96:-0.0326074 105:-0.5 106:-0.2 109:0.111111 111:0.381384 119:0.150568 121:0.367254 122:-0.76923 125:-0.961538 130:-0.62 146:-1 147:-1 184:-1 
-0.7891896015249537 12:-0.714286 37:0.734341 45:-0.428571 93:-0.137114 94:-0.0773182 96:-0.0824731 105:-0.25 106:-0.4 109:-0.492063 111:0.112702 119:0.0519484 121:0.0460147 122:-0.815385 125:-0.938462 130:-0.542858 146:-1 147:-0.642554 184:-1 
-4.604668427439949 12:-0.142857 37:0.257019 45:-0.142857 93:-0.8 94:-0.358422 96:-0.760752 105:-0.5 106:-0.4 109:-0.407407 111:0.280962 119:0.0909102 121:0.157961 122:-0.833333 125:-0.6 130:0.639999 146:-1 147:-1 184:-1 
-14.63798343253879 12:-0.428571 37:0.460043 45:-0.428571 93:-0.59121 94:-0.235041 96:-0.144229 105:-0.5 106:-0.4 109:-0.555556 111:0.336245 119:0.022727 121:0.235838 122:-0.705882 125:-0.435294 130:0.280001 146:-0.435898 147:-0.569233 184:-1 
-59.58784 12:-0.142857 37:0.367171 45:-0.142857 93:-0.715307 94:-1 96:-0.432397 105:-0.5 106:-0.4 109:-0.03904 111:0.320595 119:0.54791 121:0.430398 122:-0.454546 125:-0.636364 130:-0.542858 146:-1 147:-0.642554 184:-1 
-59.58784 12:-0.714286 37:0.50324 45:-0.428571 93:-0.804211 94:-0.685965 96:-0.297367 105:-0.25 106:-0.6 109:-0.492063 111:0.352469 119:0.577921 121:0.663464 122:-0.95 125:-0.85 130:0.280001 146:-1 147:-0.600002 184:-1 
-59.58784 12:-0.142857 37:0.5054 45:-0.142857 93:-0.791012 94:-0.776529 96:-0.374999 105:-0.5 106:-0.4 109:-0.569892 111:0.412247 119:0.319649 121:0.489723 122:-0.944056 125:-0.832168 130:-0.200001 146:-0.463416 147:-1 184:-1 
-44.95994408962192 12:-0.714286 37:0.930886 45:-0.714286 93:-1 94:-0.476607 96:-0.0631567 105:-0.75 109:0.481484 111:0.596515 119:0.56818 121:0.586281 122:-0.666666 125:-0.888889 130:-0.62 146:-1 147:-0.642554 184:-1 
-39.79840428179453 12:-0.428571 37:0.883369 45:-0.428571 93:-0.682955 94:0.0170498 96:-0.494318 105:-0.25 106:-0.6 109:0.0728 111:0.289517 119:0.0579948 121:0.175921 122:-0.736112 125:-0.597222 130:-0.08 146:-1 147:-1 184:-1 
-4.481456 12:-0.714286 37:0.671706 45:-0.428571 93:-0.418751 94:-0.792824 96:-0.652343 105:-0.25 106:-0.4 109:0.111111 111:0.383485 119:0.278409 121:0.253179 122:-0.761904 125:-0.961905 130:-0.35 146:-1 147:-1 184:-1 
-4.481456 12:-0.428571 37:0.758099 45:-0.428571 93:-0.418751 94:-0.792824 96:-0.536457 105:-0.5 106:-0.6 109:-0.52381 111:0.451104 119:0.16883 121:0.236881 122:-0.904762 125:-0.904762 130:0.0999993 146:-0.0833327 147:0.0499966 184:-1 
-4.481456 12:-0.714286 37:0.455724 45:-0.428571 93:-0.793334 94:-0.779012 96:-0.381943 105:-0.5 106:-0.6 109:-0.341564 111:0.478153 119:0.136364 121:0.29695 122:-0.915966 125:-0.957983 130:0.0742866 146:-1 147:-0.580001 184:-1 
-4.481456 12:-0.714286 37:0.732181 45:-0.142857 93:-0.882279 94:-0.874121 96:-0.295885 105:-0.5 106:-0.4 109:-0.822222 111:0.489012 119:0.0636361 121:0.221236 122:-0.779412 125:-0.411764 130:-0.440001 146:-1 147:-0.590246 184:-1 
-4.481456 12:-0.714286 37:0.570194 45:-0.428571 93:-0.696739 94:-0.891908 96:-0.153531 105:-0.5 106:-0.6 109:-0.386973 111:0.378864 119:0.128526 121:0.160814 122:-0.73077 125:-0.865385 130:-0.35 146:-1 147:-1 184:-1 
-4.481456 12:-0.714286 37:0.617711 45:-0.428571 93:-0.686517 94:-0.776529 96:1.1125e-06 105:-0.5 106:-0.4 109:-0.670782 111:0.456531 119:-0.0151507 121:0.237462 122:-0.836538 125:-0.961538 130:-0.35 146:-0.476191 147:-0.200003 184:-1 
-47.51435929998813 12:-0.714286 37:0.419006 45:-0.714286 93:-0.913084 94:-0.628244 96:-0.584111 105:-0.5 106:-0.8 109:-0.4709 111:0.179357 119:0.461039 121:0.363779 122:-0.666666 125:-0.833333 130:-0.234287 146:-1 147:-0.68302 184:-1 
-4.481456 12:-0.428571 37:0.768898 45:-0.428571 93:-0.562354 94:-0.766013 96:-0.345588 105:-0.25 106:-0.4 109:-0.176955 111:0.405874 119:0.136364 121:0.150932 122:-0.7 125:-0.866667 130:-0.542858 146:-1 147:-1 184:-1 
-4.481456 12:-0.714286 37:0.4946 45:-0.142857 93:-0.690001 94:-1 96:-0.505555 105:-0.5 106:-0.4 109:-0.233716 111:0.483304 119:0.128526 121:0.291728 122:-0.7 125:-0.9 130:0.0742866 146:-1 147:-0.557896 184:-1 
-4.481456 12:-0.428571 37:0.764579 45:-0.428571 93:-0.351164 94:-0.421834 96:-0.611918 105:-0.25 106:-0.4 109:-0.145299 111:0.477613 119:0.101399 121:0.181925 122:-0.733334 125:-1 130:-0.542858 146:-1 147:-1 184:-1 
-4.481456 12:-0.428571 37:0.727862 45:-0.428571 93:-0.546342 94:-0.757453 96:-0.185975 105:-0.5 106:-0.6 109:-0.444444 111:0.451577 119:0.022727 121:-0.0221261 122:-0.916667 125:-0.85 130:0.0742866 146:-1 147:-0.557896 184:-1 
-4.481456 12:-0.428571 37:0.721382 45:0.142857 93:-0.696739 94:-0.675724 96:-0.39538 105:-0.5 106:-0.2 109:-0.583333 111:0.346102 119:0.150568 121:0.339876 122:-0.974026 125:-0.844156 130:-0.35 146:-1 147:-0.253336 184:-1 
-10.71475797454062 12:0.142857 37:0.779698 45:0.142857 93:-0.415708 94:-0.427283 96:-0.475785 106:-0.2 109:0.425573 111:0.665447 119:0.196398 121:0.397559 122:-0.436702 125:-0.772358 130:-0.651765 146:-0.297872 147:-0.463831 184:-1 
-4.411642156394443 12:-0.428571 37:-0.239741 45:-0.428571 93:-0.810204 94:-0.746315 96:-0.602678 105:-0.5 106:-0.4 109:0.06136 111:0.33952 119:0.404343 121:0.469686 122:-0.840541 125:-0.832432 130:0.280001 146:-1 147:-0.804652 184:-1 
-4.481456 12:-0.714286 37:0.710583 45:-0.714286 93:-0.520619 94:-0.794959 96:-0.541237 105:-0.25 106:-0.2 109:-0.407407 111:0.530976 119:0.159089 121:0.372123 122:-0.69281 125:-0.915033 130:-0.08 146:-0.531915 147:0.0723372 184:-1 
-4.481456 12:-0.428571 37:0.542117 45:-0.428571 93:-0.797827 94:-0.891908 96:-0.274455 105:-0.5 106:-0.6 109:-0.506172 111:0.519984 119:0.287879 121:0.399702 122:-0.183334 125:-0.958333 130:0.19 146:-1 147:-0.600002 184:-1 
-4.481456 12:-0.428571 37:0.717063 45:-0.428571 93:-0.483333 94:-1 96:-0.0111094 105:-0.25 106:-0.6 109:-0.365079 111:0.393143 119:0.241881 121:0.242096 122:-0.64423 125:-0.913462 130:0.382858 146:-0.488372 147:-0.609304 184:-1 
-4.481456 12:-0.428571 37:0.62635 45:-0.142857 93:-0.515626 94:-0.585647 96:0.15886 105:-0.25 106:-0.4 109:-0.59596 111:0.286883 119:0.239668 121:0.265486 122:-0.128206 125:-0.833333 130:-0.200001 146:-0.511112 147:-0.626668 184:-1 
-4.481456 12:-0.714286 37:0.293737 45:-0.142857 93:-0.709375 94:-0.48206 96:-0.0729156 105:-0.5 106:-0.4 109:0.176471 111:0.337598 119:0.323527 121:0.298541 122:-0.925 125:-0.9 130:0.0742866 146:-1 147:-0.657143 184:-1 
-14.25947700513209 12:-1 37:0.831533 45:-0.714286 93:-0.959565 94:-0.654106 96:-0.516303 105:-0.5 106:-0.6 109:-0.791667 111:0.803741 119:0.374292 121:0.848658 122:-0.104818 125:-0.793344 130:-0.755 146:-1 147:-0.322582 184:-1 
-4.481456 12:-0.428571 37:0.524838 45:-0.142857 93:-0.663856 94:-0.400936 96:-0.195781 105:-0.5 106:-0.4 109:-0.48718 111:0.424801 119:0.022727 121:0.187538 122:-0.8 125:-0.933333 130:-0.35 146:-1 147:-0.520002 184:-1 
-4.481456 12:-0.428571 37:0.768898 45:-0.428571 93:-0.690001 94:-0.668518 96:-0.134721 105:-0.5 106:-0.4 109:-0.25926 111:0.269495 119:0.0909102 121:0.0995536 122:-0.791666 125:-0.583334 130:-0.08 146:-0.421052 147:-0.557896 184:-1 
-4.481456 12:-0.142857 37:0.786177 45:-0.142857 93:-0.436364 94:-1 96:-0.662879 106:-0.4 109:0.07744 111:0.418903 119:0.42562 121:0.415928 122:-0.411764 125:-0.957219 130:-0.08 146:-1 147:-0.657143 184:-1 
-4.481456 12:-0.428571 37:0.466523 45:-0.142857 93:-0.400001 94:-0.572281 96:-0.282257 105:-0.5 106:-0.4 109:-0.233716 111:0.370708 119:0.128526 121:0.256482 122:-0.276018 125:-0.891403 130:0.0400009 146:-1 147:-0.626668 184:-1 
-8.252934974742445 12:-0.714286 37:0.695464 45:-0.714286 93:-0.720601 94:-0.743919 96:-0.522531 106:-0.4 109:-0.567901 111:0.690991 119:0.335227 121:0.766774 122:-0.75245 125:-0.963235 130:-0.680001 146:-1 147:-0.29412 184:-0.714286 
-4.481456 12:-0.428571 37:0.414687 45:-0.142857 93:-0.616495 94:-0.589919 96:-0.0824731 105:-0.25 106:-0.4 109:0.212124 111:0.325424 119:0.301653 121:0.367254 122:-0.5 125:-0.9 130:-0.35 146:-1 147:-1 184:-1 
-4.481456 12:-0.428571 37:0.639309 45:-0.142857 93:-0.393479 94:-0.891908 96:-0.153531 105:-0.25 106:-0.4 109:-0.111111 111:0.393985 119:0.227272 121:0.367254 122:-0.196582 125:-0.863248 130:0.0400009 146:-1 147:-0.600002 184:-1 
-4.481456 12:-0.428571 37:0.611231 45:-0.428571 93:-0.797827 94:-1 96:-0.274455 105:-0.5 106:-0.6 109:-0.54023 111:0.439345 119:0.269593 121:0.221236 122:-0.266666 125:-0.566666 130:-0.440001 146:-1 147:-0.609304 184:-1 
-4.481456 12:-0.714286 37:0.857451 45:-0.714286 93:-0.595652 94:-0.783816 96:-0.153531 105:-0.25 106:-0.4 109:-0.386973 111:0.343585 119:0.128526 121:0.09536 122:-0.533334 125:-0.971429 130:-0.542858 146:-1 147:-1 184:-1 
-4.481456 12:-0.428571 37:0.838013 45:-0.142857 93:-0.418751 94:-0.896412 96:-0.1888 106:-0.4 109:-0.25926 111:0.513896 119:0.227272 121:0.367254 122:-0.706766 125:-0.902256 130:-0.08 146:0.0232551 147:-0.218608 184:-1 
-4.481456 12:-0.714286 37:0.779698 45:-0.428571 93:-0.477528 94:-1 96:-0.624999 106:-0.6 109:-0.0804622 111:0.464347 119:0.199057 121:0.357185 122:-0.75 125:-1 130:-0.542858 146:-1 147:-0.533334 184:-1 
-17.26909275754899 12:-0.142857 37:0.511879 45:0.142857 93:-0.942236 94:-0.444099 96:-0.101707 105:-0.5 106:-0.2 109:-0.2 111:0.611066 119:-0.0590911 121:0.729379 122:-0.598014 125:-0.947891 130:-0.440001 146:-1 147:-0.370002 184:-1 
-4.481456 12:-0.428571 37:0.805616 45:-0.142857 93:-0.393479 94:-0.783816 96:-0.274455 105:-0.25 106:-0.4 109:0.00358222 111:0.391465 119:0.0557202 121:0.235368 122:-0.795454 125:-0.806818 130:-0.542858 146:-1 147:-1 184:-1 
-4.481456 12:-0.428571 37:0.712743 45:-0.428571 93:-0.530303 94:-0.799102 96:-0.325756 105:-0.25 106:-0.4 109:-0.68254 111:0.514921 119:0.241881 121:0.273385 122:-0.150326 125:-0.784314 130:-0.08 146:-0.511112 147:-0.253336 184:-1 
-4.481456 12:-0.428571 37:0.667387 45:-0.428571 93:-0.686517 94:-1 96:-0.374999 105:-0.5 106:-0.6 109:-0.68254 111:0.414853 119:0.314937 121:0.28903 122:-0.914439 125:-0.775402 130:0.0742866 146:-0.421052 147:-0.557896 184:-1 
-4.481456 12:-0.714286 37:0.600432 45:-0.142857 93:-0.520619 94:-0.89748 96:0.0322181 105:-0.25 106:-0.4 109:0.00358222 111:0.44732 119:0.187685 121:0.386096 122:-0.366666 125:-0.966667 130:-0.62 146:-1 147:-1 184:-1 
-4.481456 12:-0.714286 37:0.844492 45:-0.428571 93:-0.515626 94:-0.896412 96:-0.304686 105:-0.25 106:-0.6 109:-0.506172 111:0.494574 119:0.136364 121:0.113075 122:-0.884615 125:-0.48718 130:0.0742866 146:-0.421052 147:-0.557896 184:-1 
-4.481456 12:-0.714286 37:0.714903 45:-0.428571 93:-0.436364 94:-0.899551 96:-0.43813 105:-0.25 106:-0.6 109:-0.555556 111:0.514921 119:0.227272 121:0.157961 122:-0.475524 125:-0.811189 130:-0.234287 146:-1 147:-0.694547 184:-1 
-4.481456 12:-0.428571 37:0.598272 45:-0.428571 93:-0.59121 94:-0.781441 96:-0.266482 105:-0.5 106:-0.6 109:-0.52381 111:0.565539 119:0.022727 121:0.226452 122:-0.44853 125:-0.5 130:-0.680001 146:-0.499999 147:-0.618183 184:-1 
-4.481456 12:-0.428571 37:0.695464 45:-0.428571 93:-0.793334 94:-1 96:-0.629166 105:-0.25 106:-0.6 109:-0.206349 111:0.506489 119:0.16883 121:0.450692 122:-0.142858 125:-0.642858 130:-0.200001 146:-1 147:-0.590246 184:-1 
-6.406823425257111 12:-0.714286 37:0.863931 45:-0.714286 93:-0.794853 94:-0.780637 96:-0.46829 105:-0.5 106:-0.6 109:-0.746032 111:0.788924 119:-0.0941543 121:0.61757 122:-0.520978 125:-0.621562 130:-0.748572 146:-0.65625 147:-0.343752 184:-1 
-4.481456 12:-0.428571 37:0.663067 45:-0.428571 93:-0.7675 94:-1 96:-0.165624 105:-0.5 106:-0.6 109:-0.288889 111:0.368028 119:-0.018182 121:0.104422 122:-0.776224 125:-0.902098 130:-0.08 146:-0.405406 147:-0.545948 184:-1 
-4.481456 12:-0.428571 37:0.736501 45:-0.428571 93:-0.525511 94:-0.797051 96:-0.318876 105:-0.5 106:-0.6 109:-0.25926 111:0.396299 119:0.022727 121:0.138494 122:-0.719298 125:-0.929825 130:-0.440001 146:-1 147:-1 184:-1 
-4.481456 12:-0.714286 37:0.434125 45:-0.142857 93:-0.791012 94:-0.888264 96:0.125006 105:-0.5 106:-0.4 109:-0.233716 111:0.380988 119:0.199057 121:0.347113 122:-0.835897 125:-0.907692 130:0.280001 146:-0.463416 147:-0.590246 184:-1 
-2.545248222727519 12:-0.714286 37:0.766739 45:-0.714286 93:-0.678302 94:-0.968728 96:-0.405267 105:-0.25 106:-0.6 109:-0.7558 111:0.676749 119:0.146354 121:0.510063 122:-0.724056 125:-0.581062 130:-0.84 146:-1 147:-0.413956 184:-0.714286 
-32.43703160271339 12:-0.714286 37:0.142549 45:-0.142857 93:-0.710881 94:-1 96:-0.193003 105:-0.5 106:-0.4 109:-0.111111 111:0.479233 119:0.261362 121:0.425661 122:-0.843698 125:-0.959664 130:-0.524705 146:-1 147:-1 184:-1 
-4.481456 12:-0.714286 37:0.650108 45:-0.428571 93:-0.719397 94:-0.957136 96:-0.232758 105:-0.5 106:-0.4 109:-0.65812 111:0.617657 119:0.00699341 121:0.38298 122:-0.75 125:-0.678572 130:-0.872001 146:-1 147:-0.664001 184:-1 
-0.9571566197899991 12:-0.428571 37:0.915767 45:-0.428571 93:-0.450247 94:-0.755063 96:-0.342364 105:-0.5 106:-0.2 109:-0.854281 111:0.729296 119:-0.161699 121:0.546783 122:-0.60909 125:-0.990909 130:-0.89 146:-1 147:-0.646317 184:-0.428571 
-23.50946646064003 12:-0.428571 37:0.717063 45:-0.142857 93:-0.575127 94:-1 96:-0.322334 105:-0.25 106:-0.4 109:-0.125683 111:0.412365 119:0.106558 121:0.135062 122:-0.766296 125:-0.699524 130:-0.542858 146:-1 147:-0.826804 184:-0.714286 
-25.58422611375346 12:-0.428571 37:0.613391 45:-0.428571 93:-0.727201 94:-0.920444 96:-0.109999 105:-0.5 106:-0.2 109:-0.651416 111:0.589746 119:-0.0775411 121:0.282792 122:-0.9867 125:-0.889759 130:-0.84 146:-0.738094 147:-0.200003 184:-1 
-20.63501370934714 12:-0.428571 37:0.75594 45:-0.428571 93:-0.759483 94:-0.914272 96:-0.328663 105:-0.25 106:-0.6 109:-0.291466 111:0.683614 119:-0.0810266 121:0.633895 122:-0.462586 125:-0.510204 130:-0.728 146:-0.6 147:-0.54182 184:-0.714286 
-5.666609870871757 12:-0.428571 37:0.708423 45:-0.142857 93:-0.732099 94:-0.549839 96:-0.221707 105:-0.5 106:-0.2 109:-0.619048 111:0.517174 119:-0.240261 121:0.27547 122:-0.605476 125:-0.599034 130:-0.705264 146:-1 147:-0.453661 184:-1 
