svm_type c_svc
kernel_type rbf
gamma 0.25
nr_class 2
total_sv 842
rho -3.65131
label 1 -1
nr_sv 394 448
SV
8 12:-0.714286 37:0.958963 45:-0.714286 93:-0.122643 94:-0.155659 96:-0.160376 106:-0.6 109:-0.181286 111:0.298366 119:0.130383 121:0.228923 122:-0.766666 125:-0.666666 130:-0.08 146:-1 147:-0.657143 184:-0.714286 
8 12:-0.142857 37:0.38013 45:-0.142857 93:-0.693407 94:-0.125762 96:0.100276 105:-0.5 106:-0.4 109:-0.0572356 111:0.152808 119:0.177687 121:0.0973429 122:-0.611112 125:-0.777778 130:-0.440001 146:-1 147:-1 184:-1 
8 12:-0.428571 37:0.885529 45:-0.428571 93:-0.903125 94:-0.48206 96:-0.0729156 105:-0.5 106:-0.6 109:-0.238095 111:0.291712 119:0.285715 121:0.0877349 122:-0.914286 125:-0.885714 130:-0.440001 146:-1 147:-0.650002 184:-0.714286 
8 12:-0.428571 37:0.572354 45:-0.428571 93:-0.788636 94:0.0170498 96:-0.367897 105:-0.5 106:-0.6 109:-0.583333 111:0.115635 119:-0.0411934 121:-0.0342953 122:-0.566666 125:-0.566666 130:-0.542858 146:-1 147:-0.590246 184:-1 
8 12:-0.428571 37:0.548596 45:-0.428571 93:-0.682955 94:-0.773989 96:-0.115055 105:-0.5 106:-0.6 109:-0.555556 111:0.294786 119:0.363635 121:0.226105 122:-0.9 125:-0.9 130:-0.296 146:-1 147:-1 184:-1 
8 12:-0.142857 37:0.732181 45:-0.142857 93:-0.703192 94:-0.682624 96:-0.171541 105:-0.25 106:-0.4 109:-0.346405 111:0.308465 119:0.323527 121:0.397316 122:-0.44056 125:-0.93007 130:-0.200001 146:-1 147:-1 184:-1 
8 12:-0.428571 37:0.257019 45:-0.428571 93:-0.895505 94:-0.441322 96:-0.249999 105:-0.5 106:-0.6 109:-0.444444 111:0.308048 119:0.47017 121:0.339876 122:-0.472728 125:-0.945455 130:-0.296 146:-1 147:-0.600002 184:-1 
4.245949743630498 12:-0.428571 37:0.339093 45:-0.428571 93:-0.6 94:-0.78614 96:-0.401881 105:-0.25 106:-0.6 109:0.07744 111:0.236089 119:0.363635 121:0.238937 122:0.166666 125:-0.772728 130:-0.08 146:-1 147:-1 184:-1 
8 12:-0.714286 37:0.909287 45:-0.714286 93:-0.6125 94:-0.585647 96:-0.0729156 105:-0.25 106:-0.6 109:-0.59596 111:0.274809 119:0.301653 121:0.300883 122:-0.467532 125:-0.948052 130:-0.35 146:-1 147:-1 184:-1 
8 12:-0.714286 37:0.237581 45:-0.428571 93:-0.715307 94:-0.289681 96:-0.205356 105:-0.5 106:-0.6 109:-0.382716 111:0.306399 119:0.420453 121:0.497047 122:-0.555556 125:-0.888889 130:0.19 146:-1 147:-1 184:-1 
8 12:-0.142857 37:0.883369 45:-0.142857 93:0.149442 94:-0.329587 96:-0.374999 106:-0.4 109:-0.25926 111:0.61804 119:-0.147729 121:-0.113387 122:-0.865546 125:-0.333334 130:-0.799999 146:-1 147:-0.580001 184:-1 
8 12:-0.714286 37:0.710583 45:-0.428571 93:-0.781177 94:-0.766013 96:-0.214705 105:-0.5 106:-0.6 109:-0.0572356 111:0.419511 119:0.611568 121:0.654866 122:-0.971429 125:-0.971429 130:-0.234287 146:-1 147:-1 184:-1 
8 12:-0.142857 37:0.406048 45:-0.142857 93:-0.783721 94:-0.768734 96:-0.353197 105:-0.5 106:-0.4 109:0.111111 111:0.264642 119:0.214488 121:0.344438 122:-0.8 125:-0.8 130:-0.200001 146:-1 147:-1 184:-1 
8 12:-0.428571 37:0.913607 45:-0.428571 93:-0.889285 94:-0.289681 96:-0.337797 105:-0.5 106:-0.4 109:-0.153439 111:0.87615 119:0.363635 121:0.61757 122:-0.905882 125:-0.796078 130:-0.728 146:-1 147:-0.0400024 184:-1 
8 12:-0.428571 37:0.660907 45:-0.428571 93:-0.655556 94:-0.508916 96:-0.31327 105:-0.25 106:-0.4 109:-0.407407 111:0.224272 119:0.227272 121:0.133625 122:-0.954545 125:-0.727272 130:-0.08 146:-1 147:-0.160003 184:-1 
8 12:-0.142857 37:0.596112 45:0.142857 93:-0.483333 94:-0.00555398 96:0.236112 105:-0.25 106:-0.2 109:0.29032 111:0.30556 119:0.187685 121:0.103479 122:-0.4 125:-0.8 130:-0.440001 146:-1 147:-0.580001 184:-0.714286 
7.727078255985376 12:0.142857 37:0.790497 45:0.142857 93:-0.902106 94:-0.581286 96:-0.0631567 105:-0.5 106:-0.2 109:0.185182 111:0.608717 119:0.0909102 121:0.59115 122:-0.010526 125:-0.873684 130:-0.542858 146:-1 147:-0.569233 184:-1 
8 12:-0.428571 37:0.552916 45:-0.428571 93:-0.927907 94:-0.460378 96:0.207365 105:-0.5 106:-0.6 109:-0.0543733 111:0.461439 119:0.47969 121:0.587835 122:-0.68376 125:-0.264958 130:-0.512 146:-0.65625 147:-0.475002 184:-0.714286 
8 12:0.142857 37:0.758099 45:0.142857 93:-0.652337 94:-0.442366 96:-0.480139 105:-0.5 106:-0.2 109:0.142853 111:0.666877 119:0.461039 121:0.759418 122:-0.444444 125:-0.8 130:-0.62 146:-1 147:-0.676924 184:-1 
8 12:-0.428571 37:0.669546 45:-0.428571 93:0.00843509 94:-0.281123 96:0.20633 105:-0.25 106:-0.6 109:-0.52381 111:0.346589 119:0.022727 121:0.00220925 122:-0.714286 125:-0.857143 130:-0.542858 146:-1 147:-1 184:-0.428571 
8 12:-0.714286 37:0.894168 45:-0.714286 93:-0.845 94:-0.834259 96:-0.165624 105:-0.5 106:-0.4 109:-0.08832 111:0.617258 119:0.363635 121:0.752891 122:-0.431578 125:-0.978947 130:-0.57091 146:-1 147:-0.115792 184:-1 
8 12:-0.714286 37:0.654428 45:-0.428571 93:-0.561321 94:-0.249475 96:-0.160376 106:-0.6 109:-0.59596 111:0.523647 119:0.42562 121:0.486723 122:-0.757576 125:-0.963636 130:-0.35 146:-0.531915 147:-0.285109 184:-1 
8 12:-0.714286 37:0.740821 45:-0.428571 93:-0.833929 94:-0.289681 96:-0.106026 105:-0.5 106:-0.4 109:-0.0277778 111:0.589106 119:0.0866475 121:0.317059 122:-0.93985 125:-0.924812 130:-0.62 146:-1 147:-0.664001 184:-1 
8 12:-0.142857 37:0.7473 45:-0.142857 93:-0.765546 94:-0.247897 96:-0.158612 105:-0.5 106:-0.4 109:0.0840089 111:0.335345 119:0.297117 121:0.281781 122:-0.909091 125:-0.727272 130:-0.62 146:-1 147:-0.187099 184:-1 
8 12:-0.428571 37:0.557235 45:-0.428571 93:-0.660585 94:-0.201539 96:-0.10675 105:-0.25 106:-0.4 109:-0.0697689 111:0.359862 119:0.14165 121:0.0921972 122:-0.5 125:-0.5 130:-0.680001 146:-0.614034 147:-1 184:-0.714286 
8 12:-0.714286 37:0.727862 45:-0.714286 93:-0.919131 94:-0.913526 96:-0.322825 105:-0.5 106:-0.6 109:-0.407407 111:0.606169 119:1 121:0.993508 122:-0.873016 125:-0.825397 130:-0.35 146:-1 147:-0.131038 184:-1 
8 12:-0.428571 37:0.887689 45:-0.428571 93:-0.696739 94:-0.567632 96:-0.516303 105:-0.5 106:-0.4 109:-0.341564 111:0.708987 119:0.363635 121:0.459193 122:-0.761904 125:-0.714286 130:-0.62 146:-1 147:-0.642554 184:-1 
8 12:-0.714286 37:0.913607 45:-0.428571 93:-0.920513 94:-0.745014 96:-0.3344 105:-0.5 106:-0.4 109:0.234569 111:0.739917 119:0.590909 121:0.724187 122:-0.595238 125:-0.757142 130:-0.680001 146:-1 147:-1 184:-1 
8 12:-0.428571 37:0.796976 45:-0.428571 93:-0.728467 94:-0.491889 96:0.0556585 105:-0.25 106:-0.2 109:-0.407407 111:0.44786 119:0.272727 121:0.409436 122:-0.632942 125:-0.971765 130:-0.728 146:-0.278688 147:-1 184:-1 
8 12:-0.428571 37:0.717063 45:-0.428571 93:-1 94:-0.427657 96:0.200545 105:-0.75 106:-0.6 109:0.185182 111:0.717834 119:0.590909 121:0.974041 122:-0.9 125:-0.52 130:-0.57091 146:-0.681158 147:-0.756522 184:-1 
8 12:-0.714286 37:0.766739 45:-0.142857 93:-0.734286 94:-0.431745 96:0.165479 105:-0.25 106:-0.4 109:-0.0277778 111:0.618362 119:0.40625 121:0.599969 122:-0.333334 125:-0.893939 130:-0.440001 146:-1 147:-0.366041 184:-1 
8 12:-1 37:0.857451 45:-0.714286 93:-0.715307 94:-0.695578 96:0.362247 105:-0.5 106:-0.6 109:-0.555556 111:0.564266 119:0.431818 121:0.396458 122:-0.821862 125:-0.700404 130:-0.440001 146:-1 147:-0.600002 184:-1 
8 12:-0.428571 37:0.591793 45:-0.142857 93:-0.182418 94:-0.0164819 96:0.467034 105:-0.25 106:-0.4 109:0.00358222 111:0.348984 119:0.187685 121:0.320152 122:-0.228572 125:-1 130:-0.35 146:-1 147:-1 184:-1 
8 12:-0.714286 37:0.775378 45:-0.428571 93:-0.628 94:-0.104999 96:0.112502 105:-0.5 106:-0.2 109:-0.407407 111:0.45265 119:0.0909102 121:0.138494 122:-0.857143 125:-0.761904 130:-0.234287 146:-1 147:-1 184:-1 
8 12:-0.428571 37:0.758099 45:-0.428571 93:-1 94:-0.644841 96:-0.0729156 105:-0.75 106:-0.4 109:0.316871 111:0.82923 119:0.51515 121:0.935101 122:-0.576924 125:-0.961538 130:-0.542858 146:-1 147:-1 184:-0.714286 
5.949745949193022 12:-0.714286 37:0.855292 45:-0.714286 93:-0.50532 94:0.0579215 96:0.183513 105:-0.25 106:0.4 109:0.226053 111:0.555104 119:0.199057 121:0.372289 122:-0.805668 125:-0.94332 130:-0.542858 146:-1 147:-1 184:-1 
8 12:-0.428571 37:0.833693 45:-0.428571 93:-0.846281 94:-0.424701 96:0.0113653 105:-0.25 106:-0.4 109:0.253564 111:0.649257 119:0.573425 121:0.696732 122:-0.28822 125:-0.874687 130:-0.680001 146:-1 147:-0.115792 184:-1 
8 12:-0.428571 37:0.781857 45:-0.428571 93:-0.9225 94:-0.668518 96:0.0197936 105:-0.5 106:-0.4 109:0.1396 111:0.758295 119:0.625874 121:0.775357 122:-0.666666 125:-0.828283 130:-0.542858 146:-1 147:-1 184:-1 
8 12:-0.714286 37:0.529158 45:-0.428571 93:-0.403846 94:0.0199436 96:-0.572115 105:-0.25 106:-0.6 109:-0.444444 111:0.535817 119:0.107953 121:0.476768 122:-0.515152 125:-0.878788 130:0.382858 146:-1 147:-1 184:-1 
8 12:-0.428571 37:0.507559 45:-0.428571 93:-1 94:-0.355452 96:0.0300943 105:-0.75 106:-0.6 109:0.111111 111:0.479011 119:0.534091 121:0.590338 122:-0.888889 125:-0.944444 130:-0.200001 146:-1 147:-0.68302 184:-1 
8 12:-0.428571 37:0.809935 45:-0.428571 93:-0.757391 94:-0.827053 96:0.160873 105:-0.25 106:-0.6 109:0.111111 111:0.301751 119:0.534091 121:0.56305 122:-0.5 125:-1 130:0.0400009 146:-1 147:-1 184:-1 
8 12:-0.714286 37:0.863931 45:-0.714286 93:-0.721 94:-0.303888 96:-0.332499 105:-0.5 106:-0.6 109:-0.407407 111:0.781866 119:0.0909102 121:0.669024 122:-0.988304 125:-0.760234 130:-0.680001 146:-0.531915 147:-0.642554 184:-1 
8 12:-0.142857 37:0.838013 45:-0.142857 93:-0.793334 94:-0.263373 96:-0.340739 105:-0.25 106:-0.4 109:0.111111 111:0.564878 119:0.301653 121:0.407076 122:-0.735042 125:-0.752136 130:-0.92 146:-1 147:-0.449182 184:-0.714286 
8 12:-0.428571 37:0.846652 45:-0.428571 93:-0.85 94:-0.0376328 96:0.256048 105:-0.5 106:-0.4 109:0.111111 111:0.356997 119:0.022727 121:0.119024 122:-0.466666 125:-0.6 130:-0.08 146:-1 147:-0.420691 184:-1 
8 12:-0.714286 37:0.827214 45:-0.714286 93:-0.722389 94:-0.777362 96:-0.252797 105:-0.25 106:-0.6 109:-0.527187 111:0.334895 119:0.47969 121:0.566087 122:-0.983193 125:-0.957983 130:0.214546 146:-0.633333 147:-0.440002 184:-1 
8 12:-0.714286 37:0.12095 45:-0.428571 93:-0.542624 94:-0.755464 96:-0.179302 105:-0.5 106:-0.6 109:-0.492063 111:0.553407 119:0.285715 121:0.254613 122:-0.72174 125:-0.72174 130:-0.440001 146:-0.55102 147:-0.314288 184:-1 
8 12:-0.428571 37:0.784017 45:-0.142857 93:-0.755263 94:-0.56384 96:-0.219297 105:-0.25 106:-0.4 109:-0.222222 111:0.256885 119:0.329545 121:0.217586 122:-0.87395 125:-0.991597 130:-0.680001 146:-1 147:-0.366041 184:-1 
8 12:-0.428571 37:0.766739 45:-0.428571 93:-0.695082 94:0.0596518 96:0.367832 105:-0.5 106:-0.6 109:-0.181286 111:0.551506 119:0.23804 121:0.474846 122:-0.611112 125:-0.5 130:-0.680001 146:-0.639345 147:-0.724592 184:-1 
8 12:-0.714286 37:0.943844 45:-0.714286 93:-0.709375 94:-0.456162 96:-0.391601 105:-0.25 106:-0.6 109:-0.75976 111:0.63827 119:-0.11548 121:0.418559 122:-0.736112 125:-0.458334 130:-0.728 146:-1 147:-0.37778 184:-1 
8 12:-0.428571 37:0.511879 45:-0.428571 93:-0.894319 94:-0.208963 96:0.643465 105:-0.5 106:-0.6 109:-0.25926 111:0.389631 119:0.295456 121:0.532742 122:-0.966667 125:-0.933333 130:0.19 146:-1 147:-0.590246 184:-1 
8 12:-0.142857 37:0.537797 45:-0.142857 93:-0.847542 94:-0.266392 96:0.27664 105:-0.5 106:-0.2 109:0.300809 111:0.35577 119:0.247228 121:0.25685 122:-0.832727 125:-0.745454 130:-0.62 146:-1 147:-1 184:-1 
8 12:-0.428571 37:0.727862 45:-0.428571 93:-0.521324 94:-0.049427 96:0.390627 105:-0.5 106:-0.4 109:-0.494949 111:0.384053 119:0.115701 121:0.224554 122:-0.690476 125:-0.928571 130:-0.374546 146:-0.671641 147:0.00298199 184:-1 
8 12:-0.428571 37:0.784017 45:-0.428571 93:-0.130842 94:0.0223303 96:-0.688083 105:-0.5 106:-0.6 109:-0.305556 111:0.404701 119:-0.0411934 121:0.0752183 122:-0.628572 125:-0.771428 130:-0.296 146:-0.576922 147:-0.353849 184:-1 
8 12:-0.428571 37:0.654428 45:-0.428571 93:-0.783721 94:0.0792424 96:-0.396317 105:-0.5 106:-0.2 109:-0.222222 111:0.499181 119:0.0738634 121:0.352652 122:-0.613446 125:-0.815126 130:-0.512 146:-0.671641 147:-0.49851 184:-1 
8 12:-0.428571 37:0.850972 45:-0.428571 93:-0.814 94:-0.801111 96:0.335002 105:-0.5 106:-0.6 109:-0.191919 111:0.508292 119:0.549587 121:0.504424 122:-0.692308 125:-0.846154 130:-0.542858 146:-1 147:-1 184:-1 
8 12:-0.714286 37:0.7473 45:-0.428571 93:-0.7675 94:-0.502777 96:0.112502 105:-0.25 106:-0.6 109:-0.48718 111:0.596972 119:0.416084 121:0.513272 122:-0.831169 125:-0.74026 130:-0.542858 146:-1 147:0.72307 184:-1 
8 12:-0.428571 37:0.198704 45:-0.428571 93:-0.795605 94:0.0927967 96:-0.266482 105:-0.5 106:-0.6 109:0.07744 111:0.262361 119:0.363635 121:0.353981 122:-0.506494 125:-0.558442 130:-0.296 146:-1 147:-1 184:-1 
8 12:-0.714286 37:0.907127 45:-0.714286 93:-0.76356 94:-0.494349 96:-0.528601 105:-0.25 106:-0.4 109:-0.649123 111:0.575211 119:0.23804 121:0.401837 122:-0.222222 125:-0.962963 130:-0.512 146:-1 147:-0.657143 184:-0.714286 
8 12:-0.428571 37:0.842333 45:-0.428571 93:-0.707087 94:-0.530183 96:-0.211613 105:-0.5 106:-0.6 109:-0.607844 111:0.732085 119:-0.0975948 121:0.251298 122:-0.530304 125:-0.886364 130:-0.440001 146:-1 147:-0.705263 184:-1 
8 12:-0.428571 37:0.889849 45:-0.428571 93:-0.709375 94:-0.689236 96:-0.565429 105:-0.25 106:-0.4 109:0.2012 111:0.647326 119:0.382064 121:0.536951 122:-0.956364 125:-0.96 130:-0.62 146:-1 147:-0.420691 184:-1 
8 12:-0.714286 37:0.725702 45:-0.428571 93:-0.859091 94:-0.849327 96:-0.578598 105:-0.5 106:-0.6 109:-0.308642 111:0.614448 119:0.772726 121:0.873449 122:-0.40056 125:-0.960784 130:-0.374546 146:-0.639345 147:-1 184:-1 
8 12:-0.428571 37:0.654428 45:-0.428571 93:-0.706317 94:-0.162572 96:0.0539485 105:-0.5 106:-0.6 109:-0.283154 111:0.437887 119:0.253667 121:0.263628 122:-0.8 125:-1 130:-0.542858 146:-1 147:-0.626668 184:-1 
8 12:-0.714286 37:0.87473 45:-0.714286 93:-0.582023 94:-0.329587 96:1.1125e-06 105:-0.5 106:-0.6 109:-0.722222 111:0.930637 119:0.278409 121:0.239489 122:-0.866667 125:-0.933333 130:-0.440001 146:-1 147:-1 184:-1 
8 12:-0.428571 37:0.667387 45:-0.428571 93:-0.808247 94:-0.179839 96:-0.197164 105:-0.5 109:-0.693486 111:0.61941 119:0.128526 121:0.56866 122:-0.594406 125:-0.692308 130:-0.296 146:0.0731709 147:-0.590246 184:-1 
8 12:-0.428571 37:0.477322 45:-0.428571 93:-0.671765 94:-0.766013 96:0.308825 105:-0.5 106:-0.6 109:0.333333 111:0.574982 119:0.636363 121:0.761503 122:-0.321428 125:-0.642858 130:0.0742866 146:0.18919 147:-0.545948 184:-1 
0.2086463450772185 12:-0.714286 37:0.539957 45:0.142857 93:-0.436364 94:-0.472642 96:0.348486 105:0.25 109:-0.132791 111:0.512577 119:0.147451 121:0.406431 122:-0.756522 125:-0.972174 130:-0.62 146:-1 147:-0.483079 184:-1 
8 12:-1 37:0.900648 45:-1 93:-0.311112 94:-0.263373 96:-0.381943 105:0.25 106:-0.4 109:-0.461279 111:0.642161 119:0.42562 121:0.575219 122:-0.871795 125:-0.803419 130:-0.542858 146:-0.463416 147:-1 184:-1 
8 12:-0.428571 37:0.730022 45:-0.428571 93:-0.923771 94:-0.755464 96:-0.0881135 105:-0.5 106:-0.4 109:-0.555556 111:0.646524 119:0.482954 121:0.717698 122:-0.949495 125:-0.666666 130:-0.57091 146:-0.639345 147:-0.724592 184:-1 
8 12:-0.142857 37:0.658747 45:-0.142857 93:-0.7675 94:-0.502777 96:-0.860937 105:-0.5 106:-0.4 109:-0.288889 111:0.843305 119:0.390909 121:0.840353 122:-0.822222 125:-0.866667 130:-0.35 146:-1 147:-1 184:-1 
7.186607601328413 12:-0.714286 37:0.863931 45:-0.142857 93:-1 94:-1 96:-0.616378 105:-0.75 106:-0.4 109:-0.139785 111:0.219929 119:0.385632 121:0.254207 122:-0.515152 125:-0.838384 130:0.568 146:-1 147:-1 184:-1 
8 12:-0.714286 37:0.822894 45:-0.428571 93:-0.872603 94:-0.863775 96:-0.39041 105:-0.5 106:-0.4 109:-0.766082 111:0.703325 119:-0.354066 121:0.275032 122:-0.780392 125:-0.662746 130:0.280001 146:-1 147:-0.0400024 184:-1 
8 12:-0.142857 37:0.719222 45:-0.142857 93:-0.898913 94:-0.567632 96:-0.516303 105:-0.5 106:-0.4 109:-0.506172 111:0.436825 119:-0.166666 121:-0.0437601 122:-0.416666 125:-0.333334 130:-0.542858 146:-0.56 147:-0.664001 184:-1 
8 12:-0.714286 37:0.473002 45:-0.428571 93:-0.468572 94:-1 96:-0.0464269 105:-0.25 106:-0.6 109:-0.613526 111:0.448345 119:0.24506 121:0.151402 122:-0.25 125:-0.75 130:-0.296 146:-1 147:-1 184:-0.714286 
8 12:-0.428571 37:0.311015 45:-0.428571 93:-0.808247 94:-0.89748 96:-0.426545 105:-0.5 106:-0.6 109:-0.279279 111:0.44254 119:0.603194 121:0.631664 122:-0.277778 125:-0.444444 130:-0.35 146:-0.541667 147:-1 184:-1 
8 12:-0.142857 37:0.479482 45:-0.142857 93:-0.748649 94:-0.731231 96:-0.398647 105:-0.25 106:-0.4 109:-0.206349 111:0.309597 119:0.461039 121:0.429835 122:-0.821429 125:-0.5 130:-0.296 146:-1 147:-1 184:-1 
8 12:-0.714286 37:0.915767 45:-0.714286 93:-0.601429 94:-0.715873 96:-0.205356 105:-0.25 106:-0.4 109:-0.39394 111:0.348984 119:0.208679 121:0.154865 122:-0.785714 125:-0.892857 130:0.568 146:-1 147:-1 184:-1 
8 12:-0.714286 37:0.615551 45:-0.428571 93:-0.773171 94:-1 96:-0.185975 105:-0.25 106:-0.6 109:-0.703704 111:0.3611 119:0.363635 121:0.43053 122:-0.717172 125:-0.919192 130:-0.35 146:-0.45 147:-1 184:-1 
8 12:-0.714286 37:0.663067 45:-0.428571 93:-0.628 94:-0.900555 96:-0.443749 105:-0.5 106:-0.6 109:-0.619048 111:0.30659 119:0.285715 121:0.317191 122:-0.611112 125:-0.944444 130:-0.62 146:-0.488372 147:-1 184:-1 
8 12:-0.428571 37:0.583153 45:-0.428571 93:-0.483333 94:-0.861882 96:-0.536457 105:-0.5 106:-0.6 109:-0.25926 111:0.377044 119:0.278409 121:0.129975 122:-0.666666 125:-1 130:-0.08 146:-1 147:-1 184:-0.714286 
8 12:-0.714286 37:0.74946 45:-0.428571 93:-0.703192 94:-0.894208 96:-0.526595 105:-0.5 106:-0.6 109:-0.619048 111:0.370124 119:0.227272 121:0.325534 122:-0.7 125:-0.566666 130:-0.62 146:-0.52174 147:-1 184:-0.714286 
0.3928926780867384 12:-0.428571 37:0.758099 45:-0.428571 93:-0.8 94:-0.679211 96:-0.0430093 105:-0.5 106:-0.6 109:-0.346405 111:0.113935 119:0.263371 121:0.173997 122:-0.833333 125:-0.944444 130:0.280001 146:-1 147:-0.590246 184:-1 
8 12:-0.714286 37:0.602592 45:-0.714286 93:-0.7 94:-0.465352 96:0.315867 105:-0.5 106:-0.6 109:-0.583333 111:0.268498 119:0.0866475 121:-0.0388598 122:-0.69697 125:-0.672728 130:-0.234287 146:-1 147:-1 184:-0.714286 
8 12:-0.714286 37:0.75378 45:-0.142857 93:-0.243025 94:-0.537467 96:-0.223836 105:-0.25 106:-0.4 109:-0.670782 111:0.248467 119:0.136364 121:-0.0545742 122:-0.507936 125:-0.698412 130:0.136 146:-1 147:-0.0400024 184:-1 
2.66139997709285 12:-0.714286 37:0.209503 45:-0.428571 93:-0.494566 94:-0.675724 96:0.209245 105:-0.5 106:-0.6 109:-0.191919 111:0.172221 119:0.177687 121:0.256634 122:-0.888889 125:-0.8 130:0.0400009 146:-0.476191 147:-0.600002 184:-1 
8 12:-0.428571 37:0.723542 45:-0.142857 93:-0.489011 94:-0.562881 96:-0.510989 105:-0.25 106:-0.4 109:-0.365079 111:0.501847 119:0.022727 121:0.122151 122:-0.78882 125:-0.937888 130:-0.542858 146:-1 147:-1 184:-0.714286 
8 12:-0.142857 37:0.760259 45:-0.142857 93:-0.412632 94:-0.476607 96:-0.531578 105:-0.25 106:-0.4 109:-0.722222 111:0.35003 119:0.214488 121:0.326185 122:-0.712122 125:-0.69697 130:-0.440001 146:-1 147:-1 184:-1 
8 12:-0.428571 37:0.868251 45:-0.428571 93:-0.400001 94:-0.358422 96:-0.641128 105:-0.25 106:-0.4 109:-0.477124 111:0.231104 119:0.143049 121:0.118165 122:-0.969697 125:-0.712122 130:-0.35 146:-1 147:-1 184:-1 
8 12:-0.142857 37:0.529158 45:-0.142857 93:-0.726471 94:-0.415032 96:0.199755 105:-0.25 106:-0.4 109:-0.607844 111:0.30677 119:0.0828879 121:0.178289 122:-0.903509 125:-0.815789 130:0.0400009 146:-1 147:-0.626668 184:-1 
8 12:-0.714286 37:0.863931 45:-0.714286 93:-0.675582 94:-0.306201 96:0.0348858 105:-0.25 106:-0.6 109:-0.426524 111:0.350909 119:0.121702 121:0.225947 122:-0.266666 125:-0.966667 130:0.280001 146:-1 147:-0.580001 184:-0.714286 
8 12:-0.714286 37:0.930886 45:-0.714286 93:-0.795605 94:-0.672161 96:-0.0219764 105:-0.5 106:-0.6 109:-0.444444 111:0.435605 119:0.47017 121:0.349002 122:-0.470588 125:-0.529412 130:0.136 146:-1 147:-1 184:-1 
8 12:-0.428571 37:0.520518 45:-0.428571 93:-1 94:-0.598204 96:-0.101008 105:-0.75 106:-0.6 109:-0.477124 111:0.28542 119:0.323527 121:0.332896 122:-0.804196 125:-0.874126 130:-0.35 146:-1 147:-0.236367 184:-1 
8 12:-0.714286 37:0.473002 45:-0.428571 93:-0.638835 94:-0.517259 96:-0.135921 105:-0.5 106:-0.6 109:-0.629629 111:0.378887 119:0.193183 121:0.379423 122:-0.884615 125:-0.865385 130:-0.440001 146:-1 147:-0.650002 184:-1 
8 12:-0.714286 37:0.585313 45:-0.142857 93:-0.786207 94:0.0287345 96:0.150861 105:-0.5 106:-0.4 109:-0.215686 111:0.235917 119:0.143049 121:0.37155 122:-0.75 125:-1 130:-0.08 146:-1 147:-1 184:-0.714286 
8 12:-0.428571 37:0.853132 45:-0.428571 93:-0.695082 94:-0.673952 96:-0.27049 105:-0.25 106:-0.6 109:-0.457995 111:0.46599 119:-0.0521079 121:0.424236 122:-0.69855 125:-0.994203 130:-0.57091 146:-1 147:-0.733334 184:-1 
7.117402691954558 12:-0.428571 37:0.269978 45:-0.428571 93:-0.478505 94:-0.721183 96:-0.480139 105:-0.25 106:-0.6 109:-0.279279 111:0.315863 119:0.271499 121:0.383039 122:-0.807692 125:-0.932692 130:0.0400009 146:-1 147:-0.657143 184:-1 
8 12:-0.428571 37:0.762419 45:-0.428571 93:-0.838261 94:-0.827053 96:-0.516303 105:-0.5 106:-0.6 109:-0.238095 111:0.809787 119:0.402596 121:0.851199 122:-0.326924 125:-0.586538 130:-0.680001 146:-0.12 147:-0.664001 184:-1 
8 12:-0.428571 37:0.308855 45:-0.428571 93:-0.806251 94:-0.689236 96:-0.420572 105:-0.5 106:-0.6 109:-0.238095 111:0.291712 119:0.285715 121:0.196206 122:-0.833333 125:-0.666666 130:-0.234287 146:-1 147:-0.634784 184:-1 
8 12:-0.714286 37:0.606911 45:-0.714286 93:-0.523077 94:-0.362534 96:0.141026 105:-0.25 106:-0.8 109:-0.365079 111:0.363421 119:0.314937 121:0.424619 122:-0.828571 125:-0.542858 130:-0.296 146:-1 147:-1 184:-1 
8 12:-0.428571 37:0.414687 45:-0.428571 93:-0.824529 94:-0.718553 96:-0.160376 105:-0.5 106:-0.6 109:-0.430199 111:0.418662 119:0.101399 121:0.442135 122:-0.542858 125:-0.514286 130:-0.200001 146:-1 147:-0.650002 184:-0.428571 
8 12:-0.714286 37:0.455724 45:-0.428571 93:-0.616495 94:-0.384878 96:-0.197164 105:-0.5 106:-0.6 109:-0.492063 111:0.375616 119:0.227272 121:0.446522 122:-0.416666 125:-0.916667 130:-0.08 146:-1 147:-0.200003 184:-0.714286 
8 12:-0.714286 37:0.615551 45:-0.428571 93:-0.867143 94:-0.857936 96:-0.682143 105:-0.5 106:-0.6 109:-0.316239 111:0.352295 119:0.337412 121:0.541352 122:-0.642858 125:-0.571428 130:0.0742866 146:-0.333334 147:-1 184:-1 
8 12:-0.714286 37:0.466523 45:-0.428571 93:-0.721 94:-0.602222 96:-0.221249 105:-0.25 106:-0.6 109:-0.519519 111:0.269495 119:0.437345 121:0.35147 122:-0.19697 125:-0.69697 130:-0.440001 146:-1 147:-1 184:-1 
8 12:-0.714286 37:0.833693 45:-0.714286 93:-0.50532 94:-0.259455 96:-0.171541 105:-0.5 106:-0.4 109:-0.25926 111:0.434251 119:0.0909102 121:0.133625 122:-0.79085 125:-0.921569 130:-0.440001 146:-1 147:-1 184:-0.714286 
8 12:-0.428571 37:0.419006 45:-0.428571 93:-0.795605 94:-0.344321 96:-0.266482 105:-0.5 106:-0.6 109:-0.03904 111:0.282742 119:0.492629 121:0.465916 122:-0.9 125:-0.5 130:-0.440001 146:-1 147:-1 184:-0.428571 
8 12:-0.428571 37:0.546436 45:-0.428571 93:-0.903125 94:-0.792824 96:-0.652343 105:-0.5 106:-0.6 109:-0.506172 111:0.303789 119:0.306816 121:0.468655 122:-0.345454 125:-0.472728 130:-0.440001 146:-1 147:-0.626668 184:-1 
8 12:-0.714286 37:0.706263 45:-0.714286 93:-0.459303 94:-0.537467 96:-0.353197 105:-0.25 106:-0.4 109:-0.25926 111:0.191855 119:0.227272 121:0.25044 122:-0.977778 125:-0.666666 130:0.0742866 146:-1 147:-0.557896 184:-1 
8 12:-0.428571 37:0.455724 45:-0.428571 93:-0.6 94:-0.572281 96:-0.282257 105:-0.25 106:-0.6 109:-0.73064 111:0.333314 119:0.42562 121:0.535397 122:-0.266666 125:-0.966667 130:0.352 146:0.499999 147:-0.618183 184:-1 
8 12:-0.142857 37:0.758099 45:-0.142857 93:-0.782031 94:-0.766927 96:-0.304686 105:-0.25 106:-0.4 109:-0.629629 111:0.625591 119:-0.0340916 121:0.626842 122:-0.811594 125:-0.561594 130:-0.163078 146:-0.241378 147:-0.710345 184:-1 
8 12:-0.714286 37:0.701944 45:-0.714286 93:-0.59121 94:-0.672161 96:-0.266482 105:-0.5 106:-0.6 109:-0.326599 111:0.170644 119:0.301653 121:0.225661 122:-0.75 125:-0.55 130:-0.08 146:-1 147:-0.580001 184:-1 
8 12:-0.714286 37:0.587473 45:-0.714286 93:-0.895505 94:-0.776529 96:-0.874999 105:-0.5 106:-0.6 109:-0.856631 111:0.375778 119:0.385632 121:0.273049 122:-0.871795 125:-0.897436 130:-0.440001 146:-1 147:-0.218608 184:-1 
0.6797131943811099 12:-0.428571 37:0.395248 45:-0.428571 93:-0.898913 94:-0.891908 96:-0.516303 105:-0.5 106:-0.6 109:-0.506172 111:0.346102 119:0.363635 121:0.432151 122:-0.777778 125:-0.111112 130:-0.62 146:-1 147:-0.618183 184:-0.714286 
8 12:-0.714286 37:0.764579 45:-0.714286 93:-0.476057 94:-0.579812 96:-0.373239 105:-0.25 106:-0.4 109:-0.629629 111:0.355047 119:0.278409 121:0.39159 122:-0.933333 125:-0.466666 130:0.280001 146:-0.241378 147:-1 184:-1 
8 12:-0.428571 37:0.693305 45:-0.428571 93:-0.535001 94:-0.801111 96:-0.7775 105:-0.5 106:-0.2 109:-0.607844 111:0.556979 119:0.20321 121:0.586281 122:-0.6 125:-0.733334 130:-0.512 146:-0.541667 147:-0.650002 184:-1 
8 12:-0.714286 37:0.563715 45:-0.714286 93:-0.829358 94:-0.7263 96:0.0206436 105:-0.5 106:-0.6 109:-0.316239 111:0.590246 119:0.573425 121:0.726683 122:-0.2 125:-0.9 130:-0.35 146:-1 147:-1 184:-0.714286 
8 12:-0.714286 37:0.762419 45:-0.428571 93:-0.775904 94:-0.281123 96:0.20633 105:-0.5 106:-0.4 109:-0.316239 111:0.570053 119:0.022727 121:0.21562 122:-0.911111 125:-0.655556 130:-0.542858 146:-1 147:0.119997 184:-1 
8 12:-0.714286 37:0.967603 45:-0.714286 93:-0.802128 94:-0.576831 96:0.0651615 105:-0.5 106:-0.6 109:-0.191919 111:0.515642 119:0.611568 121:0.712388 122:-0.861538 125:-0.507692 130:-0.542858 146:-0.476191 147:-1 184:-1 
8 12:-0.428571 37:0.87257 45:-0.428571 93:-0.6 94:-0.679211 96:-0.162633 105:-0.5 106:-0.4 109:-0.111111 111:0.278469 119:0.461039 121:0.367254 122:-0.912088 125:-0.868132 130:-0.08 146:-1 147:-0.590246 184:-1 
8 12:-0.714286 37:0.779698 45:-0.428571 93:-0.870833 94:-0.309413 96:0.0815987 105:-0.5 106:-0.6 109:0.61616 111:0.721587 119:0.301653 121:0.446901 122:-0.5 125:-0.4 130:-0.62 146:-1 147:-0.590246 184:-1 
8 12:-0.428571 37:0.933045 45:-0.428571 93:-0.84878 94:-0.757453 96:-0.366869 105:-0.25 106:-0.6 109:-0.722222 111:0.796512 119:0.0866475 121:0.568029 122:-0.817927 125:-0.57703 130:-0.440001 146:-1 147:-0.353849 184:-1 
5.896245881660275 12:-0.714286 37:0.859611 45:-0.714286 93:-1 94:-0.823992 96:-0.704645 105:-0.75 106:-0.6 109:-0.569892 111:0.742618 119:0.583578 121:0.786466 122:-0.210526 125:-0.813397 130:-0.08 146:-0.153847 147:0.938462 184:-1 
8 12:-0.428571 37:0.773218 45:-0.142857 93:-0.393479 94:-0.0271722 96:-0.516303 105:-0.25 106:-0.4 109:-0.341564 111:0.441865 119:-0.166666 121:-0.0762083 122:-0.797386 125:-0.738562 130:-0.542858 146:-1 147:-1 184:-1 
8 12:-0.714286 37:0.820734 45:-0.714286 93:-0.447526 94:-0.90154 96:-0.449256 105:-0.5 106:-0.4 109:-0.52381 111:0.572956 119:-0.123376 121:-0.190742 122:-0.994872 125:-0.994872 130:-0.440001 146:-1 147:-1 184:-1 
8 12:-0.428571 37:0.768898 45:-0.428571 93:-0.845 94:-0.751388 96:-0.629166 105:-0.5 106:-0.4 109:-0.241192 111:0.52259 119:0.247228 121:0.474096 122:-0.175 125:-0.85 130:-0.512 146:-0.633333 147:0.119997 184:-0.714286 
8 12:-0.142857 37:0.509719 45:-0.142857 93:-0.488074 94:-0.361365 96:-0.489678 105:-0.5 106:-0.4 109:0.25 111:0.48815 119:0.022727 121:0.180167 122:-0.839599 125:-0.403508 130:-0.234287 146:-1 147:-1 184:-1 
8 12:-0.714286 37:0.390929 45:-0.428571 93:-0.821154 94:-0.80876 96:-0.251201 105:-0.5 106:-0.6 109:-0.415204 111:0.273508 119:0.453348 121:0.324985 122:-0.70909 125:-0.563636 130:-0.35 146:-1 147:-0.650002 184:-1 
8 12:-0.428571 37:0.50108 45:-0.428571 93:-0.802128 94:-0.259455 96:-0.171541 105:-0.5 106:-0.6 109:-0.670782 111:0.518109 119:0.136364 121:0.242867 122:-0.428572 125:-0.857143 130:-0.35 146:-0.45 147:-1 184:-1 
8 12:-0.714286 37:0.440605 45:-0.428571 93:-0.817648 94:-0.610021 96:-0.127449 105:-0.5 106:-0.6 109:-0.738562 111:0.345412 119:0.263371 121:0.152523 122:-0.692308 125:-0.846154 130:-0.440001 146:-1 147:-0.634784 184:-0.714286 
8 12:-0.714286 37:0.74514 45:-0.714286 93:-1 94:-0.343291 96:0.154488 105:-0.75 106:-0.6 109:-0.25926 111:0.254622 119:0.250002 121:0.229349 122:-0.504274 125:-0.794872 130:-0.08 146:-0.541667 147:-0.650002 184:-1 
8 12:-0.714286 37:0.639309 45:-0.428571 93:-1 94:-0.553058 96:-0.249999 105:-0.75 106:-0.6 109:-0.629629 111:0.177799 119:0.306816 121:0.184732 122:-0.785714 125:-0.571428 130:-0.440001 146:-1 147:-1 184:-0.714286 
8 12:-0.428571 37:0.736501 45:-0.428571 93:-0.446429 94:-0.289681 96:-0.337797 105:-0.5 106:-0.6 109:-0.569892 111:0.241342 119:0.187685 121:0.254207 122:-0.6 125:-0.8 130:0.0742866 146:-1 147:-1 184:-1 
7.894319581858582 12:-0.714286 37:0.365011 45:-0.428571 93:-1 94:-0.657087 96:0.0229898 105:-0.75 106:-0.6 109:-0.238095 111:0.305203 119:0.636363 121:0.655117 122:-0.833333 125:-0.5 130:0.639999 146:-1 147:-1 184:-1 
8 12:-0.428571 37:0.349892 45:-0.428571 93:-1 94:-0.400936 96:-0.329818 105:-0.75 106:-0.6 109:-0.111111 111:0.268377 119:0.295456 121:0.425661 122:-0.333334 125:-0.777778 130:0.46 146:-1 147:-0.115792 184:-1 
8 12:-0.714286 37:0.334773 45:-0.428571 93:-0.577274 94:-0.434974 96:-0.115055 106:-0.6 109:-0.111111 111:0.397534 119:0.295456 121:0.347784 122:-0.472222 125:-0.486112 130:-0.08 146:-1 147:-0.557896 184:-1 
8 12:-0.714286 37:0.449244 45:-0.428571 93:-0.894319 94:-0.660984 96:0.0113653 105:-0.5 106:-0.6 109:-0.722222 111:0.321133 119:0.47017 121:0.49502 122:-0.942857 125:-0.628572 130:-0.542858 146:-1 147:-1 184:-1 
8 12:-0.428571 37:0.818575 45:-0.428571 93:-0.696739 94:-0.783816 96:-0.39538 105:-0.25 106:-0.6 109:-0.461279 111:0.411623 119:0.42562 121:0.579643 122:-0.833333 125:-0.611112 130:-0.542858 146:-1 147:-0.618183 184:-1 
8 12:-0.714286 37:0.680346 45:-0.714286 93:-0.781177 94:-0.766013 96:-0.0838226 105:-0.5 106:-0.6 109:-0.305556 111:0.471334 119:0.598011 121:0.58172 122:-0.914286 130:-0.296 146:-1 147:-0.533334 184:-1 
8 12:-0.714286 37:0.477322 45:-0.428571 93:-0.572414 94:-0.771392 96:-0.104883 105:-0.5 106:-0.6 109:-0.365079 111:0.481083 119:0.16883 121:0.335966 122:-0.790476 125:-0.971429 130:-0.200001 146:0.0476179 147:-0.600002 184:-1 
8 12:-0.714286 37:0.576674 45:-0.714286 93:-0.827778 94:-0.907922 96:-0.278934 105:-0.5 106:-0.8 109:-0.135803 111:0.573466 119:0.647728 121:0.716074 122:-0.8 125:-0.866667 130:-0.35 146:-1 147:-1 184:-1 
6.376552110355736 12:-0.714286 37:0.403888 45:-0.428571 93:-1 94:-0.738304 96:0.317436 105:-0.75 106:-0.6 109:-0.835391 111:0.19384 119:0.287879 121:0.275318 122:-0.809524 125:-0.904762 130:0.0742866 146:-0.333334 147:-0.490911 184:-1 
8 12:-0.714286 37:0.401728 45:-0.428571 93:-0.821154 94:-0.617521 96:-0.144229 105:-0.5 106:-0.6 109:-0.57672 111:0.26905 119:0.55844 121:0.568899 122:-0.909091 125:-0.878788 130:-0.542858 146:-1 147:-1 184:-1 
8 12:-0.428571 37:0.367171 45:-0.428571 93:-0.817648 94:-0.902505 96:-0.563725 105:-0.25 106:-0.6 109:0.0158756 111:0.438603 119:0.577921 121:0.534132 122:-0.528206 125:-0.815385 130:0.382858 146:-0.531915 147:-0.285109 184:-1 
8 12:-0.142857 37:0.598272 45:-0.142857 93:-0.489011 94:-0.672161 96:-0.266482 105:-0.25 106:-0.4 109:-0.555556 111:0.29803 119:0.227272 121:0.216368 122:-0.49091 125:-0.454546 130:-0.234287 146:-0.45 147:0.259996 184:-1 
8 12:-0.714286 37:0.393089 45:-0.428571 93:-0.358622 94:-0.885695 96:-0.232758 106:-0.6 109:-0.283154 111:0.422457 119:0.451614 121:0.574506 122:-0.313132 125:-0.454546 130:-0.08 146:-1 147:-1 184:-1 
8 12:-0.714286 37:0.326134 45:-0.428571 93:-0.885185 94:-0.508916 96:-0.0385782 105:-0.5 106:-0.2 109:-0.54023 111:0.281516 119:0.269593 121:0.261517 122:-0.542858 125:-0.714286 130:-0.08 146:-1 147:-0.600002 184:-1 
8 12:-0.428571 37:0.807775 45:-0.428571 93:-0.686517 94:-0.441322 96:-0.624999 105:-0.25 106:-0.4 109:-0.341564 111:0.641484 119:-0.166666 121:0.372663 122:-0.625 125:-0.852941 130:-0.200001 146:-0.476191 147:-1 184:-1 
8 12:-0.142857 37:0.857451 45:-0.142857 93:-0.759483 94:-0.742815 96:-0.520474 105:-0.5 106:-0.4 109:-0.457995 111:0.183952 119:0.396894 121:0.196305 122:-0.666666 125:-0.888889 130:0.0742866 146:-1 147:-1 184:-1 
8 12:-0.714286 37:0.941685 45:-0.714286 93:-0.872603 94:-0.863775 96:-0.238012 105:-0.5 106:-0.8 109:-0.206349 111:0.484188 119:0.461039 121:0.429832 122:-0.321428 130:-0.08 146:-1 147:-0.505883 184:-0.714286 
4.438805560211089 12:-1 37:0.846652 45:-0.714286 93:-0.916216 94:-0.731231 96:-0.899775 105:-0.5 106:-0.8 109:-1 111:0.443272 119:0.453348 121:0.517116 122:-0.799044 125:-0.799044 130:-0.234287 146:-1 147:-0.650002 184:-1 
8 12:-0.714286 37:0.935205 45:-0.714286 93:-0.693407 94:-0.453601 96:-0.388735 105:-0.5 106:-0.6 109:-0.48718 111:0.565539 119:0.022727 121:0.170691 122:-0.957265 125:-0.837607 130:-0.35 146:-1 147:-1 184:-0.714286 
8 12:-0.428571 37:0.647948 45:-0.428571 93:-0.898913 94:-0.675724 96:-0.758152 105:-0.5 106:-0.6 109:-0.145299 111:0.555266 119:0.180072 121:0.159459 122:-1 125:-0.571428 130:-0.542858 146:-1 147:-0.138463 184:-1 
2.572529554127554 12:0.142857 37:0.987041 45:0.142857 93:-0.592106 94:-0.56384 96:-0.316885 105:0.25 106:-0.2 109:-0.111111 111:0.624986 119:0.0519484 121:0.625914 122:-0.75 125:-0.666666 130:-0.296 146:-0.56 147:-0.664001 184:-1 
8 12:-0.714286 37:0.587473 45:-0.714286 93:-0.85 94:-0.839606 96:-0.282257 105:-0.5 106:-0.8 109:-1 111:0.727196 119:0.250002 121:0.0995536 122:-0.885714 125:-0.828571 130:-0.62 146:-1 147:-0.37778 184:-1 
8 12:-0.428571 37:0.671706 45:-0.428571 93:-0.919131 94:-0.827053 96:-0.226086 105:-0.5 109:0.481484 111:0.668667 119:0.477272 121:0.626842 122:-0.9 125:-0.9 130:-0.440001 146:-1 147:-1 184:-1 
8 12:-0.428571 37:0.7473 45:-0.428571 93:-0.788636 94:-0.773989 96:-0.620738 105:-0.5 106:-0.6 109:-0.346405 111:0.207846 119:0.323527 121:0.315719 122:-0.555556 125:-1 130:-0.234287 146:-1 147:-0.600002 184:-1 
8 12:-0.714286 37:0.5054 45:-0.428571 93:-0.902106 94:-0.895322 96:-0.765789 105:-0.5 106:-0.6 109:-0.477124 111:0.35979 119:0.564171 121:0.431675 122:-0.952381 125:-0.761904 130:-0.62 146:-1 147:-1 184:-1 
8 12:-0.714286 37:0.598272 45:-0.714286 93:-0.565421 94:-0.721183 96:-0.792056 105:-0.25 106:-0.6 109:-0.346405 111:0.415535 119:-0.0374339 121:0.212647 122:-0.517028 125:-0.634674 130:-0.08 146:-1 147:-0.664001 184:-1 
8 12:-0.714286 37:0.773218 45:-0.428571 93:-0.738029 94:-1 96:-0.216548 105:-0.5 106:-0.6 109:-1 111:0.41709 119:0.278409 121:0.245572 122:-0.545454 125:-0.931818 130:-0.728 146:-1 147:-1 184:-1 
8 12:-0.428571 37:0.758099 45:-0.428571 93:-0.645715 94:-0.905291 96:-0.364284 105:-0.5 106:-0.6 109:-0.298245 111:0.273911 119:0.291864 121:0.155914 122:-0.846154 125:-0.846154 130:-0.62 146:-1 147:-1 184:-0.714286 
8 12:-0.714286 37:0.799136 45:-0.714286 93:-0.628 94:-0.701666 96:-0.221249 105:-0.25 106:-0.6 109:-0.191919 111:0.429466 119:0.115701 121:0.300883 122:-0.515152 125:-0.878788 130:-0.200001 146:-0.56 147:-0.664001 184:-0.714286 
8 12:-0.714286 37:0.49676 45:0.142857 93:-0.729127 94:-0.806903 96:-0.351941 105:-0.25 106:-0.2 109:-0.73064 111:0.473426 119:0.301653 121:0.25221 122:-0.454546 125:-0.818182 130:-0.542858 146:-1 147:-0.609304 184:-0.714286 
8 12:-0.142857 37:0.721382 45:-0.142857 93:-0.880769 94:-0.872507 96:-0.429486 105:-0.5 106:-0.4 109:-0.386973 111:0.238583 119:0.199057 121:0.100395 122:-1 125:-0.777778 130:-0.296 146:-0.405406 147:-1 184:-1 
8 12:-0.428571 37:0.857451 45:-0.428571 93:-0.652337 94:-0.721183 96:0.0397208 105:-0.5 106:-0.4 109:-0.519519 111:0.279028 119:0.160934 121:0.201503 122:-0.571428 125:-0.839286 130:-0.440001 146:-1 147:-1 184:-1 
8 12:-0.428571 37:0.786177 45:-0.428571 93:-0.910577 94:-0.521901 96:-0.251201 105:-0.5 106:-0.4 109:0.164018 111:0.0639572 119:0.363635 121:0.259478 122:-0.828571 125:-0.2 130:-0.542858 146:-1 147:-1 184:-1 
2.898933705803878 12:-0.428571 37:0.75378 45:-0.428571 93:-0.736793 94:-0.906184 96:-0.580189 105:-0.5 106:-0.2 109:-0.766082 111:0.315863 119:0.022727 121:0.0982745 122:-0.466666 125:-0.566666 130:-0.35 146:-1 147:-0.676924 184:0.142857 
6.348965756219298 12:-0.142857 37:0.475162 45:-0.142857 93:-0.510527 94:-0.790643 96:-0.414473 105:-0.5 106:-0.4 109:-0.426524 111:0.276816 119:0.121702 121:-0.0660892 122:-0.277778 125:-0.555556 130:-0.542858 146:-1 147:-0.650002 184:-1 
8 12:-0.714286 37:0.803456 45:-0.714286 93:-0.893103 94:-0.771392 96:-0.232758 105:-0.5 106:-0.4 109:-0.444444 111:0.307869 119:0.214488 121:0.225798 122:-0.616162 125:-0.858586 130:-0.234287 146:-0.476191 147:-1 184:-0.714286 
4.130064117026142 12:0.428571 37:0.667387 45:0.714286 93:-0.577274 94:-0.660984 96:-0.241476 105:-0.25 106:0.2 109:-0.341564 111:0.447591 119:0.0606048 121:0.123892 122:-0.891403 125:-0.773756 130:-0.542858 146:-1 147:0.292304 184:-1 
8 12:-0.714286 37:0.695464 45:-0.428571 93:-0.755263 94:-0.738304 96:-0.268091 105:-0.5 106:-0.6 109:-0.0123467 111:0.337218 119:0.439394 121:0.329398 122:-0.833333 125:-0.5 130:-0.296 146:-1 147:-1 184:-1 
8 12:-0.714286 37:0.790497 45:-0.714286 93:-0.775904 94:-0.880187 96:-0.865964 105:-0.5 106:-0.6 109:-0.68254 111:0.226479 119:0.241881 121:0.132583 122:-0.636364 125:-0.818182 130:-0.440001 146:-0.421052 147:-0.557896 184:-1 
8 12:-0.428571 37:0.453564 45:-0.428571 93:-0.791012 94:-0.776529 96:-0.374999 105:-0.5 106:-0.6 109:-0.139785 111:0.276789 119:0.121702 121:-0.00956564 122:-0.807018 125:-0.596492 130:-0.440001 146:-1 147:-1 184:-1 
8 12:-0.142857 37:0.637149 45:-0.142857 93:-0.870833 94:-0.585647 96:-0.0729156 105:-0.5 106:-0.4 109:-0.670782 111:0.418903 119:0.287879 121:0.448376 122:-0.866667 125:-0.933333 130:-0.296 146:-1 147:-1 184:-1 
8 12:-0.428571 37:0.714903 45:-0.428571 93:-0.713847 94:-0.847008 96:-0.144229 105:-0.5 106:-0.6 109:-0.629629 111:0.561973 119:0.619316 121:0.780973 122:-0.5 125:-0.916667 130:-0.08 146:-0.290322 147:-1 184:-1 
8 12:-0.714286 37:0.87473 45:-0.714286 93:-1 94:-0.431745 96:0.112502 105:-0.75 106:-0.6 109:-0.0476178 111:0.203255 119:0.387988 121:0.440263 122:-0.4 125:-0.866667 130:0.568 146:-1 147:-1 184:-1 
8 12:-0.714286 37:0.311015 45:-0.428571 93:-1 94:-0.799102 96:-0.325756 105:-0.75 106:-0.6 109:-0.477124 111:0.40017 119:0.143049 121:0.328603 122:-0.961905 125:-0.67619 130:0.0400009 146:-1 147:-0.642554 184:-1 
8 12:-0.714286 37:0.488121 45:-0.428571 93:-0.67931 94:-1 96:-0.616378 105:-0.5 106:-0.6 109:-0.851852 111:0.608998 119:0.500001 121:0.707964 122:-0.294872 125:-0.73077 130:0.280001 146:-0.463416 147:-0.590246 184:-1 
2.102908851683679 12:-0.714286 37:0.818575 45:-0.714286 93:-1 94:-0.888264 96:-0.499999 105:-0.75 106:-0.6 109:-0.283154 111:0.26637 119:0.385632 121:0.296599 122:-0.566666 125:-0.866667 130:0.568 146:-1 147:-1 184:-1 
4.768699403422093 12:-0.428571 37:0.552916 45:0.142857 93:-0.424743 94:-0.487399 96:-0.541237 105:-0.5 106:-0.2 109:-0.305556 111:0.313473 119:0.022727 121:-0.0114785 122:-0.809524 125:-0.84127 130:-0.440001 146:-1 147:-1 184:-1 
3.662488564343107 12:-0.428571 37:0.784017 45:-0.428571 93:-0.646836 94:-0.748241 96:0.126586 105:-0.5 106:-0.6 109:-0.283154 111:0.2513 119:0.319649 121:0.315441 122:-0.642858 125:-0.928571 130:0.73 146:-1 147:-1 184:-0.714286 
8 12:-0.714286 37:0.87473 45:-0.428571 93:-0.624243 94:-0.799102 96:-0.550505 105:-0.5 106:-0.6 109:-0.238095 111:0.313522 119:0.461039 121:0.346394 122:-0.533334 125:-0.8 130:0.136 146:-1 147:-1 184:-1 
8 12:-0.142857 37:0.803456 45:-0.142857 93:-0.539604 94:-0.80308 96:-0.559405 105:-0.25 106:-0.4 109:-0.238095 111:0.22634 119:0.227272 121:0.179516 122:-0.958333 125:-1 130:0.19 146:-1 147:-0.634784 184:-1 
8 12:-0.428571 37:0.447084 45:-0.428571 93:-0.470732 94:-1 96:-0.547764 105:-0.25 106:-0.6 109:0.0100978 111:0.327173 119:0.348138 121:0.271014 122:-0.639216 125:-0.952941 130:-0.35 146:-1 147:-0.72 184:-0.714286 
8 12:-0.714286 37:0.799136 45:-0.428571 93:-0.821154 94:-0.90438 96:-0.572115 105:-0.25 106:-0.4 109:-0.73064 111:0.425096 119:0.177687 121:0.265486 122:-0.949495 125:-0.858586 130:-0.35 146:-1 147:-1 184:-1 
8 12:-0.714286 37:0.50108 45:-0.428571 93:-0.7675 94:-1 96:-0.165624 105:-0.5 106:-0.6 109:-0.48718 111:0.36513 119:0.180072 121:0.176307 122:-0.714286 125:-0.857143 130:-0.440001 146:-0.3125 147:-1 184:-1 
8 12:-0.714286 37:0.850972 45:-0.714286 93:-0.876 94:-0.867408 96:0.0383346 105:-0.5 106:-0.6 109:-0.139785 111:0.448785 119:0.649561 121:0.598056 122:-0.75 125:-0.166666 130:0.136 146:-1 147:-1 184:-0.714286 
8 12:-0.714286 37:0.695464 45:-0.428571 93:-0.577274 94:-1 96:-0.494318 105:-0.5 106:-0.6 109:-0.544159 111:0.263172 119:0.206294 121:0.254934 122:-0.666666 125:-0.888889 130:-0.62 146:-0.531915 147:-1 184:-1 
8 12:-0.428571 37:0.516199 45:-0.428571 93:-0.764557 94:-0.748241 96:-0.436708 105:-0.5 106:-0.6 109:-0.48718 111:0.588793 119:0.573425 121:0.614361 122:-0.933333 125:-0.511112 130:0.568 146:-1 147:-1 184:-1 
8 12:-0.142857 37:0.863931 45:-0.142857 93:-0.471591 94:-1 96:0.137789 105:-0.25 106:-0.4 109:-0.365079 111:0.373824 119:0.0957784 121:0.0439295 122:-0.555556 125:-0.722222 130:-0.08 146:-1 147:-0.626668 184:-1 
8 12:-0.428571 37:0.557235 45:-0.428571 93:-0.500001 94:-0.89307 96:-0.521504 105:-0.25 106:-0.6 109:-0.0804622 111:0.445496 119:0.128526 121:0.296763 122:-0.591666 125:-0.841667 130:-0.08 146:-0.488372 147:-0.609304 184:-1 
8 12:-0.714286 37:0.855292 45:-0.714286 93:-0.530303 94:-1 96:-0.662879 105:-0.5 106:-0.4 109:-0.386973 111:0.46574 119:-0.083072 121:0.0701836 122:-0.7 125:-0.335294 130:-0.35 146:-1 147:-0.650002 184:-1 
8 12:-0.142857 37:0.704104 45:-0.142857 93:-0.795605 94:-0.672161 96:-0.144229 105:-0.25 106:-0.4 109:0.07744 111:0.455989 119:0.301653 121:0.415928 122:-0.533334 125:-0.866667 130:-0.35 146:-0.476191 147:-1 184:-0.428571 
8 12:-0.142857 37:0.896328 45:-0.142857 93:-0.418751 94:-1 96:-0.443749 105:-0.25 106:-0.4 109:-0.365079 111:0.498439 119:0.0957784 121:0.268169 122:-0.982906 125:-0.760684 130:-0.440001 146:-1 147:-0.533334 184:-0.714286 
8 12:-0.714286 37:0.490281 45:-0.714286 93:-0.894319 94:-1 96:-0.115055 105:-0.5 106:-0.6 109:-0.426524 111:0.463398 119:0.451614 121:0.428488 122:-0.571428 125:-0.685714 130:-0.234287 146:-1 147:-1 184:-1 
8 12:-0.428571 37:0.868251 45:-0.428571 93:-0.675582 94:-1 96:-0.353197 105:-0.25 106:-0.4 109:-0.0123467 111:0.72024 119:0.51515 121:0.626842 122:-0.828571 125:-0.961905 130:-0.62 146:-1 147:-0.580001 184:-1 
8 12:-0.428571 37:0.868251 45:-0.428571 93:-0.608421 94:-0.476607 96:-0.414473 105:-0.5 106:-0.6 109:0.00358222 111:0.550147 119:0.187685 121:0.254207 122:-0.566666 125:-0.883333 130:-0.35 146:-0.511112 147:-0.626668 184:-0.714286 
8 12:-0.428571 37:0.591793 45:-0.142857 93:-0.452942 94:-0.883006 96:0.047061 106:-0.4 109:-0.288889 111:0.498611 119:-0.018182 121:0.203714 122:-0.980392 125:-0.921569 130:-0.08 146:-1 147:-1 184:-1 
8 12:-0.428571 37:0.414687 45:-0.428571 93:-0.667857 94:-0.526455 96:-0.470238 105:-0.5 106:-0.6 109:-0.25926 111:0.608427 119:-0.147729 121:0.257741 122:-0.727272 125:-1 130:-0.35 146:-1 147:-1 184:-1 
8 12:-0.428571 37:0.768898 45:-0.142857 93:-0.327711 94:-0.880187 96:-0.731927 105:-0.5 106:-0.2 109:0.0666667 111:0.410835 119:-0.018182 121:-0.105844 122:-0.466666 125:-0.866667 130:-0.296 146:-1 147:-0.569233 184:-1 
8 12:-0.142857 37:0.721382 45:-0.142857 93:-0.335715 94:-0.881613 96:-0.470238 105:-0.25 106:-0.4 109:-0.506172 111:0.346223 119:0.21212 121:0.123892 122:-0.8 125:-0.8 130:-0.296 146:-1 147:-1 184:-1 
8 12:-0.428571 37:0.786177 45:-0.428571 93:-0.595652 94:-0.891908 96:-0.39538 105:-0.25 106:-0.6 109:0.00358222 111:0.416664 119:0.253667 121:0.28247 122:-0.897727 125:-0.954545 130:-0.542858 146:-0.52174 147:-0.634784 184:-1 
8 12:0.142857 37:0.671706 45:0.142857 93:-0.373035 94:-0.888264 96:-0.499999 105:-0.25 106:-0.2 109:0.185182 111:0.367963 119:0.363635 121:0.323449 122:-0.953846 125:-0.63077 130:-0.08 146:-1 147:-1 184:-1 
8 12:-0.714286 37:0.764579 45:-0.428571 93:-1 94:-1 96:-0.135921 105:-0.75 106:-0.6 109:-0.0572356 111:0.612981 119:0.549587 121:0.681415 122:-0.730158 125:-0.031746 130:-0.680001 146:-1 147:0.343996 184:-1 
8 12:-0.714286 37:0.827214 45:-0.714286 93:-0.788636 94:-1 96:-0.747158 105:-0.5 106:-0.4 109:-0.532164 111:0.677679 119:0.184212 121:0.459476 122:-0.688276 125:-0.332414 130:-0.680001 146:-1 147:-1 184:-1 
8 12:-0.714286 37:0.727862 45:-0.142857 93:-0.298114 94:-0.906184 96:-0.580189 106:-0.2 109:-0.283154 111:0.604572 119:0.0557202 121:0.447328 122:-0.809524 125:-0.539682 130:-0.62 146:-1 147:-1 184:-1 
8 12:-0.428571 37:0.861771 45:-0.428571 93:-0.572414 94:-1 96:-0.360631 105:-0.5 106:-0.4 109:-0.555556 111:0.305203 119:0.227272 121:0.216368 122:-0.733334 125:-0.3 130:-0.296 146:-1 147:-0.618183 184:-1 
6.620452298312903 12:-0.428571 37:0.730022 45:-0.428571 93:-0.276667 94:-1 96:-0.134721 105:-0.25 106:-0.6 109:-0.407407 111:0.254038 119:-0.0454561 121:0.0654847 122:-0.884615 125:-0.820513 130:-0.542858 146:-1 147:-0.600002 184:-1 
8 12:-0.428571 37:0.200864 45:-0.428571 93:-0.832433 94:-0.820821 96:-0.298422 105:-0.5 106:-0.6 109:-0.279279 111:0.489223 119:0.32678 121:0.544844 122:-0.74436 125:-0.458646 130:0.0742866 146:-1 147:-1 184:-1 
1.365119766661361 12:-0.428571 37:0.650108 45:-0.428571 93:-0.761539 94:-0.872507 96:-0.429486 105:-0.5 106:-0.4 109:-0.555556 111:0.158329 119:0.295456 121:0.235838 122:-1 125:-0.333334 130:-0.296 146:-1 147:-0.520002 184:-0.714286 
8 12:-0.142857 37:0.842333 45:-0.142857 93:-0.673685 94:-1 96:-0.512061 105:-0.25 106:-0.4 109:0.0582044 111:0.244683 119:0.412337 121:0.367254 122:-0.398692 125:-0.816993 130:-0.234287 146:-1 147:-1 184:-1 
8 12:-0.428571 37:0.285097 45:-0.428571 93:-0.358622 94:-1 96:0.0229898 105:-0.25 106:-0.6 109:-0.68254 111:0.387813 119:0.314937 121:0.184732 122:-0.921569 125:-0.751634 130:-0.440001 146:-1 147:0.399995 184:-1 
8 12:-0.428571 37:0.820734 45:-0.428571 93:-0.588496 94:-0.735988 96:0.476768 105:-0.25 106:-0.2 109:-0.346405 111:0.451275 119:0.263371 121:0.221236 122:-0.89916 125:-0.971989 130:-0.35 146:-0.56 147:-0.664001 184:-1 
8 12:-0.428571 37:0.738661 45:-0.142857 93:-0.690001 94:-1 96:-0.351041 105:-0.25 106:-0.4 109:-0.382716 111:0.55157 119:-0.0909102 121:0.476768 122:-0.752174 125:-0.765218 130:-0.296 146:-0.620689 147:-0.131038 184:-1 
8 12:-0.714286 37:0.470842 45:0.142857 93:-0.88375 94:-0.875694 96:-0.165624 105:-0.5 106:-0.2 109:-0.227053 111:0.414396 119:0.156127 121:0.138704 122:-0.74359 125:-0.774358 130:0.382858 146:-0.371429 147:-1 184:-1 
8 12:-0.714286 37:0.963283 45:-0.428571 93:-0.730435 94:-0.711755 96:-0.355072 105:-0.5 106:-0.6 109:0.0666667 111:0.456986 119:0.472727 121:0.624246 122:-0.75 125:-1 130:-0.08 146:-1 147:-1 184:-1 
8 12:-0.428571 37:0.403888 45:-0.428571 93:-0.879221 94:-0.870851 96:-0.422076 105:-0.5 106:-0.6 109:-0.52381 111:0.40017 119:0.387988 121:0.429835 122:-0.809524 125:-0.761904 130:0.639999 146:-1 147:-0.505883 184:-1 
8 12:-0.714286 37:0.764579 45:-0.714286 93:-0.752 94:-0.337036 96:-0.406666 105:-0.25 106:-0.6 109:-0.341564 111:0.346775 119:0.363635 121:0.464599 122:-1 130:-0.08 146:-1 147:-1 184:-1 
8 12:-0.714286 37:0.801296 45:-0.428571 93:-0.483333 94:-0.889506 96:-0.258332 105:-0.25 106:-0.4 109:-0.233716 111:0.321015 119:0.0579948 121:-0.166468 122:-0.633334 125:-0.955556 130:-0.440001 146:-1 147:-0.650002 184:-0.714286 
8 12:-0.428571 37:0.436285 45:-0.428571 93:-0.628 94:-1 96:-0.332499 105:-0.5 106:-0.6 109:-0.0572356 111:0.441058 119:0.239668 121:0.212388 122:-0.542858 125:-0.622858 130:-0.542858 146:-1 147:-1 184:-1 
8 12:-0.714286 37:0.833693 45:-0.428571 93:-1 94:-0.881613 96:0.589287 105:-0.75 106:-0.4 109:-0.0740711 111:0.602907 119:0.193183 121:0.458516 122:-0.339286 125:-0.857143 130:-0.234287 146:-1 147:0.292304 184:-1 
8 12:-0.714286 37:0.859611 45:-0.714286 93:-0.703192 94:-0.682624 96:-0.408244 105:-0.25 106:-0.4 109:-0.84127 111:0.513175 119:-0.0503243 121:0.033498 122:-0.363636 125:-0.909091 130:-0.542858 146:-1 147:-0.314288 184:-1 
3.080344964229381 12:-0.714286 37:0.812095 45:-0.714286 93:-0.652337 94:-1 96:-0.168223 105:-0.25 106:-0.2 109:-0.84127 111:0.569374 119:-0.196427 121:-0.0707998 122:-0.773756 125:-0.773756 130:-0.680001 146:-1 147:-0.580001 184:-1 
8 12:-0.428571 37:0.62203 45:-0.428571 93:-0.592106 94:-0.912768 96:-0.316885 105:-0.5 106:-0.6 109:-0.492063 111:0.443986 119:-0.00649432 121:0.104422 122:-0.592678 125:-0.858124 130:-0.296 146:-1 147:-0.68302 184:-1 
8 12:-0.428571 37:0.708423 45:-0.428571 93:-0.663856 94:-1 96:-0.597891 105:-0.5 106:-0.6 109:0.0666667 111:0.732062 119:0.718181 121:0.776105 122:-0.866667 125:-0.866667 130:0.0742866 146:0.294117 147:-0.505883 184:-1 
8 12:-0.714286 37:0.87257 45:-0.714286 93:-0.808247 94:-1 96:-0.426545 105:-0.5 106:-0.6 109:-0.305556 111:0.411468 119:0.47017 121:0.312498 122:-0.657142 125:-0.742858 130:-0.296 146:-1 147:-0.626668 184:-1 
8 12:-0.428571 37:0.5054 45:-0.142857 93:-0.797827 94:-1 96:0.0883171 105:-0.5 106:-0.4 109:-0.176955 111:0.595586 119:0.51515 121:0.442968 122:-0.763158 125:-0.513158 130:-0.234287 146:-1 147:-1 184:-1 
8 12:-0.428571 37:0.537797 45:-0.142857 93:-0.852381 94:-0.684303 96:-0.293649 105:-0.5 106:-0.4 109:-0.349594 111:0.341623 119:0.0476734 121:0.12864 122:-0.938375 125:-0.69748 130:-0.374546 146:-1 147:-0.115792 184:-0.714286 
4.662555946893283 12:-0.142857 37:0.429806 45:-0.142857 93:-0.500001 94:-0.78614 96:-0.0430093 105:-0.25 109:-0.0277778 111:0.285949 119:0.214488 121:0.088906 122:-0.736264 125:-0.879121 130:-0.234287 146:-1 147:-0.618183 184:-1 
8 12:-0.714286 37:0.427646 45:-0.428571 93:-0.548544 94:-1 96:-0.56796 105:-0.25 106:-0.6 109:-0.415204 111:0.338373 119:0.39952 121:0.401837 122:-0.866667 125:-1 130:-0.35 146:-0.576922 147:-0.676924 184:-1 
8 12:-0.714286 37:0.444924 45:-0.428571 93:-0.245947 94:-1 96:0.353047 105:-0.25 106:-0.6 109:-0.506172 111:0.315863 119:0.439394 121:0.26991 122:-0.9 125:-0.85 130:0.568 146:-1 147:-0.505883 184:-1 
8 12:-0.714286 37:0.762419 45:-0.428571 93:-0.764557 94:-0.874121 96:0.408227 105:-0.5 106:-0.4 109:-0.341564 111:0.174996 119:0.136364 121:-0.0653912 122:-0.878788 125:-0.737374 130:-0.296 146:-0.405406 147:-1 184:-1 
8 12:-0.714286 37:0.829374 45:-0.714286 93:-0.7 94:-1 96:0.435483 105:-0.5 106:-0.6 109:-0.444444 111:0.192463 119:0.193183 121:0.15431 122:-0.166666 125:-0.833333 130:-0.08 146:-1 147:-0.420691 184:-0.714286 
8 12:-0.714286 37:0.473002 45:-0.142857 93:-0.786207 94:-1 96:0.150861 105:-0.5 106:-0.4 109:-0.206349 111:0.363831 119:0.16883 121:0.184732 122:-0.833333 125:-0.833333 130:-0.08 146:-1 147:-0.569233 184:-1 
8 12:-0.142857 37:0.37797 45:-0.142857 93:-0.418751 94:-1 96:-0.304686 105:-0.5 106:-0.4 109:-0.54023 111:0.470426 119:0.0579948 121:0.0701836 122:-0.818182 125:-0.818182 130:-0.542858 146:-1 147:-0.138463 184:-0.714286 
8 12:-1 37:0.799136 45:-0.714286 93:-0.788636 94:-1 96:-0.494318 105:-0.5 106:-0.4 109:-0.48718 111:0.610936 119:0.022727 121:0.603129 122:-0.596492 125:-0.64035 130:-0.200001 146:-1 147:-1 184:-1 
8 12:-0.714286 37:0.75162 45:-0.714286 93:-0.686517 94:-1 96:0.624998 105:-0.5 106:-0.6 109:-0.341564 111:0.453928 119:0.0606048 121:0.0806268 122:-0.875 125:-0.5 130:-0.35 146:-1 147:-0.200003 184:-1 
4.81469378129073 12:-0.428571 37:0.276458 45:-0.428571 93:-0.557144 94:-0.763227 96:-0.337797 106:-0.6 109:-0.25926 111:0.412465 119:0.431818 121:0.586281 122:-0.818182 125:-0.818182 130:1 146:-1 147:-0.580001 184:-1 
8 12:-0.142857 37:0.75378 45:-0.142857 93:-0.354168 94:-1 96:-0.536457 105:-0.25 106:-0.4 109:0.111111 111:0.451104 119:0.278409 121:0.288162 122:-0.824176 125:-0.758242 130:-0.728 146:-1 147:-1 184:-1 
8 12:-0.714286 37:0.645788 45:-0.714286 93:-0.758442 94:-1 96:-0.277596 105:-0.5 106:-0.6 109:-0.233716 111:0.409203 119:0.551722 121:0.563622 122:-0.535714 125:-0.928571 130:0.382858 146:-0.388888 147:-1 184:-0.714286 
8 12:-0.428571 37:0.714903 45:-0.428571 93:-0.424743 94:-1 96:-0.197164 105:-0.25 106:-0.6 109:-0.583333 111:0.361277 119:0.0866475 121:0.198422 122:-0.55 125:-0.9 130:-0.62 146:-1 147:-1 184:-1 
8 12:-1 37:0.781857 45:-0.428571 93:-0.655556 94:-0.70535 96:-0.505555 105:-0.5 106:-0.4 109:-0.365079 111:0.743483 119:-0.064937 121:0.425661 122:-0.895122 125:-0.746342 130:-0.374546 146:-0.185186 147:-1 184:-1 
8 12:-1 37:0.831533 45:-0.714286 93:-0.788636 94:-0.924663 96:-0.494318 105:-0.5 106:-0.8 109:-0.861111 111:0.867368 119:0.0866475 121:0.467642 122:-0.505748 125:-0.641762 130:-0.728 146:-1 147:-0.440002 184:-1 
4.018279227934846 12:-0.428571 37:0.565875 45:-0.428571 93:-0.589707 94:-0.707516 96:-0.427389 105:-0.25 106:-0.6 109:-0.555556 111:0.547706 119:-0.181818 121:0.319798 122:-0.816296 125:-0.884444 130:-0.62 146:-1 147:-1 184:-1 
8 12:-0.714286 37:0.74514 45:-0.428571 93:-0.7024 94:-0.840889 96:-0.554999 105:-0.25 106:-0.6 109:-0.338061 111:0.497628 119:0.566732 121:0.584728 122:-0.60577 125:-0.826923 130:-0.440001 146:-1 147:-0.715254 184:-0.428571 
8 12:-0.428571 37:0.885529 45:-0.428571 93:-0.690001 94:-1 96:-0.258332 105:-0.25 106:-0.4 109:-0.341564 111:0.735755 119:0.590909 121:0.789083 122:-0.831579 125:-0.821053 130:-0.35 146:-1 147:-0.533334 184:-1 
8 12:-0.714286 37:0.507559 45:-0.428571 93:-0.26854 94:-0.888264 96:1.1125e-06 105:-0.25 106:-0.6 109:-0.283154 111:0.383591 119:0.253667 121:0.447328 122:-0.8 125:-0.942857 130:-0.08 146:-1 147:-0.580001 184:-1 
8 12:0.142857 37:0.781857 45:0.142857 93:-1 94:-0.865616 96:-0.0979714 105:-0.75 106:-0.2 109:-0.227053 111:0.416119 119:0.0671952 121:0.33551 122:-0.919192 125:-0.79798 130:0.0742866 146:-1 147:-1 184:-1 
8 12:-0.428571 37:0.606911 45:-0.142857 93:-0.738029 94:-0.719875 96:-0.373239 105:-0.5 106:-0.4 109:-0.444444 111:0.302801 119:0.278409 121:0.10564 122:-0.944444 125:-0.805556 130:-0.296 146:-1 147:-0.475002 184:-1 
5.130161135249989 12:-0.714286 37:0.894168 45:-0.714286 93:-0.786207 94:-1 96:0.278743 105:-0.25 106:-0.6 109:-0.746032 111:0.273225 119:0.402596 121:0.504929 122:-0.52381 125:-0.809524 130:0.0742866 146:-1 147:-1 184:-0.714286 
8 12:-0.428571 37:0.697624 45:-0.428571 93:-0.38585 94:-1 96:-0.685141 106:-0.4 109:-0.181286 111:0.368355 119:0.23804 121:0.351884 122:-0.333334 125:-0.875 130:-0.512 146:-1 147:-1 184:-1 
8 12:-0.142857 37:0.866091 45:-0.142857 93:-0.894916 94:-1 96:-0.245762 105:-0.5 106:-0.4 109:-0.166667 111:0.702268 119:-0.019888 121:0.455473 122:-0.584082 125:-0.584082 130:-0.827693 146:-1 147:-0.0454573 184:-1 
8 12:-0.142857 37:0.75162 45:-0.142857 93:-0.256001 94:-0.900555 96:-0.554999 105:-0.25 106:-0.4 109:-0.0277778 111:0.366869 119:0.278409 121:0.193858 122:-0.497326 125:-0.572192 130:-0.542858 146:-0.476191 147:-0.600002 184:-1 
8 12:-0.428571 37:0.652268 45:-0.428571 93:-0.103616 94:-0.640561 96:0.0722904 105:-0.25 106:-0.6 109:-0.316239 111:0.332623 119:0.022727 121:-0.239281 122:-0.322222 125:-0.9 130:-0.296 146:-1 147:-1 184:-1 
8 12:-0.428571 37:0.507559 45:-0.428571 93:-0.546342 94:-0.393631 96:-0.321645 105:-0.5 106:-0.6 109:-0.386973 111:0.262143 119:0.0579948 121:0.125568 122:-0.857143 125:-0.714286 130:-0.08 146:-1 147:-1 184:-1 
8 12:-0.714286 37:0.667387 45:-0.428571 93:-0.577274 94:-0.660984 96:-0.241476 105:-0.25 106:-0.6 109:-0.555556 111:0.26844 119:0.159089 121:-0.0318626 122:-0.79394 125:-0.515152 130:-0.08 146:-0.499999 147:-0.618183 184:-1 
8 12:-0.428571 37:0.643629 45:-0.142857 93:-0.351164 94:-0.537467 96:-0.223836 105:-0.5 106:-0.2 109:-0.111111 111:0.340126 119:0.159089 121:0.114155 122:-0.466666 125:-0.733334 130:-0.296 146:-1 147:-1 184:-1 
8 12:-0.714286 37:0.758099 45:-0.142857 93:-0.7675 94:-1 96:-0.304686 105:-0.5 106:-0.4 109:-0.386973 111:0.23182 119:0.41066 121:0.206132 122:-0.866667 125:-0.633334 130:-0.08 146:-0.45 147:-0.580001 184:-1 
8 12:-0.428571 37:0.701944 45:-0.428571 93:-0.775904 94:-1 96:0.0722904 105:-0.5 106:-0.4 109:-0.703704 111:0.380109 119:0.431818 121:0.469467 122:-0.616162 125:-0.919192 130:-0.440001 146:-1 147:0.259996 184:-1 
8 12:0.428571 37:0.803456 45:0.428571 93:-0.729127 94:-0.903452 96:-0.0279116 105:-0.5 109:0.26984 111:0.471174 119:0.227272 121:0.425661 122:-0.958333 125:-0.966667 130:-0.680001 146:-1 147:-1 184:-1 
8 12:-0.714286 37:0.781857 45:-0.714286 93:-0.746364 94:-0.909596 96:-0.0897711 105:-0.5 106:-0.4 109:-0.399399 111:0.387523 119:0.382064 121:0.458022 122:-0.808333 125:-0.983333 130:-0.440001 146:-0.568628 147:-0.0117684 184:-1 
7.038049591108674 12:-0.142857 37:0.693305 45:-0.142857 93:-0.775904 94:-1 96:-0.0617461 105:-0.5 106:-0.4 109:-0.68254 111:0.218098 119:0.16883 121:0.137799 122:-0.974026 125:-0.376624 130:0.0742866 146:-0.421052 147:-0.115792 184:-1 
8 12:-0.714286 37:0.36933 45:-0.428571 93:-0.806251 94:-0.896412 96:0.15886 105:-0.5 106:-0.6 109:-0.365079 111:0.282054 119:0.227272 121:0.192033 122:-0.828571 125:-0.685714 130:-0.234287 146:-1 147:-1 184:-1 
8 12:-0.714286 37:0.669546 45:-0.142857 93:-0.489011 94:-0.89072 96:-0.510989 105:-0.25 106:-0.4 109:-0.191919 111:0.323507 119:0.177687 121:0.0884913 122:-0.966667 125:-0.566666 130:-0.542858 146:-1 147:-0.642554 184:-0.714286 
8 12:-0.714286 37:0.434125 45:-0.428571 93:-0.655556 94:-1 96:-0.587963 105:-0.5 106:-0.6 109:-0.365079 111:0.318726 119:0.16883 121:0.205592 122:-0.923077 125:-0.738462 130:0.0742866 146:-0.45 147:-0.160003 184:-1 
8 12:-0.428571 37:0.7473 45:-0.428571 93:-0.690001 94:-0.668518 96:-0.505555 105:-0.5 106:-0.6 109:-0.238095 111:0.192215 119:0.344154 121:0.31302 122:-0.555556 125:-0.777778 130:-0.234287 146:-1 147:-0.609304 184:-1 
8 12:-0.714286 37:0.7473 45:-0.428571 93:-0.7 94:-0.89307 96:-0.521504 105:-0.25 106:-0.6 109:-0.0572356 111:0.408102 119:0.301653 121:0.384955 122:-0.828571 125:-0.571428 130:0.19 146:-1 147:-0.600002 184:-0.714286 
3.363624797076187 12:-0.714286 37:0.827214 45:-0.714286 93:-0.642308 94:-0.90438 96:-0.358172 105:-0.25 106:-0.4 109:-0.426524 111:0.743879 119:-0.142231 121:0.715814 122:0.055556 125:-1 130:-0.542858 146:-1 147:-1 184:-1 
8 12:-0.714286 37:0.637149 45:-0.428571 93:-0.661819 94:-0.728788 96:-0.190908 105:-0.25 106:-0.6 109:-0.238095 111:0.374879 119:0.16883 121:0.125282 122:-0.625418 125:-0.953177 130:-0.440001 146:-1 147:-1 184:-1 
8 12:-0.428571 37:0.814255 45:-0.428571 93:-0.615703 94:-0.753443 96:-0.0805774 105:-0.5 106:-0.6 109:-0.666667 111:0.369514 119:-0.130682 121:0.279643 122:-0.939799 125:-0.752508 130:-0.512 146:-0.576922 147:-0.676924 184:-1 
8 12:-0.428571 37:0.386609 45:-0.428571 93:-0.872603 94:-1 96:0.0667824 105:-0.5 106:-0.6 109:-0.386973 111:0.401612 119:0.622258 121:0.472992 122:-0.333334 125:-0.904762 130:-0.08 146:-1 147:-1 184:-0.714286 
8 12:-0.428571 37:0.323974 45:-0.142857 93:-0.738029 94:-0.719875 96:-0.0598582 105:-0.5 106:-0.4 109:0.111111 111:0.299537 119:0.461039 121:0.341178 122:0.5 125:-0.388888 130:-0.08 146:-1 147:-1 184:-1 
8 12:-0.142857 37:0.447084 45:-0.142857 93:-0.861194 94:-0.851575 96:-0.33582 105:-0.5 106:-0.4 109:-0.25926 111:0.319325 119:0.363635 121:0.397676 122:-0.866667 125:-0.866667 130:0.136 146:-1 147:-1 184:-1 
8 12:-0.714286 37:0.565875 45:-0.428571 93:-0.815842 94:-1 96:-0.559405 105:-0.5 106:-0.6 109:-0.753086 111:0.488022 119:0.420453 121:0.525441 122:-0.833333 125:-0.566666 130:-0.440001 146:-1 147:-0.642554 184:-1 
8 12:-0.714286 37:0.615551 45:-0.428571 93:-0.655556 94:-0.907922 96:-0.0729156 105:-0.25 106:-0.4 109:-0.492063 111:0.472572 119:0.344154 121:0.29216 122:-0.826625 125:-0.479876 130:-0.35 146:-0.584906 147:-0.68302 184:-1 
8 12:-0.714286 37:0.557235 45:0.142857 93:-0.729127 94:-0.806903 96:-0.0279116 105:-0.5 106:-0.2 109:-0.426524 111:0.642244 119:0.121702 121:0.376675 122:-0.615384 125:-0.461538 130:-0.234287 146:-1 147:-1 184:-1 
8 12:-0.714286 37:0.892009 45:-0.142857 93:-0.764557 94:-0.874121 96:0.126586 105:-0.5 106:-0.4 109:-0.191919 111:0.603466 119:0.208679 121:0.254423 122:-0.909091 125:-0.931818 130:-0.542858 146:-1 147:-0.545948 184:-1 
8 12:-0.428571 37:0.481641 45:-0.428571 93:-0.819417 94:-1 96:-0.56796 105:-0.5 106:-0.4 109:-0.607844 111:0.444165 119:0.263371 121:0.470325 122:-0.285714 125:-0.761904 130:-0.440001 146:-0.511112 147:-0.626668 184:-1 
8 12:-0.714286 37:0.850972 45:-0.428571 93:-0.741667 94:-1 96:-0.484953 105:-0.5 106:-0.6 109:-0.111111 111:0.579906 119:0.344154 121:0.354738 122:-0.833333 125:-0.833333 130:-0.62 146:-0.592593 147:-0.37778 184:-0.142857 
8 12:-1 37:0.818575 45:-1 93:-0.709375 94:-0.766927 96:-0.826172 105:-0.5 106:-0.4 109:-0.25926 111:0.587555 119:0.022727 121:0.342919 122:-0.378422 125:-0.974235 130:-0.680001 146:-0.620689 147:0.158617 184:-1 
5.482860536784679 12:-0.428571 37:0.565875 45:0.142857 93:-0.675582 94:-0.884367 96:0.0348858 105:-0.25 106:-0.2 109:0.0728 111:0.253859 119:0.199057 121:0.0047266 122:-0.974026 125:-0.753246 130:-0.542858 146:-1 147:-0.200003 184:-1 
8 12:-0.428571 37:0.699784 45:0.142857 93:-0.620409 94:-0.898526 96:0.0216849 106:-0.2 109:-0.0572356 111:0.306399 119:0.239668 121:0.234512 122:-0.866667 125:-0.866667 130:-0.542858 146:-1 147:-0.642554 184:-1 
6.187875738269694 12:-0.428571 37:0.848812 45:-0.428571 93:-0.659756 94:-0.939363 96:-0.321645 105:-0.25 106:-0.4 109:-0.494949 111:0.730071 119:-0.302684 121:0.280969 122:-0.392592 125:-0.525926 130:-0.827693 146:-1 147:-0.760001 184:-0.714286 
8 12:-0.714286 37:0.682505 45:-0.142857 93:-0.531093 94:-0.665733 96:-0.158612 105:-0.5 106:-0.4 109:-0.298245 111:0.51069 119:0.345692 121:0.559382 122:-0.992982 125:-0.466666 130:-0.57091 146:-0.576922 147:-0.676924 184:-1 
8 12:-0.714286 37:0.846652 45:-0.714286 93:-0.628 94:-1 96:-0.258332 105:-0.5 106:-0.6 109:-0.25926 111:0.495154 119:0.448865 121:0.409842 122:-0.041666 125:-0.833333 130:0.136 146:-1 147:-1 184:-1 
8 12:-0.714286 37:0.526998 45:-0.142857 93:-0.879221 94:-1 96:-0.422076 105:-0.5 106:-0.4 109:-0.25926 111:0.297798 119:0.500001 121:0.484069 122:-0.392858 125:-0.392858 130:0.382858 146:-0.388888 147:-1 184:-1 
8 12:-0.714286 37:0.706263 45:-0.428571 93:-0.65125 94:-0.875694 96:-0.582812 105:-0.5 106:-0.6 109:-0.0740711 111:0.402804 119:0.022727 121:0.160396 122:-1 125:-1 130:-0.234287 146:-1 147:-1 184:-1 
3.253985342992228 12:-0.428571 37:0.423326 45:-0.428571 93:-0.874325 94:-0.865616 96:-0.248309 105:-0.5 106:-0.6 109:-0.42029 111:0.431784 119:0.422924 121:0.379952 122:-1 125:-0.6 130:1 146:-1 147:-1 184:-1 
8 12:-0.428571 37:0.740821 45:-0.428571 93:-0.874325 94:-1 96:-0.398647 105:-0.5 106:-0.6 109:-0.59596 111:0.582169 119:0.487601 121:0.287607 122:-0.4 125:-0.933333 130:-0.62 146:-1 147:-1 184:-1 
2.049492906519395 12:-0.714286 37:0.946004 45:-0.714286 93:-0.930597 94:-0.925788 96:-0.501865 105:-0.5 106:-0.4 109:-0.73064 111:0.720723 119:-0.132232 121:0.292032 122:-0.125 125:-0.6875 130:-0.728 146:-1 147:-0.737501 184:-1 
8 12:-0.714286 37:0.87473 45:-0.714286 93:-1 94:-0.819192 96:-0.696591 105:-0.75 106:-0.6 109:-0.0277778 111:0.610936 119:0.47017 121:0.476768 122:-0.95 125:-0.525 130:-0.35 146:-1 147:-1 184:-1 
8 12:-0.142857 37:0.87689 45:-0.142857 93:-0.636719 94:-0.844618 96:-0.652343 105:-0.25 106:-0.4 109:-0.783198 111:0.364768 119:0.197339 121:0.235482 122:-0.777778 125:-0.583334 130:-0.178183 146:-0.241378 147:-0.710345 184:-1 
8 12:-0.714286 37:0.444924 45:-0.714286 93:-0.664866 94:-0.820821 96:-0.498874 105:-0.25 106:-0.6 109:-0.506172 111:0.491312 119:0.477272 121:0.586281 122:-0.833333 125:-0.833333 130:0.136 146:0.245283 147:-1 184:-1 
8 12:-0.714286 37:0.354212 45:-0.714286 93:-0.718182 94:-0.899551 96:-0.550505 105:-0.5 106:-0.4 109:-0.63964 111:0.435297 119:0.54791 121:0.667184 122:-0.91453 125:-0.948718 130:-0.08 146:-1 147:-0.626668 184:-1 
4.502294259639568 12:-0.428571 37:0.440605 45:-0.428571 93:-0.311112 94:-0.70535 96:-0.423148 105:-0.25 106:-0.2 109:-0.777778 111:0.461838 119:0.022727 121:0.108072 122:-0.715152 125:-0.715152 130:-0.728 146:-1 147:-0.269567 184:-1 
8 12:-0.428571 37:0.922246 45:-0.428571 93:-0.692563 94:-0.589072 96:-0.448346 105:-0.5 106:-0.6 109:-0.753086 111:0.593692 119:0.136364 121:0.314524 122:-0.871345 125:-0.933723 130:-0.57091 146:-1 147:-1 184:-0.714286 
8 12:-0.714286 37:0.667387 45:-0.428571 93:-0.551807 94:-0.640561 96:-0.0617461 105:-0.5 106:-0.6 109:-0.0476178 111:0.27955 119:0.16883 121:0.210808 122:-0.863248 125:-0.65812 130:0.0742866 146:-1 147:-1 184:-1 
8 12:-0.428571 37:0.784017 45:-0.142857 93:-0.696739 94:-1 96:0.0883171 105:-0.5 106:-0.4 109:-0.0123467 111:0.157102 119:0.193183 121:0.233405 122:-0.6 125:-0.9 130:-0.35 146:-1 147:-0.626668 184:-1 
8 12:-0.714286 37:0.887689 45:-0.714286 93:-0.599139 94:-0.828544 96:-0.328663 105:-0.5 106:-0.4 109:-0.75976 111:0.395809 119:0.10565 121:0.0475917 122:-0.739348 125:-0.954887 130:-0.62 146:-1 147:-0.694547 184:-1 
8 12:-0.428571 37:0.822894 45:-0.428571 93:-0.731731 94:-0.90438 96:-0.465144 105:-0.5 106:-0.4 109:-0.506172 111:0.598978 119:0.136364 121:0.59845 122:-0.555556 125:-0.666666 130:-0.512 146:-1 147:-1 184:-0.714286 
8 12:-0.142857 37:0.781857 45:-0.142857 93:-0.59121 94:-1 96:0.100276 105:-0.25 106:-0.4 109:-0.111111 111:0.399939 119:0.227272 121:0.342919 122:-0.948718 125:-0.938462 130:0.0400009 146:-0.476191 147:-1 184:-1 
8 12:-0.714286 37:0.431965 45:-0.428571 93:-0.489011 94:-1 96:-0.0219764 105:-0.25 106:-0.6 109:-0.0849689 111:0.399939 119:0.50401 121:0.401612 122:0.066666 125:-0.866667 130:-0.440001 146:-1 147:-0.569233 184:-1 
8 12:-0.714286 37:0.697624 45:-0.714286 93:-0.539604 94:-1 96:-0.449256 105:-0.25 106:-0.6 109:-0.365079 111:0.315863 119:0.402596 121:0.421488 122:-0.8 125:-1 130:0.0400009 146:-0.55102 147:-1 184:-1 
8 12:-0.714286 37:0.358531 45:-0.428571 93:-0.628 94:-0.867408 96:-0.554999 105:-0.5 106:-0.6 109:-0.288889 111:0.352958 119:0.309091 121:0.203714 122:-0.416666 125:-0.5 130:-0.08 146:-1 147:-1 184:-1 
8 12:-0.428571 37:0.555076 45:-0.428571 93:-0.411393 94:-0.748241 96:0.549059 105:-0.25 106:-0.4 109:-0.506172 111:0.29532 119:0.136364 121:0.150932 122:-0.742424 125:-0.818182 130:0.0742866 146:-0.405406 147:-0.545948 184:-1 
8 12:-0.428571 37:0.429806 45:-0.142857 93:-0.523077 94:-0.872507 96:0.141026 105:-0.5 106:-0.4 109:-0.613526 111:0.431784 119:0.0671952 121:0.100614 122:-0.969231 125:-0.774358 130:-0.542858 146:-1 147:-1 184:-1 
8 12:-0.428571 37:0.421166 45:-0.142857 93:-0.761539 94:-0.490027 96:-0.286857 105:-0.5 106:-0.4 109:-0.0476178 111:0.399088 119:0.16883 121:0.39333 122:-0.833333 125:-0.583334 130:0.0742866 146:-0.371429 147:-1 184:-1 
8 12:-0.428571 37:0.574514 45:-0.142857 93:-0.595652 94:-1 96:-0.355072 105:-0.25 106:-0.4 109:-0.316239 111:0.389784 119:0.337412 121:0.580665 122:-1 125:-0.428572 130:0.280001 146:-1 147:-1 184:-1 
3.010237032930215 12:-0.714286 37:0.542117 45:-0.428571 93:-0.6125 94:-1 96:-0.536457 105:-0.5 106:-0.4 109:-1 111:0.435005 119:0.115701 121:0.154865 122:-1 125:-0.822222 130:0.280001 146:-1 147:-0.440002 184:-1 
8 12:-0.714286 37:0.658747 45:-0.714286 93:-0.577274 94:-0.849327 96:0.0113653 105:-0.25 106:-0.8 109:-0.777778 111:0.487988 119:0.227272 121:0.228537 122:-0.622222 125:-0.622222 130:-0.296 146:-1 147:-1 184:-1 
8 12:-0.428571 37:0.61987 45:-0.428571 93:-0.876 94:-1 96:-0.406666 105:-0.5 106:-0.6 109:-0.822222 111:0.594074 119:0.309091 121:0.583361 122:-0.777778 125:-1 130:-0.440001 146:-1 147:-0.490911 184:-1 
8 12:-0.714286 37:0.758099 45:-0.714286 93:-0.225001 94:-0.48206 96:-0.0729156 105:-0.25 106:-0.6 109:-0.206349 111:0.417294 119:0.022727 121:0.0960784 122:-0.428572 125:-0.920635 130:-0.35 146:-1 147:-1 184:-1 
8 12:-0.714286 37:0.580994 45:-0.428571 93:-0.715307 94:-1 96:-0.318876 105:-0.25 106:-0.6 109:-0.139785 111:0.599752 119:0.385632 121:0.607477 122:-0.857143 125:-0.642858 130:0.0400009 146:-1 147:-0.600002 184:-1 
8 12:-0.714286 37:0.727862 45:-0.714286 93:-0.77037 94:-0.877229 96:-0.450617 105:-0.5 106:-0.8 109:-0.506172 111:0.404594 119:0.51515 121:0.340215 122:-0.619048 125:-0.52381 130:-0.440001 146:-1 147:-1 184:-1 
8 12:-0.714286 37:0.87257 45:-0.714286 93:-1 94:-1 96:0.250007 105:-0.75 106:-0.4 109:0.0728 111:0.628459 119:0.622258 121:0.61901 122:-0.8 125:-0.933333 130:-0.440001 146:-1 147:-0.115792 184:-1 
0.5864511124031336 12:-0.428571 37:0.62203 45:-0.428571 93:-0.886586 94:-0.878726 96:-0.592987 105:-0.5 106:-0.2 109:0.07744 111:0.197116 119:0.42562 121:0.389379 122:-0.833333 125:-0.5 130:0.639999 146:-0.421052 147:-1 184:-1 
8 12:-0.428571 37:0.706263 45:-0.142857 93:-0.632895 94:-0.869152 96:-0.414473 105:-0.25 106:-0.4 109:-0.341564 111:0.331116 119:0.21212 121:0.221236 122:-0.885714 125:-0.885714 130:-0.440001 146:-1 147:-1 184:-0.714286 
8 12:-0.714286 37:0.49892 45:0.142857 93:-0.736793 94:-0.624738 96:-0.265329 105:-0.25 106:-0.2 109:-0.4709 111:0.307114 119:0.412337 121:0.541086 122:-0.977273 125:-0.795454 130:0.0400009 146:-1 147:-0.676924 184:-0.714286 
8 12:-0.714286 37:0.576674 45:-0.142857 93:-0.896667 94:-0.779012 96:-0.752778 105:-0.5 106:-0.4 109:-0.111111 111:0.315863 119:0.295456 121:0.128757 122:-0.166666 125:-0.424242 130:-0.728 146:-1 147:-1 184:-1 
8 12:-0.714286 37:0.725702 45:-0.428571 93:-1 94:-1 96:-0.337797 105:-0.75 106:-0.6 109:-0.555556 111:0.304823 119:0.295456 121:0.23097 122:-0.833333 125:-0.933333 130:-0.234287 146:-1 147:-0.18049 184:-1 
0.4408808776362975 12:-0.714286 37:0.406048 45:-0.428571 93:-1 94:-1 96:-0.531578 105:-0.75 106:-0.6 109:-0.461279 111:0.34515 119:0.301653 121:0.0752183 122:-0.44056 125:-0.398602 130:-0.08 146:-0.488372 147:-1 184:0.428571 
8 12:-0.714286 37:0.561555 45:-0.428571 93:-0.824529 94:-1 96:-0.790094 105:-0.5 106:-0.6 109:-0.492063 111:0.486464 119:0.227272 121:0.22958 122:-0.925926 125:-0.94709 130:-0.799999 146:-1 147:-0.18049 184:-1 
8 12:-0.428571 37:0.382289 45:-0.142857 93:-0.6125 94:-1 96:-0.536457 105:-0.25 106:-0.4 109:-0.477124 111:0.359334 119:0.383688 121:0.259887 122:-0.973856 125:-0.686274 130:-0.234287 146:-1 147:-0.600002 184:-1 
8 12:-0.142857 37:0.61987 45:-0.142857 93:-0.427693 94:-0.694017 96:0.0269248 105:-0.25 106:-0.4 109:-0.0740711 111:0.262361 119:0.193183 121:0.111723 122:-0.888889 125:-0.555556 130:-0.440001 146:-1 147:-0.475002 184:-1 
8 12:-0.142857 37:0.537797 45:-0.142857 93:-0.667857 94:-0.881613 96:0.191968 105:-0.25 106:-0.4 109:-0.65812 111:0.382103 119:0.180072 121:0.0808341 122:-0.636364 125:-0.909091 130:-0.296 146:-1 147:-1 184:-1 
8 12:-0.428571 37:0.399568 45:-0.428571 93:-0.734286 94:-0.857936 96:-0.523214 105:-0.5 106:-0.6 109:-0.227053 111:0.256247 119:0.333992 121:0.0180814 122:-0.904762 125:-0.809524 130:-0.08 146:-1 147:-0.400002 184:-1 
8 12:-0.714286 37:0.634989 45:-0.714286 93:-0.595652 94:-1 96:-0.193839 105:-0.5 106:-0.6 109:-0.822222 111:0.332663 119:0.227272 121:0.256281 122:-0.388888 125:-0.861111 130:-0.62 146:-1 147:0.0181792 184:-1 
8 12:-0.142857 37:0.695464 45:-0.142857 93:-0.786207 94:-0.542784 96:-0.232758 105:-0.5 106:-0.4 109:-0.54023 111:0.433118 119:0.269593 121:0.528376 122:-1 125:-1 130:0.0742866 146:-1 147:-1 184:-1 
8 12:-0.428571 37:0.302376 45:-0.428571 93:-0.77037 94:-0.754457 96:-0.31327 105:-0.5 106:-0.6 109:-0.206349 111:0.315863 119:0.314937 121:0.294245 122:-0.74359 125:-0.863248 130:0.691429 146:-1 147:-0.533334 184:-1 
8 12:-0.714286 37:0.855292 45:-0.714286 93:-0.659756 94:-0.878726 96:-0.457316 105:-0.25 106:-0.6 109:-0.613526 111:0.513778 119:0.24506 121:0.272024 122:-0.791208 125:-0.593406 130:0.280001 146:-1 147:-0.520002 184:-1 
8 12:-0.428571 37:0.805616 45:-0.428571 93:-0.675582 94:-0.768734 96:-0.0944759 105:-0.5 106:-0.4 109:-0.0476178 111:0.38865 119:0.022727 121:-0.00821935 122:-1 125:-0.777778 130:-0.728 146:-1 147:-0.533334 184:-1 
8 12:-0.714286 37:0.764579 45:-0.714286 93:-0.817648 94:-1 96:-0.563725 105:-0.5 106:-0.6 109:-0.506172 111:0.620442 119:0.590909 121:0.809365 122:-0.583334 125:-1 130:-0.234287 146:-0.568628 147:-0.67059 184:-1 
8 12:-0.714286 37:0.844492 45:-0.714286 93:-0.935417 94:-1 96:-0.22743 105:-0.5 106:-0.4 109:-0.629629 111:0.703877 119:-0.261362 121:0.27802 122:-0.671428 125:-0.542858 130:-0.57091 146:-0.706667 147:-0.104003 184:-1 
8 12:-0.428571 37:0.239741 45:0.142857 93:-0.628 94:-0.522666 96:-0.198999 105:-0.25 106:-0.2 109:-0.132791 111:0.44755 119:0.297117 121:0.303149 122:-0.745454 125:-0.963636 130:-0.200001 146:-0.568628 147:-0.341178 184:-1 
8 12:-0.428571 37:0.25054 45:-0.428571 93:-0.7675 94:-0.834259 96:-0.165624 105:-0.5 106:-0.6 109:-0.241192 111:0.339047 119:0.197339 121:0.210554 122:-0.795454 125:-0.893939 130:-0.680001 146:-1 147:-0.737501 184:-1 
8 12:0.142857 37:0.7473 45:0.142857 93:-0.483333 94:-0.723765 96:-0.278934 105:-0.25 106:-0.2 109:0.176471 111:0.513358 119:0.263371 121:0.526157 122:-0.411764 125:-0.509804 130:-0.35 146:-1 147:-0.328002 184:-1 
4.295837100688878 12:-0.428571 37:0.717063 45:-0.428571 93:-0.406384 94:-0.259455 96:-0.171541 105:-0.25 106:-0.6 109:-0.477124 111:0.212274 119:0.0828879 121:0.229825 122:-0.952381 125:-0.650794 130:0.0400009 146:-1 147:-1 184:-1 
8 12:-0.714286 37:0.803456 45:-0.714286 93:-0.658716 94:-0.908766 96:-0.285549 105:-0.25 106:-0.4 109:-0.03904 111:0.437103 119:0.32678 121:0.473809 122:-0.746032 125:-0.968254 130:-0.08 146:-0.592593 147:-0.37778 184:-1 
2.809794706117114 12:-0.142857 37:0.272138 45:-0.142857 93:-1 94:-0.178898 96:-0.183485 105:-0.75 106:-0.4 109:-0.111111 111:0.317989 119:0.227272 121:0.210285 122:-0.5 125:-0.74359 130:-0.234287 146:-1 147:-1 184:-0.142857 
8 12:-0.428571 37:0.684665 45:-0.428571 93:-0.446429 94:-1 96:-0.735119 105:-0.25 106:-0.6 109:-0.206349 111:0.313104 119:0.16883 121:0.200376 122:-0.785714 125:-0.892857 130:-0.234287 146:-1 147:-1 184:-1 
8 12:-0.142857 37:0.514039 45:-0.142857 93:-0.645715 94:-0.905291 96:-0.57619 105:-0.5 106:-0.4 109:-0.316239 111:0.245207 119:0.363635 121:0.254934 122:-0.74359 125:-0.871795 130:-0.62 146:-1 147:-1 184:-1 
8 12:-0.142857 37:0.419006 45:-0.142857 93:-0.788636 94:-0.54798 96:-0.241476 105:-0.5 106:-0.4 109:-0.305556 111:0.26844 119:0.278409 121:0.490458 122:-0.821429 125:-0.928571 130:-0.08 146:-1 147:-1 184:-1 
8 12:-0.714286 37:0.7473 45:-0.714286 93:-0.919828 94:-1 96:0.0549587 105:-0.5 106:-0.4 109:-0.532164 111:0.471756 119:0.345692 121:0.428737 122:-0.630252 125:-0.854342 130:0.0400009 146:-0.185186 147:-0.68889 184:-1 
8 12:-0.142857 37:0.902808 45:-0.142857 93:-0.667857 94:-1 96:-0.337797 105:-0.5 106:-0.4 109:0.481484 111:0.180623 119:0.295456 121:0.177431 122:-0.89899 125:-0.959596 130:-0.08 146:-1 147:-0.557896 184:-1 
8 12:-0.142857 37:0.38013 45:-0.142857 93:-0.667857 94:-0.171295 96:0.0595255 106:-0.4 109:-0.166667 111:0.244103 119:0.214488 121:0.408323 122:-0.583334 125:-0.805556 130:0.0742866 146:-1 147:-0.569233 184:-1 
8 12:-0.142857 37:0.712743 45:-0.142857 93:-0.483333 94:-0.631687 96:-0.587963 105:-0.25 106:-0.4 109:-0.215686 111:0.494039 119:-0.0975948 121:0.508976 122:-0.052632 125:-0.906433 130:0.00307789 146:-1 147:-0.676924 184:-1 
8 12:-0.428571 37:0.365011 45:-0.428571 93:-0.791791 94:-0.777362 96:-0.0867529 105:-0.5 106:-0.2 109:-0.191919 111:0.473307 119:0.16219 121:0.390486 122:-0.846491 125:-0.837719 130:-0.296 146:-0.645162 147:-1 184:-1 
8 12:-0.142857 37:0.779698 45:-0.142857 93:-0.14592 94:-1 96:-0.0918348 105:-0.25 106:-0.4 109:-0.73064 111:0.415224 119:0.239668 121:0.261058 122:-0.978947 125:-0.473684 130:-0.680001 146:-1 147:-1 184:-1 
8 12:-0.142857 37:0.654428 45:-0.142857 93:-0.353044 94:-0.740579 96:-0.0326074 105:-0.25 106:-0.4 109:-0.346405 111:0.336024 119:0.022727 121:-0.148105 122:-0.833333 125:-0.666666 130:-0.08 146:-0.568628 147:-0.67059 184:-1 
8 12:-0.714286 37:0.544276 45:-0.142857 93:-0.620409 94:-0.594104 96:0.0216849 105:-0.25 106:-0.4 109:-0.607844 111:0.351349 119:0.0828879 121:0.221236 122:-0.721926 125:-0.66845 130:-0.08 146:-1 147:-1 184:-1 
3.374763692070468 12:-0.428571 37:0.863931 45:-0.428571 93:-0.906061 94:-1 96:-0.213382 105:-0.5 106:-0.6 109:0.61616 111:0.732711 119:0.673554 121:1 122:-0.347222 125:-0.916667 130:-0.680001 146:-1 147:-0.650002 184:-1 
8 12:-0.714286 37:0.591793 45:-0.714286 93:-0.645715 94:-1 96:-0.152379 105:-0.5 106:-0.6 109:-0.59596 111:0.426264 119:0.301653 121:0.141589 122:-0.428572 125:-0.935065 130:-0.35 146:-0.592593 147:-0.68889 184:-1 
8 12:-0.428571 37:0.734341 45:-0.428571 93:-0.278449 94:-0.657087 96:-0.520474 106:-0.6 109:-0.135803 111:0.423791 119:0.136364 121:0.0468265 122:-0.874644 125:-0.606838 130:-0.62 146:-1 147:-1 184:-0.714286 
8 12:-0.142857 37:0.684665 45:-0.142857 93:-0.793334 94:-0.558024 96:-0.175924 105:-0.5 106:-0.4 109:0.300809 111:0.580335 119:0.347005 121:0.25685 122:-0.821429 125:-0.517858 130:-0.851429 146:-1 147:-0.776001 184:-1 
8 12:-0.714286 37:0.930886 45:-0.714286 93:-0.709375 94:-0.922309 96:-0.391601 105:-0.25 106:-0.6 109:-0.202279 111:0.745133 119:0.363635 121:0.636827 122:-0.69873 125:-0.920145 130:-0.680001 146:-1 147:-1 184:-1 
8 12:-0.714286 37:0.840173 45:-0.428571 93:-0.931111 94:-0.852675 96:-0.0111094 105:-0.5 106:-0.6 109:-0.544159 111:0.662769 119:-0.00349568 121:0.479577 122:-0.771428 125:-0.742858 130:-0.767273 146:-0.301588 147:-0.733334 184:-1 
8 12:-0.714286 37:0.846652 45:-0.714286 93:-0.497297 94:-0.731231 96:0.00225393 106:-0.4 109:-0.365079 111:0.614543 119:0.344154 121:0.321364 122:-0.587302 125:-0.936508 130:-0.89 146:-1 147:-0.676924 184:-1 
8 12:-0.428571 37:0.578834 45:-0.428571 93:-0.358622 94:-0.828544 96:-0.328663 106:-0.6 109:-0.333333 111:0.297875 119:0.227272 121:0.290595 122:-0.657894 125:-0.649122 130:-0.35 146:-1 147:-0.67059 184:-1 
8 12:-0.142857 37:0.606911 45:-0.142857 93:-0.909709 94:-0.806903 96:-0.135921 105:-0.5 106:-0.4 109:-0.415204 111:0.313612 119:0.345692 121:0.255819 122:-0.5 125:-0.875 130:-0.542858 146:-1 147:-1 184:-0.714286 
8 12:-0.428571 37:0.773218 45:-0.428571 93:-0.734286 94:-0.810582 96:-0.470238 105:-0.5 106:-0.4 109:-0.59596 111:0.384312 119:0.239668 121:0.150438 122:-0.571428 125:-0.809524 130:-0.234287 146:-0.52174 147:-0.634784 184:-1 
7.645397381614804 12:-0.428571 37:0.654428 45:-0.428571 93:-0.211865 94:-0.494349 96:-0.340042 105:-0.25 106:-0.6 109:0.0256444 111:0.219591 119:0.101399 121:0.0228007 122:-0.9 125:-0.975 130:-0.08 146:-0.592593 147:-1 184:-1 
0.5687284258516316 12:-0.428571 37:0.835853 45:-0.428571 93:-0.459303 94:-0.421834 96:-0.611918 105:-0.25 106:-0.4 109:-0.48718 111:0.31856 119:-0.134617 121:-0.188739 122:-0.961905 125:-0.685714 130:-0.440001 146:-1 147:-0.580001 184:-1 
8 12:-0.428571 37:0.289417 45:-0.428571 93:-0.7768 94:-0.920444 96:0.0680017 105:-0.5 106:-0.6 109:-0.666667 111:0.453114 119:0.329545 121:0.202984 122:-0.428572 125:-0.619048 130:-0.440001 146:-1 147:-1 184:-0.714286 
8 12:-0.714286 37:0.954644 45:-0.714286 93:-0.667857 94:-0.91121 96:-0.205356 105:-0.5 106:-0.6 109:-0.65812 111:0.450415 119:0.416084 121:0.543224 122:-0.781818 125:-0.70909 130:-0.296 146:-1 147:-0.314288 184:-0.714286 
4.715478442602215 12:-0.428571 37:0.660907 45:-0.428571 93:-1 94:-1 96:-0.24393 105:-0.75 106:-0.4 109:-0.349594 111:0.228078 119:0.496675 121:0.45985 122:-0.7 125:-0.35 130:0.280001 146:-1 147:-0.664001 184:-0.714286 
8 12:-0.428571 37:0.807775 45:-0.428571 93:-1 94:-0.885695 96:-0.232758 105:-0.75 106:-0.6 109:-0.365079 111:0.326523 119:0.577921 121:0.475725 122:-0.777778 125:-0.888889 130:-0.08 146:-0.488372 147:-1 184:-0.714286 
8 12:-0.428571 37:0.470842 45:-0.428571 93:-0.586668 94:-0.926337 96:-0.258332 105:-0.25 106:-0.6 109:-0.379845 111:0.454969 119:0.14165 121:0.0684284 122:-0.894545 125:-0.756364 130:-0.440001 146:-0.65625 147:-0.475002 184:-0.428571 
8 12:-0.428571 37:0.24622 45:-0.428571 93:-0.510527 94:-0.476607 96:-0.560854 105:-0.5 106:-0.6 109:-0.57672 111:0.550757 119:-0.0259752 121:0.0752183 122:-0.670588 125:-0.670588 130:-0.296 146:-1 147:-1 184:-1 
0.6786768326401216 12:-0.714286 37:0.576674 45:-0.142857 93:-0.781177 94:-1 96:-0.607353 105:-0.5 106:-0.4 109:-0.111111 111:0.193124 119:0.295456 121:0.128757 122:-0.25 125:-0.3 130:-0.296 146:-1 147:-1 184:-1 
8 12:-0.714286 37:0.49676 45:0.142857 93:-0.687396 94:-0.665733 96:-0.345588 105:-0.25 106:-0.2 109:-0.68254 111:0.469776 119:0.412337 121:0.471552 122:-0.785714 125:-0.904762 130:-0.296 146:-1 147:-1 184:-0.714286 
8 12:-0.714286 37:0.816415 45:-0.428571 93:-0.741667 94:-0.539608 96:-0.381943 105:-0.5 106:-0.6 109:-0.298245 111:0.163448 119:0.23804 121:0.0982745 122:-0.807692 125:-0.884615 130:-0.08 146:-1 147:-0.328002 184:-1 
0.04026653046925462 12:-0.428571 37:0.833693 45:-0.428571 93:-0.0328011 94:-0.840889 96:-0.465999 105:0.5 106:-0.2 109:-0.444444 111:0.423438 119:0.176136 121:0.217586 122:-0.52381 125:-0.619048 130:-0.680001 146:-1 147:-0.160003 184:-1 
8 12:-0.428571 37:0.816415 45:-0.428571 93:-0.797827 94:-1 96:-0.516303 105:-0.5 106:-0.4 109:-0.59596 111:0.293182 119:0.115701 121:0.25221 122:-0.85 125:-0.816667 130:-0.234287 146:-1 147:-0.642554 184:-1 
8 12:-0.714286 37:0.786177 45:-0.428571 93:-0.676522 94:-0.913526 96:-0.516303 105:-0.5 106:-0.6 109:-0.365079 111:0.53561 119:0.344154 121:0.29216 122:-0.785714 125:-0.928571 130:-0.62 146:-1 147:-0.300002 184:-1 
8 12:-0.714286 37:0.7473 45:-0.714286 93:-0.912264 94:-0.812369 96:-0.685141 105:-0.5 106:-0.6 109:-0.135803 111:0.296177 119:0.306816 121:0.21718 122:-0.736842 125:-0.884211 130:-0.542858 146:-1 147:-1 184:-1 
8 12:-0.714286 37:0.816415 45:-0.714286 93:-0.595652 94:-0.891908 96:-0.39538 105:-0.25 106:-0.4 109:0.0158756 111:0.212543 119:0.402596 121:0.346394 122:-0.896104 125:-0.766234 130:-0.08 146:-1 147:-1 184:-1 
8 12:-0.142857 37:0.565875 45:-0.142857 93:-0.588496 94:-0.647984 96:-0.0154849 105:-0.5 106:-0.4 109:-0.430199 111:0.268674 119:0.153845 121:0.254934 122:-0.736264 125:-0.802198 130:-0.374546 146:-1 147:-1 184:-0.714286 
4.473219703936724 12:-0.428571 37:0.365011 45:-0.428571 93:-0.712372 94:-1 96:-0.311854 105:-0.5 106:-0.2 109:-0.461279 111:0.284792 119:0.177687 121:0.141589 122:-0.951923 125:-0.807692 130:0.46 146:-0.511112 147:0.119997 184:-1 
8 12:-0.142857 37:0.706263 45:-0.142857 93:-0.284616 94:-0.235041 96:-0.3344 105:-0.25 106:-0.4 109:-0.25926 111:0.403052 119:-0.147729 121:0.205011 122:-0.921212 125:-0.963636 130:-0.178183 146:-0.52174 147:-1 184:-1 
3.898718599177045 12:-0.428571 37:0.365011 45:-0.142857 93:-0.371622 94:-0.731231 96:-0.473817 106:-0.2 109:-0.0123467 111:0.403588 119:0.272727 121:0.0395256 122:-0.722222 125:-0.444444 130:-0.542858 146:-1 147:-0.729034 184:-1 
8 12:-0.714286 37:0.367171 45:-0.142857 93:-0.630953 94:-0.684303 96:-0.205356 105:-0.25 106:-0.4 109:-0.483204 111:0.323224 119:0.284353 121:0.183882 122:-0.880952 125:-0.690476 130:-0.57091 146:-0.607144 147:-0.700002 184:-1 
8 12:-0.428571 37:0.721382 45:-0.142857 93:-0.605932 94:-0.831449 96:-0.151482 105:-0.5 106:-0.4 109:-0.379845 111:0.209765 119:0.0940807 121:0.187278 122:-0.611112 125:-0.777778 130:-0.57091 146:-1 147:-0.72 184:-1 
8 12:-0.428571 37:0.537797 45:-0.142857 93:-0.827778 94:-1 96:-0.278934 105:-0.5 106:-0.4 109:-0.382716 111:0.384558 119:0.420453 121:0.298302 122:-0.927126 125:-0.967611 130:-0.35 146:-0.185186 147:-0.37778 184:-1 
8 12:-0.714286 37:0.261339 45:-0.428571 93:-0.7024 94:-0.761333 96:-0.554999 105:-0.25 106:-0.4 109:-0.25926 111:0.497628 119:0.412337 121:0.388114 122:-0.961538 125:-0.910256 130:-0.35 146:-1 147:-1 184:-0.714286 
8 12:-0.714286 37:0.892009 45:-0.714286 93:-0.296639 94:-1 96:-0.439074 105:-0.25 106:-0.2 109:-0.111111 111:0.606153 119:0.534091 121:0.644689 122:-0.430304 125:-0.806061 130:-0.680001 146:-1 147:-0.68889 184:-1 
8 12:-0.428571 37:0.792657 45:-0.428571 93:-0.703192 94:-0.682624 96:-0.171541 105:-0.5 106:-0.6 109:-0.191919 111:0.320797 119:0.115701 121:0.101767 122:-0.975 125:-0.7 130:-0.440001 146:-1 147:-1 184:-1 
8 12:-0.714286 37:0.462203 45:-0.428571 93:-0.521324 94:-0.415032 96:0.14522 105:-0.25 106:-0.6 109:-0.457995 111:0.413033 119:-0.00221932 121:0.0467272 122:-0.725 125:-0.825 130:-0.374546 146:-1 147:-0.0666689 184:-1 
8 12:-0.428571 37:0.892009 45:-0.428571 93:-0.524818 94:-0.491889 96:-0.350364 105:-0.25 106:-0.4 109:0.26984 111:0.478322 119:0.266234 121:0.276863 122:-0.388664 125:-0.910931 130:-0.728 146:-1 147:-1 184:-1 
8 12:-0.142857 37:0.576674 45:-0.142857 93:-0.695082 94:-0.755464 96:-0.179302 105:-0.25 106:-0.4 109:-0.544159 111:0.334867 119:0.101399 121:0.150099 122:-0.969697 125:-0.808081 130:-0.178183 146:-0.214285 147:-0.400002 184:-1 
8 12:-0.428571 37:0.803456 45:-0.428571 93:-0.757391 94:-0.740579 96:-0.226086 105:-0.5 106:-0.6 109:-0.132791 111:0.323927 119:0.347005 121:0.306709 122:-0.821429 125:-0.928571 130:-0.512 146:-0.607144 147:-1 184:-0.714286 
8 12:-0.714286 37:0.829374 45:-0.714286 93:-0.845 94:-1 96:-0.165624 105:-0.5 106:-0.4 109:-0.111111 111:0.61919 119:0.431818 121:0.681193 122:-0.833333 125:-0.904762 130:-0.728 146:-0.650794 147:-0.733334 184:-1 
3.904277866193576 12:-0.428571 37:0.164147 45:-0.142857 93:-0.7675 94:-1 96:-0.536457 105:-0.5 106:-0.4 109:-0.0243911 111:0.342912 119:0.247228 121:0.317395 122:-0.802198 125:-0.948718 130:-0.440001 146:-0.169812 147:-0.68302 184:-1 
8 12:-0.714286 37:0.948164 45:-0.714286 93:-0.650376 94:-0.850459 96:-0.330826 105:-0.25 106:-0.4 109:-0.75976 111:0.666242 119:-0.170761 121:0.458022 122:-0.604166 125:-0.4375 130:-0.374546 146:-1 147:-0.505883 184:-1 
8 12:-0.142857 37:0.796976 45:-0.142857 93:-0.856923 94:-0.694017 96:0.0269248 105:-0.5 106:-0.4 109:0.164018 111:0.610125 119:0.314937 121:0.59671 122:-0.05 125:-0.8 130:-0.512 146:-1 147:-0.173774 184:-1 
8 12:-0.428571 37:0.775378 45:-0.142857 93:-0.622974 94:-0.798423 96:-0.173141 105:-0.25 106:-0.4 109:0.0884356 111:0.367557 119:0.461039 121:0.268914 122:-0.921569 125:-0.421568 130:-0.440001 146:-1 147:-0.72 184:-1 
8 12:-0.428571 37:0.738661 45:-0.428571 93:-0.239092 94:-0.36717 96:-0.39318 105:-0.25 106:-0.4 109:-0.135803 111:0.214696 119:-0.0340916 121:0.0508829 122:-0.713236 125:-0.860294 130:-0.296 146:-1 147:-0.341178 184:-1 
8 12:-0.428571 37:0.652268 45:-0.142857 93:-0.573395 94:-0.635066 96:-0.285549 105:-0.25 106:-0.4 109:-0.159159 111:0.241419 119:0.160934 121:0.0318071 122:-0.905882 125:-0.898039 130:-0.542858 146:-1 147:-1 184:-1 
-8 12:-0.428571 37:0.531317 45:-0.428571 93:-0.471591 94:-0.434974 96:-0.494318 105:-0.5 106:-0.6 109:-0.365079 111:0.381727 119:0.241881 121:0.30989 122:-0.681818 125:-0.757576 130:0.0742866 146:-1 147:-1 184:-1 
-8 12:-0.428571 37:0.732181 45:-0.428571 93:-0.904124 94:-0.89748 96:0.146911 105:-0.5 106:-0.6 109:0.212124 111:0.581167 119:0.549587 121:0.738937 122:-0.277778 125:-0.972222 130:-0.440001 146:-0.56 147:-0.328002 184:-1 
-8 12:-0.714286 37:0.758099 45:-0.714286 93:-0.791012 94:-1 96:-0.75 105:-0.5 106:-0.4 109:-0.341564 111:0.485187 119:0.21212 121:0.437559 122:-0.5 125:-0.722222 130:0.19 146:-1 147:-0.557896 184:-1 
-8 12:-0.714286 37:0.600432 45:-0.142857 93:-0.586668 94:-0.558024 96:-0.134721 105:-0.5 106:-0.4 109:-0.693486 111:0.480729 119:0.269593 121:0.483061 122:-0.97619 125:-0.904762 130:-0.62 146:-0.45 147:-1 184:-1 
-8 12:-0.714286 37:0.682505 45:-0.714286 93:-0.905102 94:-0.289681 96:-0.545918 105:-0.5 106:-0.6 109:-0.583333 111:0.500391 119:0.342329 121:0.526963 122:-0.815385 125:-0.528206 130:-0.08 146:-1 147:-1 184:-1 
-8 12:-0.714286 37:0.74514 45:-0.714286 93:-0.904124 94:-0.589919 96:-0.541237 105:-0.5 106:-0.6 109:-0.25926 111:0.492733 119:0.56818 121:0.557078 122:-0.692308 125:-1 130:1 146:-1 147:-1 184:-1 
-5.427831714153298 12:-0.714286 37:0.682505 45:-0.714286 93:-0.9 94:-1 96:-0.282257 105:-0.5 106:-0.4 109:0.0457511 111:0.465439 119:0.624332 121:0.633521 122:-0.454546 125:-0.636364 130:-0.234287 146:-1 147:-1 184:-1 
-8 12:-0.714286 37:0.522678 45:-0.142857 93:-0.328867 94:-0.589919 96:0.0322181 105:-0.25 106:-0.4 109:-0.444444 111:0.409078 119:0.022727 121:0.230362 122:-0.824561 125:-0.692982 130:0.19 146:-1 147:-0.328002 184:-1 
-8 12:-0.428571 37:0.758099 45:-0.428571 93:-0.906061 94:-1 96:-0.775252 105:-0.5 106:-0.2 109:-0.444444 111:0.571124 119:0.342329 121:0.453954 122:-0.311112 125:-0.8 130:-0.440001 146:-0.55102 147:-0.657143 184:-1 
-8 12:-0.714286 37:0.717063 45:-0.714286 93:-0.810204 94:-0.797051 96:-0.432397 105:-0.5 106:-0.6 109:-0.461279 111:0.412859 119:0.42562 121:0.460174 122:-0.488636 125:-0.852273 130:-0.542858 146:-0.488372 147:-1 184:-1 
-8 12:-0.714286 37:0.706263 45:-0.714286 93:-0.6 94:-0.572281 96:-0.521504 105:-0.25 106:-0.8 109:-0.326599 111:0.447988 119:0.363635 121:0.56637 122:-0.828571 125:-0.914286 130:-0.440001 146:-1 147:-1 184:-1 
-8 12:-0.142857 37:0.732181 45:-0.142857 93:-0.373035 94:0.00562359 96:-0.624999 105:-0.25 106:-0.4 109:-0.407407 111:0.558125 119:0.022727 121:0.216368 122:-0.761904 125:-0.619048 130:-0.440001 146:-1 147:-0.664001 184:-0.714286 
-8 12:0.142857 37:0.796976 45:0.142857 93:-0.7 94:-1 96:-0.521504 105:-0.25 106:-0.2 109:-0.111111 111:0.617509 119:0.500001 121:0.630087 122:-0.815385 125:-0.74359 130:-0.542858 146:-1 147:-1 184:-1 
-8 12:-0.428571 37:0.669546 45:-0.428571 93:-0.500001 94:0.390086 96:0.19624 105:-0.25 106:-0.4 109:-0.569892 111:0.248555 119:-0.0762484 121:-0.0849314 122:-0.958333 125:-0.75 130:-0.234287 146:-1 147:-1 184:-1 
-8 12:-0.142857 37:0.768898 45:-0.142857 93:-1 94:-0.898526 96:-0.432397 105:-0.75 106:-0.4 109:0.0526311 111:0.332424 119:0.453348 121:0.40568 122:-0.727272 125:-0.69697 130:-0.440001 146:-1 147:-1 184:-0.428571 
-1.949995576550201 12:-0.428571 37:0.920086 45:-0.428571 93:-0.693407 94:-0.89072 96:-0.510989 105:-0.25 106:-0.6 109:-0.407407 111:0.445797 119:0.363635 121:0.415928 122:-0.826923 125:-0.788462 130:-0.542858 146:-1 147:-1 184:-1 
-8 12:-0.428571 37:0.507559 45:-0.428571 93:-0.9 94:-1 96:-0.760752 105:-0.5 106:-0.6 109:-0.386973 111:0.467931 119:0.269593 121:0.357185 122:-0.737556 125:-0.909502 130:0.0742866 146:-1 147:-1 184:-1 
-8 12:-0.714286 37:0.643629 45:-0.428571 93:-1 94:-0.89307 96:-0.641128 105:-0.75 106:-0.6 109:-0.407407 111:0.428045 119:0.295456 121:0.274775 122:-0.790476 125:-0.904762 130:-0.542858 146:-1 147:-1 184:-1 
-8 12:-0.428571 37:0.803456 45:-0.428571 93:-0.690001 94:-1 96:-0.505555 105:-0.25 106:-0.6 109:0.07744 111:0.400873 119:0.611568 121:0.499999 122:-0.604396 125:-0.912088 130:-0.08 146:-1 147:-1 184:-1 
-8 12:-0.714286 37:0.509719 45:-0.142857 93:-0.896667 94:-1 96:-0.752778 105:-0.5 106:-0.4 109:-0.555556 111:0.462696 119:0.363635 121:0.435395 122:-0.6 125:-0.866667 130:-0.234287 146:-1 147:-0.569233 184:-1 
-8 12:-0.714286 37:0.900648 45:-0.714286 93:-0.806251 94:-0.896412 96:-0.1888 105:-0.5 106:-0.6 109:-0.59596 111:0.627401 119:0.549587 121:0.75221 122:-0.852273 125:-0.954545 130:-0.542858 146:-0.488372 147:-0.609304 184:-1 
-8 12:-0.428571 37:0.434125 45:-0.428571 93:-1 94:-0.888264 96:-0.249999 105:-0.75 106:-0.6 109:-0.283154 111:0.451322 119:0.451614 121:0.593346 122:-0.727272 125:-0.848485 130:0.0742866 146:-0.463416 147:-1 184:-1 
-8 12:-0.714286 37:0.939525 45:-0.714286 93:-0.896667 94:-0.337036 96:-0.134721 105:-0.5 106:-0.2 109:-0.316239 111:0.594074 119:0.101399 121:0.434647 122:-0.66845 125:-0.657754 130:-0.542858 146:-0.476191 147:-1 184:-1 
-8 12:-0.714286 37:0.768898 45:-0.714286 93:-1 94:-0.567632 96:-0.39538 105:-0.75 106:-0.8 109:-0.851852 111:0.487225 119:0.500001 121:0.401326 122:-0.74269 125:-0.847953 130:-0.440001 146:-1 147:-0.557896 184:-1 
-7.828857245975697 12:-0.714286 37:0.548596 45:-0.714286 93:-1 94:-0.365247 96:-0.644946 105:-0.75 106:-0.6 109:-0.444444 111:0.50331 119:0.534091 121:0.563467 122:-0.7 125:-0.833333 130:-0.440001 146:-1 147:-1 184:-1 
-1.113143288144769 12:-0.714286 37:0.669546 45:-0.714286 93:-0.822858 94:0.231224 96:-0.470238 105:-0.5 106:-0.6 109:-0.279279 111:0.401976 119:0.10565 121:0.300165 122:-0.432692 125:-0.855769 130:-0.62 146:-0.153847 147:-0.676924 184:-1 
-8 12:-0.428571 37:0.442765 45:-0.428571 93:-0.893103 94:-1 96:-0.360631 105:-0.5 106:-0.6 109:-0.283154 111:0.510398 119:0.451614 121:0.640448 122:-0.794872 125:-0.367522 130:-0.62 146:-0.435898 147:-1 184:-1 
-8 12:-0.428571 37:0.7473 45:-0.428571 93:-0.447526 94:-0.60616 96:-0.449256 105:-0.25 106:-0.6 109:-0.569892 111:0.373249 119:0.121702 121:0.131742 122:-0.355312 125:-0.824176 130:-0.35 146:-1 147:-0.218608 184:-1 
-8 12:-0.714286 37:0.861771 45:-0.714286 93:-0.446429 94:0.539025 96:-0.205356 106:-0.4 109:-0.341564 111:0.398663 119:0.136364 121:0.15634 122:-0.333334 125:-0.833333 130:-0.296 146:-1 147:-0.557896 184:-1 
-8 12:-0.142857 37:0.367171 45:-0.142857 93:-0.715307 94:-1 96:-0.432397 105:-0.5 106:-0.4 109:-0.03904 111:0.320595 119:0.54791 121:0.430398 122:-0.454546 125:-0.636364 130:-0.542858 146:-1 147:-0.642554 184:-1 
-8 12:-0.714286 37:0.760259 45:-0.714286 93:-0.465517 94:-0.428479 96:-0.360631 105:-0.25 106:-0.4 109:-0.341564 111:0.433118 119:0.136364 121:0.232053 122:-0.416666 125:-0.791666 130:-0.542858 146:-1 147:-1 184:-1 
-8 12:-0.714286 37:0.548596 45:-0.428571 93:-1 94:-0.768734 96:0.293606 105:-0.75 106:-0.6 109:-0.569892 111:0.458743 119:0.649561 121:0.621609 122:-0.944445 125:-0.888889 130:0.0742866 146:-1 147:-1 184:-1 
-8 12:-0.714286 37:0.492441 45:-0.428571 93:-0.791012 94:-0.664793 96:-0.499999 105:-0.5 106:-0.6 109:-0.326599 111:0.532075 119:0.611568 121:0.654866 122:-0.73077 125:-0.961538 130:-0.542858 146:-1 147:-1 184:-1 
-8 12:-0.714286 37:0.667387 45:-0.428571 93:-0.906061 94:-1 96:-0.662879 105:-0.5 106:-0.6 109:-0.569892 111:0.418903 119:0.385632 121:0.324862 122:-0.746032 125:-0.650794 130:-0.234287 146:-0.499999 147:-0.618183 184:-1 
-8 12:-0.714286 37:0.812095 45:-0.714286 93:-1 94:-0.880187 96:-0.597891 105:-0.75 106:-0.6 109:0.538462 111:0.726475 119:0.652097 121:0.765994 122:-0.7 125:-0.666666 130:-0.542858 146:-1 147:-0.580001 184:-1 
-5.268429667275417 12:-0.714286 37:0.896328 45:-0.714286 93:-0.557144 94:-0.147618 96:0.0595255 105:-0.5 106:-0.6 109:-0.583333 111:0.677978 119:-0.232955 121:0.171041 122:-0.363158 125:-0.931579 130:-0.62 146:-1 147:-0.328002 184:-0.142857 
-8 12:-0.714286 37:0.812095 45:-0.714286 93:-0.671765 94:-0.415032 96:-0.47647 105:-0.25 106:-0.8 109:-0.233716 111:0.561343 119:0.481191 121:0.613975 122:-0.644444 125:-0.066666 130:-0.35 146:-1 147:-1 184:-1 
-8 12:-0.714286 37:0.833693 45:-0.714286 93:-0.901064 94:-0.576831 96:-0.171541 105:-0.5 106:-0.6 109:-0.492063 111:0.532907 119:0.694806 121:0.817825 122:-0.75 125:-0.75 130:-0.542858 146:-0.52174 147:-1 184:-1 
-8 12:-0.142857 37:0.697624 45:-0.142857 93:-0.712372 94:-0.89748 96:-0.426545 105:-0.5 106:-0.4 109:-0.0849689 111:0.421029 119:0.383688 121:0.427379 122:-0.944056 125:-0.832168 130:-0.35 146:-1 147:-1 184:-0.714286 
-8 12:-0.714286 37:0.598272 45:-0.714286 93:-0.896667 94:-0.779012 96:-0.629166 105:-0.5 106:-0.6 109:-0.215686 111:0.38284 119:0.50401 121:0.461737 122:-0.916667 125:-0.833333 130:-0.542858 146:-1 147:-0.626668 184:-1 
-8 12:-0.714286 37:0.896328 45:-0.714286 93:-0.6 94:0.069298 96:-0.162633 105:-0.25 106:-0.4 109:0.111111 111:0.440509 119:0.0866475 121:0.275993 122:-0.947712 125:-0.973856 130:-0.08 146:-1 147:-0.580001 184:-0.714286 
-8 12:-0.714286 37:0.403888 45:-0.428571 93:-0.802128 94:-1 96:-0.408244 105:-0.5 106:-0.6 109:-0.166667 111:0.360259 119:0.47017 121:0.463077 122:-0.866667 125:-0.666666 130:0.0742866 146:-1 147:-0.269567 184:-1 
-0.2803558170875391 12:-0.428571 37:0.598272 45:-0.428571 93:-0.797827 94:-0.891908 96:-0.39538 105:-0.5 106:-0.6 109:-0.326599 111:0.527545 119:0.363635 121:0.694688 122:-0.742858 125:-0.571428 130:0.280001 146:-0.476191 147:-1 184:-1 
-8 12:-0.428571 37:0.485961 45:-0.428571 93:-0.400001 94:-0.89307 96:-0.521504 105:-0.25 106:-0.6 109:-0.555556 111:0.497848 119:0.431818 121:0.532742 122:-0.855769 125:-0.932692 130:-0.440001 146:-1 147:-1 184:-1 
-8 12:-0.428571 37:0.442765 45:-0.428571 93:-0.804211 94:-0.371929 96:-0.297367 105:-0.5 106:-0.2 109:-0.0572356 111:0.325626 119:0.239668 121:0.43805 122:-0.948718 125:-0.564102 130:0.0400009 146:-0.499999 147:-0.618183 184:-1 
-8 12:-0.428571 37:0.62203 45:-0.428571 93:-0.577274 94:-0.660984 96:-0.494318 106:-0.4 109:-0.426524 111:0.518725 119:0.385632 121:0.748785 122:-0.675214 125:-0.452992 130:-0.200001 146:-1 147:-1 184:-1 
-8 12:-0.428571 37:0.740821 45:-0.428571 93:-0.819417 94:-1 96:-0.56796 105:-0.5 106:-0.2 109:-0.532164 111:0.498186 119:0.561005 121:0.713086 122:-0.428572 125:-0.825397 130:-0.35 146:-1 147:-0.634784 184:-0.714286 
-3.18734302409582 12:-0.714286 37:0.524838 45:-0.428571 93:-0.895505 94:-0.441322 96:-0.499999 105:-0.5 106:-0.6 109:0.307191 111:0.443506 119:0.323527 121:0.539042 122:-0.8 125:-1 130:-0.440001 146:-1 147:-0.626668 184:-0.142857 
-6.724227883043547 12:-0.428571 37:0.559395 45:-0.428571 93:-0.902106 94:-0.895322 96:-0.414473 105:-0.5 106:-0.6 109:-0.305556 111:0.584311 119:0.598011 121:0.736861 122:-0.619048 125:-0.714286 130:-0.374546 146:0.0232551 147:-0.218608 184:-0.714286 
-8 12:-0.714286 37:0.913607 45:-0.714286 93:-0.819417 94:-0.517259 96:-0.351941 105:-0.5 106:-0.6 109:-0.569892 111:0.712022 119:0.0557202 121:0.758206 122:-0.826625 125:-0.405572 130:-0.374546 146:-0.55102 147:-0.314288 184:-1 
-8 12:-0.142857 37:0.706263 45:-0.142857 93:-0.6 94:-0.144563 96:-0.282257 105:-0.25 106:-0.4 109:-0.0572356 111:0.440509 119:0.177687 121:0.460174 122:-0.5 125:-0.666666 130:-0.542858 146:-1 147:-0.618183 184:-1 
-8 12:-0.142857 37:0.492441 45:-0.142857 93:-0.795605 94:-0.672161 96:-0.388735 105:-0.5 106:-0.4 109:-0.326599 111:0.397391 119:0.42562 121:0.446901 122:-0.707692 125:-0.969231 130:0.0742866 146:-1 147:-1 184:-1 
-8 12:-0.428571 37:0.544276 45:-0.428571 93:-0.128126 94:-0.896412 96:-0.1888 105:-0.25 106:-0.4 109:-0.111111 111:0.330353 119:0.0909102 121:-0.104872 122:-0.904762 125:-0.97619 130:-0.440001 146:-1 147:-0.590246 184:-1 
-2.014308828665596 12:-0.714286 37:0.688985 45:-0.428571 93:-0.907921 94:-1 96:-0.559405 105:-0.5 106:-0.6 109:-0.477124 111:0.504091 119:0.624332 121:0.788131 122:-0.989744 125:-0.917949 130:0.352 146:-1 147:-1 184:-1 
-8 12:-0.714286 37:0.535637 45:-0.428571 93:-0.797827 94:-0.891908 96:-0.758152 105:-0.5 106:-0.6 109:-0.693486 111:0.487225 119:0.340124 121:0.543483 122:-0.952381 125:-0.785714 130:0.0400009 146:-0.476191 147:-0.200003 184:-1 
-8 12:-0.714286 37:0.617711 45:-0.428571 93:-0.693407 94:-1 96:-0.877747 105:-0.5 106:-0.6 109:-0.555556 111:0.552802 119:0.227272 121:0.274775 122:-0.719298 125:-0.4269 130:-0.542858 146:-1 147:-1 184:-0.714286 
-1.878693400961225 12:-0.428571 37:0.831533 45:-0.428571 93:-0.436364 94:-0.598204 96:-0.43813 105:-0.25 106:-0.4 109:-0.73064 111:0.402512 119:0.115701 121:-0.115049 122:-0.958333 125:-0.766666 130:-0.542858 146:-1 147:-0.285109 184:0.714286 
-8 12:-0.428571 37:0.529158 45:-0.428571 93:-0.200001 94:-0.89307 96:-0.401881 106:-0.6 109:-0.288889 111:0.562664 119:0.145454 121:0.127785 122:-0.433334 125:-0.5 130:-0.440001 146:-1 147:-0.533334 184:-1 
-6.408280289079148 12:-0.714286 37:0.809935 45:-0.714286 93:-1 94:-0.797051 96:-0.318876 105:-0.75 106:-0.4 109:-0.326599 111:0.401031 119:0.177687 121:0.340705 122:-0.835897 125:-0.753846 130:-0.680001 146:-1 147:-1 184:-1 
-0.5916864909184687 12:-0.428571 37:0.656587 45:-0.428571 93:-0.786207 94:0.143046 96:-0.232758 105:-0.5 106:-0.4 109:0.212124 111:0.318527 119:0.42562 121:0.460174 122:-0.777778 125:-1 130:-0.440001 146:-1 147:-0.590246 184:-1 
-4.072374378482563 12:-0.714286 37:0.902808 45:-0.714286 93:-1 94:0.00562359 96:0.125006 105:-0.75 106:-0.6 109:-0.139785 111:0.506025 119:0.451614 121:0.635738 122:-0.95 125:-0.916667 130:-0.35 146:-1 147:-1 184:-1 
-4.153403060069423 12:-0.428571 37:0.805616 45:-0.428571 93:-0.690001 94:-1 96:-0.381943 105:-0.25 106:-0.6 109:-0.365079 111:0.568314 119:0.694806 121:0.767761 122:-0.833333 125:-0.833333 130:-0.234287 146:-1 147:-1 184:-0.142857 
-8 12:-0.428571 37:0.552916 45:-0.428571 93:-0.821154 94:-0.90438 96:-0.465144 105:-0.5 106:-0.4 109:-0.492063 111:0.47414 119:0.344154 121:0.417318 122:-0.866667 125:-1 130:-0.234287 146:-1 147:-0.657143 184:-0.714286 
-8 12:-0.142857 37:0.580994 45:-0.142857 93:-0.897802 94:-0.235041 96:-0.388735 105:-0.5 106:-0.4 109:0.07744 111:0.351532 119:0.363635 121:0.442477 122:-0.277778 125:-0.944445 130:-0.234287 146:-1 147:-1 184:-1 
-3.010403135140664 12:-0.714286 37:0.853132 45:-0.714286 93:-0.890588 94:-0.766013 96:0.570585 105:-0.5 106:-0.6 109:0.185182 111:0.444058 119:0.704546 121:0.620353 122:-0.5 125:-0.833333 130:-0.08 146:-1 147:-1 184:-1 
-8 12:-0.714286 37:0.87473 45:-0.714286 93:-0.802128 94:-0.894208 96:-0.526595 105:-0.5 106:-0.6 109:-0.569892 111:0.555104 119:0.517596 121:0.565085 122:-0.825 125:-0.775 130:-0.542858 146:-1 147:-1 184:-1 
-7.852981163410723 12:-0.714286 37:0.617711 45:-0.428571 93:-0.302501 94:0.118752 96:-0.443749 105:-0.25 106:-0.6 109:-0.25926 111:0.481051 119:-0.0624988 121:0.288162 122:-0.428572 125:-0.142858 130:-0.35 146:-1 147:0.362158 184:-1 
