svm_type c_svc
kernel_type rbf
gamma 0.25
nr_class 2
total_sv 496
rho 0.325233
label 1 -1
nr_sv 374 122
SV
16.14864 12:-0.428571 37:0.548596 45:-0.428571 93:-0.682955 94:-0.773989 96:-0.115055 105:-0.5 106:-0.6 109:-0.555556 111:0.294786 119:0.363635 121:0.226105 122:-0.9 125:-0.9 130:-0.296 146:-1 147:-1 184:-1 
16.14864 12:-0.428571 37:0.62203 45:-0.428571 93:-0.592106 94:-0.912768 96:-0.316885 105:-0.5 106:-0.6 109:-0.492063 111:0.443986 119:-0.00649432 121:0.104422 122:-0.592678 125:-0.858124 130:-0.296 146:-1 147:-0.68302 184:-1 
15.09616 12:-0.142857 37:0.732181 45:-0.142857 93:-0.703192 94:-0.682624 96:-0.171541 105:-0.25 106:-0.4 109:-0.346405 111:0.308465 119:0.323527 121:0.397316 122:-0.44056 125:-0.93007 130:-0.200001 146:-1 147:-1 184:-1 
8.950902005394935 12:-0.714286 37:0.909287 45:-0.714286 93:-0.6125 94:-0.585647 96:-0.0729156 105:-0.25 106:-0.6 109:-0.59596 111:0.274809 119:0.301653 121:0.300883 122:-0.467532 125:-0.948052 130:-0.35 146:-1 147:-1 184:-1 
15.09616 12:-0.428571 37:0.660907 45:-0.428571 93:-0.655556 94:-0.508916 96:-0.31327 105:-0.25 106:-0.4 109:-0.407407 111:0.224272 119:0.227272 121:0.133625 122:-0.954545 125:-0.727272 130:-0.08 146:-1 147:-0.160003 184:-1 
6.402168645661062 12:0.142857 37:0.758099 45:0.142857 93:-0.652337 94:-0.442366 96:-0.480139 105:-0.5 106:-0.2 109:0.142853 111:0.666877 119:0.461039 121:0.759418 122:-0.444444 125:-0.8 130:-0.62 146:-1 147:-0.676924 184:-1 
15.09616 12:-0.428571 37:0.557235 45:-0.428571 93:-0.660585 94:-0.201539 96:-0.10675 105:-0.25 106:-0.4 109:-0.0697689 111:0.359862 119:0.14165 121:0.0921972 122:-0.5 125:-0.5 130:-0.680001 146:-0.614034 147:-1 184:-0.714286 
15.09616 12:-0.714286 37:0.529158 45:-0.428571 93:-0.403846 94:0.0199436 96:-0.572115 105:-0.25 106:-0.6 109:-0.444444 111:0.535817 119:0.107953 121:0.476768 122:-0.515152 125:-0.878788 130:0.382858 146:-1 147:-1 184:-1 
15.09616 12:-0.428571 37:0.784017 45:-0.142857 93:-0.755263 94:-0.56384 96:-0.219297 105:-0.25 106:-0.4 109:-0.222222 111:0.256885 119:0.329545 121:0.217586 122:-0.87395 125:-0.991597 130:-0.680001 146:-1 147:-0.366041 184:-1 
15.09616 12:-0.142857 37:0.537797 45:-0.142857 93:-0.847542 94:-0.266392 96:0.27664 105:-0.5 106:-0.2 109:0.300809 111:0.35577 119:0.247228 121:0.25685 122:-0.832727 125:-0.745454 130:-0.62 146:-1 147:-1 184:-1 
9.171606937505521 12:-0.428571 37:0.784017 45:-0.428571 93:-0.130842 94:0.0223303 96:-0.688083 105:-0.5 106:-0.6 109:-0.305556 111:0.404701 119:-0.0411934 121:0.0752183 122:-0.628572 125:-0.771428 130:-0.296 146:-0.576922 147:-0.353849 184:-1 
15.09616 12:-0.714286 37:0.907127 45:-0.714286 93:-0.76356 94:-0.494349 96:-0.528601 105:-0.25 106:-0.4 109:-0.649123 111:0.575211 119:0.23804 121:0.401837 122:-0.222222 125:-0.962963 130:-0.512 146:-1 147:-0.657143 184:-0.714286 
15.09616 12:-0.714286 37:0.473002 45:-0.428571 93:-0.638835 94:-0.517259 96:-0.135921 105:-0.5 106:-0.6 109:-0.629629 111:0.378887 119:0.193183 121:0.379423 122:-0.884615 125:-0.865385 130:-0.440001 146:-1 147:-0.650002 184:-1 
15.09616 12:-0.428571 37:0.853132 45:-0.428571 93:-0.695082 94:-0.673952 96:-0.27049 105:-0.25 106:-0.6 109:-0.457995 111:0.46599 119:-0.0521079 121:0.424236 122:-0.69855 125:-0.994203 130:-0.57091 146:-1 147:-0.733334 184:-1 
15.09616 12:-0.714286 37:0.455724 45:-0.428571 93:-0.616495 94:-0.384878 96:-0.197164 105:-0.5 106:-0.6 109:-0.492063 111:0.375616 119:0.227272 121:0.446522 122:-0.416666 125:-0.916667 130:-0.08 146:-1 147:-0.200003 184:-0.714286 
8.308258421451576 12:-0.714286 37:0.615551 45:-0.428571 93:-0.867143 94:-0.857936 96:-0.682143 105:-0.5 106:-0.6 109:-0.316239 111:0.352295 119:0.337412 121:0.541352 122:-0.642858 125:-0.571428 130:0.0742866 146:-0.333334 147:-1 184:-1 
1.728704756185371 12:-0.714286 37:0.833693 45:-0.714286 93:-0.50532 94:-0.259455 96:-0.171541 105:-0.5 106:-0.4 109:-0.25926 111:0.434251 119:0.0909102 121:0.133625 122:-0.79085 125:-0.921569 130:-0.440001 146:-1 147:-1 184:-0.714286 
15.09616 12:-0.428571 37:0.693305 45:-0.428571 93:-0.535001 94:-0.801111 96:-0.7775 105:-0.5 106:-0.2 109:-0.607844 111:0.556979 119:0.20321 121:0.586281 122:-0.6 125:-0.733334 130:-0.512 146:-0.541667 147:-0.650002 184:-1 
8.832342767267217 12:-0.428571 37:0.768898 45:-0.428571 93:-0.845 94:-0.751388 96:-0.629166 105:-0.5 106:-0.4 109:-0.241192 111:0.52259 119:0.247228 121:0.474096 122:-0.175 125:-0.85 130:-0.512 146:-0.633333 147:0.119997 184:-0.714286 
0.08429585014068824 12:-0.142857 37:0.509719 45:-0.142857 93:-0.488074 94:-0.361365 96:-0.489678 105:-0.5 106:-0.4 109:0.25 111:0.48815 119:0.022727 121:0.180167 122:-0.839599 125:-0.403508 130:-0.234287 146:-1 147:-1 184:-1 
15.09616 12:-0.714286 37:0.334773 45:-0.428571 93:-0.577274 94:-0.434974 96:-0.115055 106:-0.6 109:-0.111111 111:0.397534 119:0.295456 121:0.347784 122:-0.472222 125:-0.486112 130:-0.08 146:-1 147:-0.557896 184:-1 
9.409779456296922 12:-0.714286 37:0.477322 45:-0.428571 93:-0.572414 94:-0.771392 96:-0.104883 105:-0.5 106:-0.6 109:-0.365079 111:0.481083 119:0.16883 121:0.335966 122:-0.790476 125:-0.971429 130:-0.200001 146:0.0476179 147:-0.600002 184:-1 
3.324676088612877 12:-0.428571 37:0.367171 45:-0.428571 93:-0.817648 94:-0.902505 96:-0.563725 105:-0.25 106:-0.6 109:0.0158756 111:0.438603 119:0.577921 121:0.534132 122:-0.528206 125:-0.815385 130:0.382858 146:-0.531915 147:-0.285109 184:-1 
15.09616 12:-0.714286 37:0.935205 45:-0.714286 93:-0.693407 94:-0.453601 96:-0.388735 105:-0.5 106:-0.6 109:-0.48718 111:0.565539 119:0.022727 121:0.170691 122:-0.957265 125:-0.837607 130:-0.35 146:-1 147:-1 184:-0.714286 
2.479768765683414 12:-0.714286 37:0.587473 45:-0.714286 93:-0.85 94:-0.839606 96:-0.282257 105:-0.5 106:-0.8 109:-1 111:0.727196 119:0.250002 121:0.0995536 122:-0.885714 125:-0.828571 130:-0.62 146:-1 147:-0.37778 184:-1 
15.09616 12:-0.428571 37:0.7473 45:-0.428571 93:-0.788636 94:-0.773989 96:-0.620738 105:-0.5 106:-0.6 109:-0.346405 111:0.207846 119:0.323527 121:0.315719 122:-0.555556 125:-1 130:-0.234287 146:-1 147:-0.600002 184:-1 
15.09616 12:-0.714286 37:0.799136 45:-0.714286 93:-0.628 94:-0.701666 96:-0.221249 105:-0.25 106:-0.6 109:-0.191919 111:0.429466 119:0.115701 121:0.300883 122:-0.515152 125:-0.878788 130:-0.200001 146:-0.56 147:-0.664001 184:-0.714286 
6.408581762802792 12:-0.428571 37:0.857451 45:-0.428571 93:-0.652337 94:-0.721183 96:0.0397208 105:-0.5 106:-0.4 109:-0.519519 111:0.279028 119:0.160934 121:0.201503 122:-0.571428 125:-0.839286 130:-0.440001 146:-1 147:-1 184:-1 
14.26135091505289 12:-0.142857 37:0.637149 45:-0.142857 93:-0.870833 94:-0.585647 96:-0.0729156 105:-0.5 106:-0.4 109:-0.670782 111:0.418903 119:0.287879 121:0.448376 122:-0.866667 125:-0.933333 130:-0.296 146:-1 147:-1 184:-1 
5.424593537530734 12:-0.714286 37:0.87473 45:-0.428571 93:-0.624243 94:-0.799102 96:-0.550505 105:-0.5 106:-0.6 109:-0.238095 111:0.313522 119:0.461039 121:0.346394 122:-0.533334 125:-0.8 130:0.136 146:-1 147:-1 184:-1 
8.765906512498354 12:-0.428571 37:0.516199 45:-0.428571 93:-0.764557 94:-0.748241 96:-0.436708 105:-0.5 106:-0.6 109:-0.48718 111:0.588793 119:0.573425 121:0.614361 122:-0.933333 125:-0.511112 130:0.568 146:-1 147:-1 184:-1 
15.09616 12:-0.142857 37:0.863931 45:-0.142857 93:-0.471591 94:-1 96:0.137789 105:-0.25 106:-0.4 109:-0.365079 111:0.373824 119:0.0957784 121:0.0439295 122:-0.555556 125:-0.722222 130:-0.08 146:-1 147:-0.626668 184:-1 
15.09616 12:-0.428571 37:0.557235 45:-0.428571 93:-0.500001 94:-0.89307 96:-0.521504 105:-0.25 106:-0.6 109:-0.0804622 111:0.445496 119:0.128526 121:0.296763 122:-0.591666 125:-0.841667 130:-0.08 146:-0.488372 147:-0.609304 184:-1 
9.553808597201535 12:-0.142857 37:0.704104 45:-0.142857 93:-0.795605 94:-0.672161 96:-0.144229 105:-0.25 106:-0.4 109:0.07744 111:0.455989 119:0.301653 121:0.415928 122:-0.533334 125:-0.866667 130:-0.35 146:-0.476191 147:-1 184:-0.428571 
15.09616 12:-0.142857 37:0.896328 45:-0.142857 93:-0.418751 94:-1 96:-0.443749 105:-0.25 106:-0.4 109:-0.365079 111:0.498439 119:0.0957784 121:0.268169 122:-0.982906 125:-0.760684 130:-0.440001 146:-1 147:-0.533334 184:-0.714286 
5.948867181174479 12:-0.714286 37:0.490281 45:-0.714286 93:-0.894319 94:-1 96:-0.115055 105:-0.5 106:-0.6 109:-0.426524 111:0.463398 119:0.451614 121:0.428488 122:-0.571428 125:-0.685714 130:-0.234287 146:-1 147:-1 184:-1 
15.09616 12:-0.428571 37:0.414687 45:-0.428571 93:-0.667857 94:-0.526455 96:-0.470238 105:-0.5 106:-0.6 109:-0.25926 111:0.608427 119:-0.147729 121:0.257741 122:-0.727272 125:-1 130:-0.35 146:-1 147:-1 184:-1 
3.181463960673356 12:-0.714286 37:0.827214 45:-0.714286 93:-0.788636 94:-1 96:-0.747158 105:-0.5 106:-0.4 109:-0.532164 111:0.677679 119:0.184212 121:0.459476 122:-0.688276 125:-0.332414 130:-0.680001 146:-1 147:-1 184:-1 
15.09616 12:-0.428571 37:0.861771 45:-0.428571 93:-0.572414 94:-1 96:-0.360631 105:-0.5 106:-0.4 109:-0.555556 111:0.305203 119:0.227272 121:0.216368 122:-0.733334 125:-0.3 130:-0.296 146:-1 147:-0.618183 184:-1 
15.09616 12:-0.428571 37:0.436285 45:-0.428571 93:-0.628 94:-1 96:-0.332499 105:-0.5 106:-0.6 109:-0.0572356 111:0.441058 119:0.239668 121:0.212388 122:-0.542858 125:-0.622858 130:-0.542858 146:-1 147:-1 184:-1 
15.09616 12:-0.428571 37:0.537797 45:-0.142857 93:-0.852381 94:-0.684303 96:-0.293649 105:-0.5 106:-0.4 109:-0.349594 111:0.341623 119:0.0476734 121:0.12864 122:-0.938375 125:-0.69748 130:-0.374546 146:-1 147:-0.115792 184:-0.714286 
15.09616 12:-0.714286 37:0.473002 45:-0.142857 93:-0.786207 94:-1 96:0.150861 105:-0.5 106:-0.4 109:-0.206349 111:0.363831 119:0.16883 121:0.184732 122:-0.833333 125:-0.833333 130:-0.08 146:-1 147:-0.569233 184:-1 
15.09616 12:-0.142857 37:0.75378 45:-0.142857 93:-0.354168 94:-1 96:-0.536457 105:-0.25 106:-0.4 109:0.111111 111:0.451104 119:0.278409 121:0.288162 122:-0.824176 125:-0.758242 130:-0.728 146:-1 147:-1 184:-1 
7.145585794783726 12:-0.714286 37:0.645788 45:-0.714286 93:-0.758442 94:-1 96:-0.277596 105:-0.5 106:-0.6 109:-0.233716 111:0.409203 119:0.551722 121:0.563622 122:-0.535714 125:-0.928571 130:0.382858 146:-0.388888 147:-1 184:-0.714286 
3.852244571704992 12:-0.714286 37:0.74514 45:-0.428571 93:-0.7024 94:-0.840889 96:-0.554999 105:-0.25 106:-0.6 109:-0.338061 111:0.497628 119:0.566732 121:0.584728 122:-0.60577 125:-0.826923 130:-0.440001 146:-1 147:-0.715254 184:-0.428571 
15.09616 12:-0.714286 37:0.507559 45:-0.428571 93:-0.26854 94:-0.888264 96:1.1125e-06 105:-0.25 106:-0.6 109:-0.283154 111:0.383591 119:0.253667 121:0.447328 122:-0.8 125:-0.942857 130:-0.08 146:-1 147:-0.580001 184:-1 
12.29769899656242 12:0.142857 37:0.781857 45:0.142857 93:-1 94:-0.865616 96:-0.0979714 105:-0.75 106:-0.2 109:-0.227053 111:0.416119 119:0.0671952 121:0.33551 122:-0.919192 125:-0.79798 130:0.0742866 146:-1 147:-1 184:-1 
15.09616 12:-0.428571 37:0.606911 45:-0.142857 93:-0.738029 94:-0.719875 96:-0.373239 105:-0.5 106:-0.4 109:-0.444444 111:0.302801 119:0.278409 121:0.10564 122:-0.944444 125:-0.805556 130:-0.296 146:-1 147:-0.475002 184:-1 
15.09616 12:-0.142857 37:0.75162 45:-0.142857 93:-0.256001 94:-0.900555 96:-0.554999 105:-0.25 106:-0.4 109:-0.0277778 111:0.366869 119:0.278409 121:0.193858 122:-0.497326 125:-0.572192 130:-0.542858 146:-0.476191 147:-0.600002 184:-1 
15.09616 12:-0.428571 37:0.643629 45:-0.142857 93:-0.351164 94:-0.537467 96:-0.223836 105:-0.5 106:-0.2 109:-0.111111 111:0.340126 119:0.159089 121:0.114155 122:-0.466666 125:-0.733334 130:-0.296 146:-1 147:-1 184:-1 
15.09616 12:-0.714286 37:0.758099 45:-0.142857 93:-0.7675 94:-1 96:-0.304686 105:-0.5 106:-0.4 109:-0.386973 111:0.23182 119:0.41066 121:0.206132 122:-0.866667 125:-0.633334 130:-0.08 146:-0.45 147:-0.580001 184:-1 
1.693529822085124 12:-0.428571 37:0.7473 45:-0.428571 93:-0.690001 94:-0.668518 96:-0.505555 105:-0.5 106:-0.6 109:-0.238095 111:0.192215 119:0.344154 121:0.31302 122:-0.555556 125:-0.777778 130:-0.234287 146:-1 147:-0.609304 184:-1 
15.09616 12:-0.714286 37:0.7473 45:-0.428571 93:-0.7 94:-0.89307 96:-0.521504 105:-0.25 106:-0.6 109:-0.0572356 111:0.408102 119:0.301653 121:0.384955 122:-0.828571 125:-0.571428 130:0.19 146:-1 147:-0.600002 184:-0.714286 
15.09616 12:-0.714286 37:0.637149 45:-0.428571 93:-0.661819 94:-0.728788 96:-0.190908 105:-0.25 106:-0.6 109:-0.238095 111:0.374879 119:0.16883 121:0.125282 122:-0.625418 125:-0.953177 130:-0.440001 146:-1 147:-1 184:-1 
15.09616 12:-0.428571 37:0.814255 45:-0.428571 93:-0.615703 94:-0.753443 96:-0.0805774 105:-0.5 106:-0.6 109:-0.666667 111:0.369514 119:-0.130682 121:0.279643 122:-0.939799 125:-0.752508 130:-0.512 146:-0.576922 147:-0.676924 184:-1 
15.09616 12:-0.714286 37:0.565875 45:-0.428571 93:-0.815842 94:-1 96:-0.559405 105:-0.5 106:-0.6 109:-0.753086 111:0.488022 119:0.420453 121:0.525441 122:-0.833333 125:-0.566666 130:-0.440001 146:-1 147:-0.642554 184:-1 
15.03460577137277 12:-0.714286 37:0.615551 45:-0.428571 93:-0.655556 94:-0.907922 96:-0.0729156 105:-0.25 106:-0.4 109:-0.492063 111:0.472572 119:0.344154 121:0.29216 122:-0.826625 125:-0.479876 130:-0.35 146:-0.584906 147:-0.68302 184:-1 
15.09616 12:-0.714286 37:0.557235 45:0.142857 93:-0.729127 94:-0.806903 96:-0.0279116 105:-0.5 106:-0.2 109:-0.426524 111:0.642244 119:0.121702 121:0.376675 122:-0.615384 125:-0.461538 130:-0.234287 146:-1 147:-1 184:-1 
15.09616 12:-0.714286 37:0.706263 45:-0.428571 93:-0.65125 94:-0.875694 96:-0.582812 105:-0.5 106:-0.6 109:-0.0740711 111:0.402804 119:0.022727 121:0.160396 122:-1 125:-1 130:-0.234287 146:-1 147:-1 184:-1 
7.1765728940676 12:-0.714286 37:0.444924 45:-0.714286 93:-0.664866 94:-0.820821 96:-0.498874 105:-0.25 106:-0.6 109:-0.506172 111:0.491312 119:0.477272 121:0.586281 122:-0.833333 125:-0.833333 130:0.136 146:0.245283 147:-1 184:-1 
15.09616 12:-0.714286 37:0.667387 45:-0.428571 93:-0.551807 94:-0.640561 96:-0.0617461 105:-0.5 106:-0.6 109:-0.0476178 111:0.27955 119:0.16883 121:0.210808 122:-0.863248 125:-0.65812 130:0.0742866 146:-1 147:-1 184:-1 
15.09616 12:-0.714286 37:0.887689 45:-0.714286 93:-0.599139 94:-0.828544 96:-0.328663 105:-0.5 106:-0.4 109:-0.75976 111:0.395809 119:0.10565 121:0.0475917 122:-0.739348 125:-0.954887 130:-0.62 146:-1 147:-0.694547 184:-1 
15.09616 12:-0.428571 37:0.822894 45:-0.428571 93:-0.731731 94:-0.90438 96:-0.465144 105:-0.5 106:-0.4 109:-0.506172 111:0.598978 119:0.136364 121:0.59845 122:-0.555556 125:-0.666666 130:-0.512 146:-1 147:-1 184:-0.714286 
14.59128921839217 12:-0.142857 37:0.781857 45:-0.142857 93:-0.59121 94:-1 96:0.100276 105:-0.25 106:-0.4 109:-0.111111 111:0.399939 119:0.227272 121:0.342919 122:-0.948718 125:-0.938462 130:0.0400009 146:-0.476191 147:-1 184:-1 
15.09616 12:-0.714286 37:0.431965 45:-0.428571 93:-0.489011 94:-1 96:-0.0219764 105:-0.25 106:-0.6 109:-0.0849689 111:0.399939 119:0.50401 121:0.401612 122:0.066666 125:-0.866667 130:-0.440001 146:-1 147:-0.569233 184:-1 
15.09616 12:-0.428571 37:0.555076 45:-0.428571 93:-0.411393 94:-0.748241 96:0.549059 105:-0.25 106:-0.4 109:-0.506172 111:0.29532 119:0.136364 121:0.150932 122:-0.742424 125:-0.818182 130:0.0742866 146:-0.405406 147:-0.545948 184:-1 
15.09616 12:-0.428571 37:0.421166 45:-0.142857 93:-0.761539 94:-0.490027 96:-0.286857 105:-0.5 106:-0.4 109:-0.0476178 111:0.399088 119:0.16883 121:0.39333 122:-0.833333 125:-0.583334 130:0.0742866 146:-0.371429 147:-1 184:-1 
15.09616 12:-0.714286 37:0.658747 45:-0.714286 93:-0.577274 94:-0.849327 96:0.0113653 105:-0.25 106:-0.8 109:-0.777778 111:0.487988 119:0.227272 121:0.228537 122:-0.622222 125:-0.622222 130:-0.296 146:-1 147:-1 184:-1 
1.784640993489339 12:-0.428571 37:0.61987 45:-0.428571 93:-0.876 94:-1 96:-0.406666 105:-0.5 106:-0.6 109:-0.822222 111:0.594074 119:0.309091 121:0.583361 122:-0.777778 125:-1 130:-0.440001 146:-1 147:-0.490911 184:-1 
15.09616 12:-0.714286 37:0.758099 45:-0.714286 93:-0.225001 94:-0.48206 96:-0.0729156 105:-0.25 106:-0.6 109:-0.206349 111:0.417294 119:0.022727 121:0.0960784 122:-0.428572 125:-0.920635 130:-0.35 146:-1 147:-1 184:-1 
14.8330812622811 12:-0.714286 37:0.576674 45:-0.142857 93:-0.896667 94:-0.779012 96:-0.752778 105:-0.5 106:-0.4 109:-0.111111 111:0.315863 119:0.295456 121:0.128757 122:-0.166666 125:-0.424242 130:-0.728 146:-1 147:-1 184:-1 
15.09616 12:-0.714286 37:0.561555 45:-0.428571 93:-0.824529 94:-1 96:-0.790094 105:-0.5 106:-0.6 109:-0.492063 111:0.486464 119:0.227272 121:0.22958 122:-0.925926 125:-0.94709 130:-0.799999 146:-1 147:-0.18049 184:-1 
15.09616 12:-0.142857 37:0.695464 45:-0.142857 93:-0.786207 94:-0.542784 96:-0.232758 105:-0.5 106:-0.4 109:-0.54023 111:0.433118 119:0.269593 121:0.528376 122:-1 125:-1 130:0.0742866 146:-1 147:-1 184:-1 
15.09616 12:-0.714286 37:0.855292 45:-0.714286 93:-0.659756 94:-0.878726 96:-0.457316 105:-0.25 106:-0.6 109:-0.613526 111:0.513778 119:0.24506 121:0.272024 122:-0.791208 125:-0.593406 130:0.280001 146:-1 147:-0.520002 184:-1 
12.60562826083359 12:-0.428571 37:0.805616 45:-0.428571 93:-0.675582 94:-0.768734 96:-0.0944759 105:-0.5 106:-0.4 109:-0.0476178 111:0.38865 119:0.022727 121:-0.00821935 122:-1 125:-0.777778 130:-0.728 146:-1 147:-0.533334 184:-1 
15.09616 12:0.142857 37:0.7473 45:0.142857 93:-0.483333 94:-0.723765 96:-0.278934 105:-0.25 106:-0.2 109:0.176471 111:0.513358 119:0.263371 121:0.526157 122:-0.411764 125:-0.509804 130:-0.35 146:-1 147:-0.328002 184:-1 
15.09616 12:-0.428571 37:0.365011 45:-0.428571 93:-0.791791 94:-0.777362 96:-0.0867529 105:-0.5 106:-0.2 109:-0.191919 111:0.473307 119:0.16219 121:0.390486 122:-0.846491 125:-0.837719 130:-0.296 146:-0.645162 147:-1 184:-1 
15.09616 12:-0.142857 37:0.779698 45:-0.142857 93:-0.14592 94:-1 96:-0.0918348 105:-0.25 106:-0.4 109:-0.73064 111:0.415224 119:0.239668 121:0.261058 122:-0.978947 125:-0.473684 130:-0.680001 146:-1 147:-1 184:-1 
15.09616 12:-0.714286 37:0.591793 45:-0.714286 93:-0.645715 94:-1 96:-0.152379 105:-0.5 106:-0.6 109:-0.59596 111:0.426264 119:0.301653 121:0.141589 122:-0.428572 125:-0.935065 130:-0.35 146:-0.592593 147:-0.68889 184:-1 
15.09616 12:-0.428571 37:0.773218 45:-0.428571 93:-0.734286 94:-0.810582 96:-0.470238 105:-0.5 106:-0.4 109:-0.59596 111:0.384312 119:0.239668 121:0.150438 122:-0.571428 125:-0.809524 130:-0.234287 146:-0.52174 147:-0.634784 184:-1 
15.09616 12:-0.714286 37:0.816415 45:-0.428571 93:-0.741667 94:-0.539608 96:-0.381943 105:-0.5 106:-0.6 109:-0.298245 111:0.163448 119:0.23804 121:0.0982745 122:-0.807692 125:-0.884615 130:-0.08 146:-1 147:-0.328002 184:-1 
15.09616 12:-0.714286 37:0.7473 45:-0.714286 93:-0.912264 94:-0.812369 96:-0.685141 105:-0.5 106:-0.6 109:-0.135803 111:0.296177 119:0.306816 121:0.21718 122:-0.736842 125:-0.884211 130:-0.542858 146:-1 147:-1 184:-1 
10.69546721078496 12:-0.428571 37:0.537797 45:-0.142857 93:-0.827778 94:-1 96:-0.278934 105:-0.5 106:-0.4 109:-0.382716 111:0.384558 119:0.420453 121:0.298302 122:-0.927126 125:-0.967611 130:-0.35 146:-0.185186 147:-0.37778 184:-1 
15.09616 12:-0.428571 37:0.792657 45:-0.428571 93:-0.703192 94:-0.682624 96:-0.171541 105:-0.5 106:-0.6 109:-0.191919 111:0.320797 119:0.115701 121:0.101767 122:-0.975 125:-0.7 130:-0.440001 146:-1 147:-1 184:-1 
13.39734375382871 12:-0.714286 37:0.462203 45:-0.428571 93:-0.521324 94:-0.415032 96:0.14522 105:-0.25 106:-0.6 109:-0.457995 111:0.413033 119:-0.00221932 121:0.0467272 122:-0.725 125:-0.825 130:-0.374546 146:-1 147:-0.0666689 184:-1 
1.105382 12:-0.428571 37:0.25486 45:-0.428571 93:-0.206098 94:-0.151082 96:-0.185975 105:-0.25 106:-0.4 109:-0.426524 111:0.0105106 119:-0.0102661 121:-0.0660892 122:-0.472222 125:-0.833333 130:0.280001 146:-1 147:-1 184:-1 
1.105382 12:-0.142857 37:0.235421 45:-0.142857 93:-0.886586 94:-0.878726 96:-0.457316 105:-0.5 106:-0.4 109:-0.506172 111:-0.119548 119:0.306816 121:-0.0464644 122:-0.2 125:-0.066666 130:-0.08 146:-1 147:-1 184:-0.714286 
1.105382 12:-0.714286 37:0.958963 45:-0.714286 93:-0.122643 94:-0.155659 96:-0.160376 106:-0.6 109:-0.181286 111:0.298366 119:0.130383 121:0.228923 122:-0.766666 125:-0.666666 130:-0.08 146:-1 147:-0.657143 184:-0.714286 
1.105382 12:-0.428571 37:0.328294 45:-0.142857 93:-0.577274 94:-0.54798 96:-0.494318 106:-0.4 109:-0.461279 111:0.131444 119:0.363635 121:0.238937 122:-0.583334 125:-0.944444 130:-0.08 146:-1 147:-1 184:-1 
1.105382 12:-0.142857 37:0.330454 45:-0.142857 93:-0.0802208 94:-0.453601 96:0.100276 106:-0.4 109:-0.283154 111:0.198669 119:0.121702 121:0.0893499 122:-0.8 125:-0.6 130:0.46 146:0.0999999 147:-0.580001 184:-1 
1.105382 12:-0.714286 37:0.719222 45:-0.714286 93:-0.65125 94:-0.751388 96:-0.165624 105:-0.25 106:-0.2 109:-0.206349 111:0.0173662 119:0.0957784 121:-0.164669 122:-0.5 125:-1 130:-0.296 146:-0.371429 147:-1 184:-1 
1.105382 12:-0.714286 37:0.460043 45:0.142857 93:-0.905102 94:-0.391155 96:-0.205356 105:-0.5 106:-0.2 109:-0.73064 111:0.275646 119:0.239668 121:0.15929 122:-0.166666 125:-0.733334 130:-0.234287 146:-1 147:-1 184:-0.714286 
1.105382 12:-0.428571 37:0.356371 45:-0.428571 93:-0.483333 94:-0.337036 96:-0.258332 105:-0.25 109:-0.59596 111:0.156149 119:-0.00826568 121:-0.0796484 122:-0.2 125:-0.5 130:0.0742866 146:-1 147:-1 184:-0.714286 
1.105382 12:-0.428571 37:0.179266 45:-0.428571 93:-0.551807 94:-0.520749 96:-0.0617461 105:-0.5 106:-0.6 109:-0.166667 111:0.0337412 119:0.278409 121:0.120849 122:-0.460318 125:-1 130:0.691429 146:-0.45 147:-0.580001 184:-1 
1.105382 12:-0.142857 37:0.38013 45:-0.142857 93:-0.693407 94:-0.125762 96:0.100276 105:-0.5 106:-0.4 109:-0.0572356 111:0.152808 119:0.177687 121:0.0973429 122:-0.611112 125:-0.777778 130:-0.440001 146:-1 147:-1 184:-1 
1.105382 12:-0.428571 37:0.140389 45:-0.428571 93:-0.715307 94:-0.797051 96:-0.205356 105:-0.5 106:-0.4 109:-0.25926 111:0.24016 119:0.136364 121:0.233405 122:-0.285714 125:-0.828571 130:0.52 146:-1 147:-1 184:-1 
1.105382 12:-0.428571 37:0.572354 45:-0.428571 93:-0.788636 94:0.0170498 96:-0.367897 105:-0.5 106:-0.6 109:-0.583333 111:0.115635 119:-0.0411934 121:-0.0342953 122:-0.566666 125:-0.566666 130:-0.542858 146:-1 147:-0.590246 184:-1 
1.105382 12:-0.142857 37:0.343413 45:-0.142857 93:-0.895505 94:-0.553058 96:-0.249999 105:-0.5 106:-0.4 109:0.142853 111:0.0188963 119:0.110391 121:0.0543581 122:-0.771428 125:-0.8 130:0.0742866 146:-1 147:-1 184:-1 
1.105382 12:-0.428571 37:0.0194384 45:-0.428571 93:-0.675582 94:-0.421834 96:-0.482558 105:-0.5 106:-0.6 109:-0.444444 111:0.0840208 119:0.150568 121:0.157353 122:-0.955556 125:-0.888889 130:0.691429 146:-1 147:-0.590246 184:-1 
1.105382 12:-0.428571 37:0.909287 45:-0.428571 93:-0.225001 94:-0.644841 96:-0.470238 105:0.25 106:-0.6 109:-0.713261 111:0.252382 119:0.121702 121:0.258918 122:-0.85 125:-0.9 130:-0.08 146:-1 147:-0.557896 184:-0.714286 
1.105382 12:-0.428571 37:0.0302376 45:-0.142857 93:-0.604256 94:-0.259455 96:-0.289892 105:-0.25 106:-0.4 109:-0.03904 111:0.170345 119:0.160934 121:0.162041 122:-0.876923 125:-0.507692 130:0.0742866 146:-1 147:-0.657143 184:-0.714286 
1.105382 12:-0.428571 37:0.522678 45:-0.428571 93:-0.703192 94:-0.682624 96:-0.0531898 105:-0.25 106:-0.6 109:-0.326599 111:0.190077 119:0.301653 121:0.207963 122:-0.558442 125:-0.87013 130:0.0742866 146:-1 147:-1 184:-1 
1.105382 12:-0.428571 37:0.209503 45:-0.142857 93:-0.328867 94:-0.589919 96:-0.541237 105:-0.25 106:-0.4 109:-0.326599 111:0.339764 119:0.239668 121:0.331857 122:-0.961905 125:-0.961905 130:0.784 146:-1 147:-0.642554 184:-1 
1.105382 12:-0.428571 37:0.218143 45:0.142857 93:-0.775904 94:-0.400936 96:-0.463854 105:-0.5 106:-0.2 109:-0.341564 111:0.287931 119:0.21212 121:0.172563 122:-0.755556 125:-0.711112 130:-0.08 146:-1 147:-1 184:-1 
1.105382 12:-0.428571 37:0.2527 45:-0.428571 93:-0.535001 94:-0.502777 96:-0.165624 105:-0.25 106:-0.6 109:-0.426524 111:-0.0232063 119:0.187685 121:0.098768 122:-0.866667 125:-0.133334 130:0.136 146:-1 147:-0.520002 184:-1 
1.105382 12:-0.428571 37:0.49892 45:0.428571 93:-0.891861 94:-0.537467 96:-0.482558 105:-0.5 109:-0.0572356 111:0.135242 119:0.115701 121:0.00884723 122:-0.833333 125:-0.5 130:0.280001 146:-1 147:-1 184:0.142857 
1.105382 12:-0.142857 37:0.697624 45:-0.142857 93:-0.781177 94:0.403919 96:-0.607353 105:-0.5 106:-0.4 109:-0.346405 111:-0.0823609 119:-0.0374339 121:-0.19964 122:-0.371428 125:-0.714286 130:-0.440001 146:-1 147:-1 184:-0.428571 
1.105382 12:-0.714286 37:0.846652 45:-0.428571 93:-0.655556 94:-0.877229 96:-0.0385782 105:-0.5 106:-0.6 109:-0.426524 111:0.0668483 119:0.253667 121:0.122321 122:-0.8 125:-0.666666 130:0.568 146:-1 147:-1 184:-0.714286 
1.105382 12:0.142857 37:0.695464 45:0.142857 93:-0.783721 94:-0.884367 96:-0.353197 105:-0.5 106:-0.2 109:-0.569892 111:0.124459 119:0.319649 121:0.1129 122:-0.733334 125:-0.866667 130:0.280001 146:-1 147:-0.580001 184:-1 
1.105382 12:-0.428571 37:0.656587 45:-0.428571 93:-0.557144 94:-0.171295 96:-0.337797 105:-0.5 106:-0.4 109:-0.365079 111:0.0812619 119:-0.196427 121:-0.227246 122:-0.571428 125:-0.75 130:-0.296 146:-1 147:-1 184:-1 
1.105382 12:-0.714286 37:0.447084 45:-0.714286 93:-0.9 94:-1 96:-0.760752 105:-0.5 106:-0.6 109:-0.426524 111:0.285949 119:0.253667 121:0.207105 122:-0.571428 125:-0.460318 130:-0.08 146:-1 147:-1 184:-1 
1.105382 12:-0.142857 37:0.535637 45:-0.142857 93:-0.649057 94:-0.155659 96:-0.475235 105:-0.5 106:-0.4 109:0.0256444 111:0.0971431 119:0.25874 121:0.146355 122:-1 125:-0.712122 130:0.46 146:-1 147:-1 184:-0.714286 
1.105382 12:-0.428571 37:0.265659 45:-0.428571 93:-0.795605 94:-1 96:-0.510989 105:-0.5 106:-0.6 109:-0.477124 111:0.213955 119:0.50401 121:0.375843 122:-0.52381 125:-0.5 130:-0.08 146:-1 147:-0.626668 184:-1 
1.105382 12:-0.428571 37:0.339093 45:-0.428571 93:-0.6 94:-0.78614 96:-0.401881 105:-0.25 106:-0.6 109:0.07744 111:0.236089 119:0.363635 121:0.238937 122:0.166666 125:-0.772728 130:-0.08 146:-1 147:-1 184:-1 
1.105382 12:-0.142857 37:0.0410367 45:-0.142857 93:-0.442001 94:-0.403332 96:-0.554999 105:-0.25 106:-0.4 109:-0.305556 111:0.118797 119:-0.105114 121:-0.171187 122:-0.72028 125:-0.93007 130:-0.234287 146:-0.499999 147:-0.236367 184:-1 
1.105382 12:-0.714286 37:0.237581 45:-0.428571 93:-0.715307 94:-0.289681 96:-0.205356 105:-0.5 106:-0.6 109:-0.382716 111:0.306399 119:0.420453 121:0.497047 122:-0.555556 125:-0.888889 130:0.19 146:-1 147:-1 184:-1 
1.105382 12:-0.142857 37:0.883369 45:-0.142857 93:0.149442 94:-0.329587 96:-0.374999 106:-0.4 109:-0.25926 111:0.61804 119:-0.147729 121:-0.113387 122:-0.865546 125:-0.333334 130:-0.799999 146:-1 147:-0.580001 184:-1 
1.105382 12:-0.714286 37:-0.012959 45:0.142857 93:-0.567443 94:-0.884367 96:-0.353197 105:-0.25 106:-0.2 109:-0.59596 111:-0.0319004 119:0.239668 121:0.0486693 122:-0.84127 125:-0.873016 130:0.568 146:-1 147:-0.18049 184:-1 
1.105382 12:-0.714286 37:0.943844 45:-0.714286 93:-0.50532 94:-0.0478706 96:0.0651615 105:-0.5 106:-0.4 109:-0.326599 111:0.0346917 119:-0.194214 121:-0.0973488 122:-0.876923 125:-0.307692 130:0.382858 146:-1 147:-1 184:-1 
1.105382 12:-0.142857 37:0.406048 45:-0.142857 93:-0.783721 94:-0.768734 96:-0.353197 105:-0.5 106:-0.4 109:0.111111 111:0.264642 119:0.214488 121:0.344438 122:-0.8 125:-0.8 130:-0.200001 146:-1 147:-1 184:-1 
1.105382 12:-0.428571 37:0.812095 45:-0.142857 93:-0.425927 94:-0.386144 96:-0.450617 105:-0.25 106:-0.2 109:0.03704 111:0.201373 119:0.159089 121:0.138494 122:-0.931818 125:-0.772728 130:0.0742866 146:-1 147:-1 184:-1 
1.105382 12:-0.428571 37:0.37149 45:-0.142857 93:-0.675582 94:-0.0749335 96:-0.223836 105:-0.5 106:-0.4 109:-0.386973 111:0.121762 119:-0.0125407 121:-0.101011 122:-0.552448 125:-0.748252 130:-0.08 146:-1 147:-0.138463 184:-1 
1.105382 12:-0.714286 37:0.261339 45:0.142857 93:0.0941159 94:-0.298038 96:-0.345588 105:-0.25 106:-0.2 109:-0.693486 111:0.0731103 119:-0.153603 121:-0.116115 122:-1 125:-0.333334 130:-0.08 146:-1 147:-1 184:-1 
1.105382 12:-0.428571 37:0.140389 45:-0.428571 93:-0.729127 94:-0.806903 96:-0.24393 105:-0.25 106:-0.6 109:-0.544159 111:0.183059 119:0.206294 121:0.232468 122:-0.163636 125:-0.854545 130:-0.62 146:-1 147:-0.657143 184:-0.714286 
1.105382 12:-0.142857 37:0.0561555 45:-0.142857 93:-0.650376 94:-0.850459 96:-0.330826 105:-0.25 106:-0.4 109:-0.308642 111:0.4344 119:0.545455 121:0.493802 122:-0.928571 125:-0.488096 130:-0.296 146:-1 147:-0.710345 184:-1 
1.105382 12:-0.142857 37:0.0475162 45:-0.142857 93:-0.428948 94:-0.302144 96:-0.219297 105:-0.25 106:-0.4 109:0.0840089 111:0.173503 119:0.0476734 121:0.142886 122:-0.69697 125:-0.989899 130:-0.440001 146:-1 147:-0.420691 184:-1 
1.105382 12:-0.714286 37:-0.112311 45:-0.142857 93:-0.495349 94:-0.383289 96:-0.223836 105:-0.25 106:-0.4 109:-0.689923 111:0.134342 119:-0.0010575 121:-0.0538208 122:-0.983957 125:-0.925134 130:0.136 146:-0.627118 147:-0.43051 184:-1 
1.105382 12:0.142857 37:0.561555 45:0.142857 93:-0.458253 94:-0.517259 96:-0.56796 105:-0.25 106:-0.2 109:-0.519519 111:0.300107 119:0.10565 121:0.233075 122:-0.133334 125:-0.833333 130:-0.512 146:-1 147:-0.67059 184:-0.714286 
1.105382 12:-0.428571 37:0.0583153 45:-0.428571 93:-0.718182 94:-0.497754 96:-0.213382 105:-0.25 106:-0.6 109:-0.619048 111:0.203454 119:0.285715 121:0.141969 122:-0.558824 125:-0.294118 130:0.136 146:-1 147:-1 184:-1 
1.105382 12:-0.428571 37:0.669546 45:-0.428571 93:0.00843509 94:-0.281123 96:0.20633 105:-0.25 106:-0.6 109:-0.52381 111:0.346589 119:0.022727 121:0.00220925 122:-0.714286 125:-0.857143 130:-0.542858 146:-1 147:-1 184:-0.428571 
1.105382 12:-0.142857 37:-0.185745 45:-0.142857 93:-0.191305 94:-0.394685 96:-0.129346 106:-0.4 109:-0.191919 111:0.11426 119:0.16219 121:0.174776 122:-0.576924 125:-0.961538 130:0.19 146:-1 147:-0.700002 184:-0.142857 
1.105382 12:-0.428571 37:0.887689 45:-0.428571 93:-0.567443 94:-0.152023 96:-0.0513553 106:0.2 109:-0.153439 111:0.418305 119:-0.0746775 121:0.259478 122:-0.954416 125:-0.789174 130:-0.799999 146:-1 147:-0.752942 184:-0.714286 
1.105382 12:-0.142857 37:-0.12959 45:0.142857 93:-0.243903 94:-0.434055 96:-0.00507968 105:-0.25 106:-0.2 109:-0.666667 111:0.219734 119:-0.0284093 121:0.0350633 122:-0.952381 125:-0.738096 130:0.568 146:-1 147:-0.68302 184:-1 
1.105382 12:-0.428571 37:0.116631 45:-0.428571 93:-1 94:-1 96:-0.498119 105:-0.75 106:-0.6 109:-0.844054 111:-0.0711211 119:0.543062 121:0.313458 122:-0.892857 125:-0.857143 130:-0.440001 146:-0.650794 147:-1 184:-1 
1.105382 12:-0.142857 37:0.302376 45:-0.142857 93:-0.325001 94:-0.358422 96:-0.55141 105:-0.25 106:-0.4 109:-0.130435 111:0.1532 119:0.022727 121:0.103788 122:-0.721926 125:-0.957219 130:-0.296 146:-1 147:-0.458066 184:-0.714286 
1.105382 12:-0.428571 37:0.425486 45:-0.428571 93:0.0333312 94:-0.899551 96:-0.550505 105:-0.25 106:-0.6 109:-0.84127 111:0.475109 119:-0.415585 121:-0.0290795 122:-0.70098 125:-0.568628 130:0.136 146:-0.568628 147:-0.341178 184:-1 
1.105382 12:-0.714286 37:0.0107991 45:-0.142857 93:-0.0840924 94:0.130049 96:-0.157195 105:0.25 106:-0.4 109:-0.338061 111:0.192917 119:0.0009675 121:0.109392 122:-0.975 125:-0.925 130:-0.178183 146:-0.645162 147:-0.729034 184:-1 
1.105382 12:-0.142857 37:0.654428 45:-0.142857 93:-0.858015 94:-0.392705 96:-0.405534 105:-0.5 109:-0.544159 111:0.397272 119:-0.318181 121:0.0714744 122:-0.304348 125:-0.731884 130:-0.374546 146:-1 147:-1 184:-1 
1.105382 12:-0.714286 37:0.758099 45:-0.142857 93:-0.670797 94:-0.647984 96:-0.704645 105:-0.5 109:-0.856631 111:0.666703 119:-0.274195 121:0.353123 122:-0.73913 125:-0.73913 130:-0.62 146:-1 147:-1 184:-1 
1.105382 12:-0.714286 37:0.771058 45:-0.142857 93:-0.44359 94:-0.235041 96:-0.0491437 105:-0.5 106:-0.2 109:-0.57672 111:0.242545 119:0.0714293 121:0.214283 122:-0.833333 125:-0.888889 130:0.352 146:-1 147:-0.715254 184:-0.714286 
1.105382 12:-0.714286 37:0.0302376 45:-0.428571 93:-0.890588 94:-0.766013 96:-0.738235 105:-0.5 106:-0.6 109:0.0457511 111:0.0594734 119:0.383688 121:0.195467 122:-0.892857 125:-0.821429 130:0.382858 146:-1 147:-1 184:-1 
1.105382 12:-0.714286 37:0.812095 45:-0.428571 93:-0.885185 94:-1 96:-0.862654 105:-0.5 106:-0.6 109:-0.713261 111:0.364522 119:-0.0102661 121:0.235368 122:-0.583334 125:-0.5 130:-0.35 146:-1 147:-1 184:-0.142857 
1.105382 12:-0.142857 37:0.341253 45:-0.142857 93:-0.342425 94:0.205388 96:-0.662879 105:-0.5 106:-0.4 109:-0.444444 111:0.194088 119:-0.105114 121:-0.212256 122:-0.438596 125:-0.754386 130:-0.542858 146:-1 147:-1 184:-1 
1.105382 12:0.428571 37:0.300216 45:0.428571 93:-0.540741 94:-0.754457 96:-0.31327 105:-0.25 109:-0.305556 111:0.204236 119:0.40625 121:0.394633 122:-0.5 125:-0.666666 130:0.136 146:-1 147:-1 184:-0.714286 
1.105382 12:-0.428571 37:0.518359 45:-0.428571 93:-0.440602 94:-0.252296 96:-0.247179 105:-0.25 106:-0.6 109:-0.39394 111:0.256595 119:-0.163225 121:-0.186951 122:-0.552942 125:-0.454118 130:-0.374546 146:-1 147:-1 184:-0.428571 
1.105382 12:-0.428571 37:0.12527 45:0.142857 93:-0.313935 94:-0.103369 96:-0.0881135 105:-0.25 106:-0.2 109:-0.111111 111:0.209443 119:-0.0284093 121:-0.0196934 122:-0.666666 125:-0.888889 130:-0.440001 146:-1 147:-0.410529 184:-1 
1.105382 12:-0.428571 37:0.112311 45:-0.142857 93:-0.658716 94:-0.270131 96:-0.489678 105:-0.5 106:-0.4 109:-0.25926 111:0.29034 119:-0.0909102 121:0.136058 122:-0.843137 125:-0.908497 130:0.280001 146:-1 147:-0.676924 184:-1 
1.105382 12:-0.142857 37:0.365011 45:-0.142857 93:0.192305 94:-0.235041 96:-0.239315 105:-0.25 106:-0.4 109:-0.492063 111:0.490241 119:-0.181818 121:0.033498 122:-0.794466 125:-0.72332 130:-0.680001 146:-1 147:-1 184:-1 
1.105382 12:0.142857 37:0.634989 45:0.142857 93:-0.540741 94:0.104939 96:-0.31327 105:-0.5 106:0.2 109:0.111111 111:0.436078 119:-0.147729 121:0.00220925 122:-0.944444 125:-1 130:-0.08 146:-1 147:-1 184:-1 
1.105382 12:-0.428571 37:0.650108 45:-0.142857 93:-0.36591 94:-0.434974 96:-0.241476 105:-0.5 106:-0.4 109:-0.555556 111:0.165692 119:0.022727 121:0.07035 122:-0.955556 125:-0.866667 130:-0.35 146:-1 147:-1 184:-1 
1.105382 12:-0.142857 37:0.345572 45:-0.142857 93:-0.847542 94:-0.59244 96:-0.0881135 105:-0.25 106:-0.4 109:-0.710145 111:0.296859 119:0.422924 121:0.357731 122:-0.7 125:-0.666666 130:-0.512 146:-1 147:-1 184:-0.714286 
1.105382 12:-0.714286 37:0.161987 45:-0.714286 93:-0.755263 94:-0.476607 96:-0.414473 105:-0.25 106:-0.8 109:-0.365079 111:0.230448 119:0.412337 121:0.322059 122:-0.777778 125:-0.555556 130:-0.08 146:-1 147:-0.664001 184:-1 
1.105382 12:-0.714286 37:0.943844 45:-0.714286 93:-0.709375 94:-0.456162 96:-0.391601 105:-0.25 106:-0.6 109:-0.75976 111:0.63827 119:-0.11548 121:0.418559 122:-0.736112 125:-0.458334 130:-0.728 146:-1 147:-0.37778 184:-1 
1.105382 12:-0.428571 37:0.159827 45:-0.428571 93:-0.923141 94:-1 96:-0.356404 105:-0.5 106:-0.6 109:-0.430199 111:0.430827 119:0.363635 121:0.419672 122:-0.6 125:-0.7 130:0.46 146:-1 147:-0.650002 184:-1 
1.105382 12:-0.714286 37:0.75378 45:-0.428571 93:-0.400001 94:-0.572281 96:-0.641128 105:-0.25 106:-0.2 109:-0.135803 111:-0.00323072 119:0.193183 121:0.0873874 122:-0.69697 125:-0.545454 130:-0.234287 146:-1 147:-0.634784 184:-1 
1.105382 12:-0.428571 37:0.228942 45:0.142857 93:-0.583583 94:-0.183664 96:-0.0867529 105:-0.25 106:-0.2 109:-0.25926 111:0.326245 119:-0.0746775 121:0.0126379 122:-0.584034 125:-0.94958 130:0.0400009 146:-1 147:-1 184:-1 
1.105382 12:-0.428571 37:0.652268 45:-0.428571 93:-0.295455 94:-0.171295 96:-0.494318 105:-0.25 106:-0.6 109:-0.209876 111:0.154276 119:0.0454561 121:-0.0318626 122:-0.733334 125:-0.966667 130:-0.234287 146:-1 147:-1 184:-1 
1.105382 12:-0.428571 37:0.855292 45:-0.428571 93:-0.870833 94:0.104939 96:-0.22743 105:-0.5 106:-0.6 109:-1 111:0.634647 119:-0.488636 121:0.265042 122:-0.244444 125:-0.822222 130:-0.440001 146:-0.0833327 147:-1 184:-1 
1.105382 12:-0.714286 37:0.889849 45:-0.428571 93:-0.361765 94:-0.0250531 96:-0.236518 105:-0.25 109:-0.305556 111:0.311317 119:-0.105114 121:-0.0434214 122:-0.871429 125:-0.828571 130:-0.234287 146:-1 147:-1 184:-1 
1.105382 12:-0.714286 37:0.539957 45:0.142857 93:-0.436364 94:-0.472642 96:0.348486 105:0.25 109:-0.132791 111:0.512577 119:0.147451 121:0.406431 122:-0.756522 125:-0.972174 130:-0.62 146:-1 147:-0.483079 184:-1 
1.105382 12:-0.428571 37:0.11879 45:-0.428571 93:-0.732374 94:-0.785372 96:-0.119603 105:-0.25 106:-0.4 109:-0.351852 111:0.230798 119:0.065342 121:0.0873874 122:-0.617392 125:-0.72174 130:-0.178183 146:-1 147:-0.729034 184:-0.714286 
1.105382 12:-0.428571 37:0.239741 45:-0.142857 93:-0.14592 94:-0.898526 96:-0.545918 109:-0.619048 111:-0.0366323 119:-0.123376 121:-0.333632 122:0.111112 125:-0.777778 130:0.0742866 146:-1 147:-0.609304 184:-0.714286 
1.105382 12:-0.428571 37:0.397408 45:-0.142857 93:-0.551807 94:-0.640561 96:-0.597891 105:-0.5 106:-0.4 109:-0.111111 111:0.15106 119:0.227272 121:0.0898201 122:-0.6 125:-1 130:0.280001 146:-1 147:-0.569233 184:-1 
1.105382 12:-0.714286 37:0.863931 45:-0.142857 93:-1 94:-1 96:-0.616378 105:-0.75 106:-0.4 109:-0.139785 111:0.219929 119:0.385632 121:0.254207 122:-0.515152 125:-0.838384 130:0.568 146:-1 147:-1 184:-1 
1.105382 12:-0.142857 37:0.164147 45:-0.142857 93:-0.88375 94:-0.875694 96:-0.304686 105:-0.5 106:-0.4 109:0.03704 111:0.115899 119:0.431818 121:0.313715 122:-1 125:-0.666666 130:1 146:-1 147:-1 184:-1 
1.105382 12:0.428571 37:0.330454 45:0.428571 93:-0.319513 94:-1 96:-0.457316 109:-0.111111 111:0.0896755 119:0.295456 121:0.123892 122:-0.657142 125:-0.885714 130:-0.296 146:-1 147:-0.533334 184:-1 
1.105382 12:-0.714286 37:0.820734 45:-0.714286 93:-0.673685 94:-0.825535 96:-0.219297 105:-0.25 106:-0.6 109:-0.78836 111:0.210111 119:0.266234 121:0.256003 122:-1 125:-1 130:0.136 146:-1 147:-1 184:-1 
1.105382 12:-0.428571 37:0.464363 45:-0.428571 93:-0.655556 94:-1 96:-0.381943 105:-0.5 106:-0.6 109:-0.738562 111:0.251462 119:0.20321 121:-0.062211 122:-1 125:-1 130:1 146:-1 147:-0.115792 184:-1 
1.105382 12:-0.714286 37:0.520518 45:-0.714286 93:-0.667857 94:-1 96:-0.801339 105:-0.5 106:-0.8 109:-0.79798 111:0.406945 119:0.58058 121:0.579643 122:-0.2 125:-0.6 130:1 146:-1 147:-1 184:-1 
1.105382 12:-0.714286 37:0.87689 45:-0.714286 93:-0.906061 94:-0.899551 96:-1 105:-0.5 106:-0.4 109:-1 111:0.592201 119:-0.763986 121:0.114532 122:-0.407408 125:-0.333334 130:-0.08 146:-0.153847 147:-0.676924 184:-1 
1.105382 12:-0.142857 37:0.457883 45:-0.142857 93:-0.709375 94:-0.844618 96:-1 105:-0.5 106:-0.4 109:-0.25926 111:0.163717 119:0.107953 121:0.0508829 122:-0.944444 125:-0.333334 130:-0.08 146:-1 147:-1 184:-1 
1.105382 12:-0.714286 37:0.386609 45:-0.428571 93:0.101314 94:-0.738304 96:-0.707236 106:-0.6 109:-0.506172 111:0.135879 119:-0.0151507 121:-0.0762083 122:-0.828571 125:-0.228572 130:0.280001 146:-1 147:-1 184:-1 
1.105382 12:-0.428571 37:0.215983 45:-0.142857 93:-0.500001 94:-1 96:-0.521504 105:-0.25 106:-0.4 109:0.03704 111:0.258526 119:0.227272 121:0.0654847 122:-0.952381 125:0.04762 130:-0.440001 146:-0.388888 147:-1 184:-1 
1.105382 12:-0.142857 37:0.274298 45:-0.142857 93:-0.682955 94:-1 96:-0.747158 105:-0.5 106:-0.2 109:-0.305556 111:-0.0556109 119:0.150568 121:-0.152935 122:-0.964286 125:-0.857143 130:0.136 146:-0.421052 147:-0.557896 184:-1 
1.105382 12:-0.428571 37:0.177106 45:-0.428571 93:-0.351164 94:-0.537467 96:-0.353197 105:-0.25 106:-0.4 109:-0.407407 111:0.189159 119:0.159089 121:-0.0464644 122:-0.888889 125:-0.666666 130:0.568 146:-1 147:-1 184:-0.142857 
1.105382 12:-0.142857 37:0.302376 45:-0.142857 93:-0.0152985 94:-0.298038 96:-0.607353 105:-0.25 106:-0.4 109:-0.444444 111:0.0103761 119:-0.232955 121:-0.120992 122:-0.622222 125:-0.977778 130:-0.08 146:-1 147:-1 184:-1 
1.105382 12:-0.714286 37:0.667387 45:-0.714286 93:-0.758442 94:-0.870851 96:-0.277596 105:-0.5 106:-0.6 109:-0.283154 111:0.0719766 119:0.451614 121:0.334283 122:-0.466666 125:-0.8 130:0.280001 146:-0.371429 147:-1 184:-1 
1.105382 12:-0.714286 37:0.401728 45:-0.142857 93:-0.551807 94:-0.760374 96:-0.329818 105:-0.25 106:-0.4 109:-0.693486 111:0.385694 119:0.128526 121:0.321939 122:-0.942857 125:-0.885714 130:0.691429 146:-0.371429 147:-1 184:-0.428571 
1.105382 12:-0.142857 37:0.62635 45:-0.142857 93:-0.761539 94:-0.745014 96:-0.429486 105:-0.5 106:-0.4 109:-0.111111 111:-0.0675693 119:0.227272 121:-0.0367279 122:0.2 130:0.136 146:-1 147:-1 184:-1 
1.105382 12:-0.142857 37:0.719222 45:-0.142857 93:-0.898913 94:-0.567632 96:-0.516303 105:-0.5 106:-0.4 109:-0.506172 111:0.436825 119:-0.166666 121:-0.0437601 122:-0.416666 125:-0.333334 130:-0.542858 146:-0.56 147:-0.664001 184:-1 
1.105382 12:0.142857 37:0.727862 45:0.142857 93:-0.704763 94:-0.842152 96:-0.646825 105:-0.25 106:-0.2 109:-1 111:0.704107 119:-0.442147 121:0.446901 122:-0.428572 125:-0.285714 130:-0.728 146:-1 147:0.119997 184:-1 
1.105382 12:-0.714286 37:0.613391 45:-0.714286 93:-0.659756 94:-1 96:-0.728659 105:-0.5 106:-0.6 109:-0.59596 111:0.293245 119:0.42562 121:0.469026 122:-0.75 125:-0.75 130:-0.08 146:-1 147:-1 184:-1 
1.105382 12:-0.142857 37:0.781857 45:-0.142857 93:-0.406384 94:-1 96:-0.526595 105:-0.25 106:-0.2 109:0.00358222 111:0.145682 119:0.0557202 121:-0.0707998 122:-0.737374 125:-0.757576 130:0.280001 146:-1 147:-0.590246 184:-1 
1.105382 12:-0.428571 37:0.365011 45:-0.142857 93:-0.248485 94:-0.698653 96:-0.662879 105:0.25 106:-0.4 109:-0.365079 111:0.334598 119:-0.064937 121:0.0627016 122:-0.777778 125:-0.444444 130:-0.440001 146:-1 147:-1 184:-0.714286 
1.105382 12:-0.714286 37:0.473002 45:-0.428571 93:-0.468572 94:-1 96:-0.0464269 105:-0.25 106:-0.6 109:-0.613526 111:0.448345 119:0.24506 121:0.151402 122:-0.25 125:-0.75 130:-0.296 146:-1 147:-1 184:-0.714286 
1.105382 12:-0.714286 37:0.658747 45:-0.714286 93:-0.764557 94:-1 96:-0.577531 105:-0.5 106:-0.6 109:-0.0804622 111:0.163258 119:0.269593 121:0.14571 122:-1 125:-0.777778 130:-0.08 146:-1 147:-1 184:-1 
1.105382 12:-0.142857 37:0.0539957 45:-0.142857 93:-0.10822 94:-1 96:-0.238012 106:-0.4 109:-0.777778 111:0.284103 119:-0.284091 121:-0.508854 122:-0.938462 125:-0.815385 130:0.280001 146:-1 147:-0.300002 184:-1 
1.105382 12:-0.428571 37:0.781857 45:-0.428571 93:-0.132001 94:-0.0718507 96:-0.258332 105:-0.25 109:0.0666667 111:0.303499 119:-0.263637 121:0.0635368 122:-0.666666 125:-0.916667 130:-0.08 146:-1 147:-1 184:-1 
1.105382 12:-0.428571 37:0.0151188 45:0.142857 93:-0.642308 94:-0.872507 96:-0.286857 105:-0.5 106:-0.2 109:-0.52381 111:-0.0259559 119:-0.0503243 121:-0.138593 122:-1 125:-0.777778 130:1 146:-1 147:-1 184:-1 
1.105382 12:-0.142857 37:-0.0583153 45:-0.142857 93:-0.134884 94:-0.537467 96:-0.223836 105:-0.25 106:-0.4 109:-0.0849689 111:-0.360792 119:-0.217917 121:-0.6377 122:-0.533334 125:-0.866667 130:-0.296 146:-1 147:-1 184:-1 
1.105382 12:-0.428571 37:0.587473 45:0.142857 93:-0.36591 94:-0.660984 96:-0.620738 105:-0.25 106:-0.2 109:-0.0277778 111:-0.168898 119:-0.105114 121:-0.349148 122:-0.818182 125:-0.89899 130:-0.234287 146:-1 147:-1 184:-1 
1.105382 12:-0.714286 37:0.915767 45:-0.714286 93:-0.601429 94:-0.715873 96:-0.205356 105:-0.25 106:-0.4 109:-0.39394 111:0.348984 119:0.208679 121:0.154865 122:-0.785714 125:-0.892857 130:0.568 146:-1 147:-1 184:-1 
1.105382 12:-0.428571 37:0.4946 45:-0.142857 93:-0.154546 94:-0.886995 96:-0.620738 105:-0.25 106:-0.4 109:-0.283154 111:0.202576 119:0.0557202 121:0.155292 122:-0.454546 125:-0.30909 130:-0.35 146:-1 147:-1 184:-1 
1.105382 12:-0.428571 37:0.295896 45:-0.428571 93:-0.682955 94:-1 96:-0.494318 105:-0.5 106:-0.6 109:-0.166667 111:0.257903 119:0.40625 121:0.412885 122:-0.763636 125:-0.70909 130:0.19 146:-1 147:-0.600002 184:-1 
1.105382 12:-0.142857 37:0.177106 45:-0.142857 93:-0.546342 94:-0.878726 96:-0.321645 105:-0.25 106:-0.4 109:-0.461279 111:-0.142167 119:-0.070247 121:-0.221242 122:-0.7 125:-0.9 130:-0.234287 146:-1 147:-1 184:-0.714286 
1.105382 12:-0.428571 37:0.892009 45:-0.428571 93:-0.927907 94:-0.922911 96:-0.396317 105:-0.5 106:-0.6 109:-1 111:0.759779 119:-0.261362 121:0.71202 122:-0.4 125:-0.2 130:-0.512 146:-1 147:-1 184:-1 
1.105382 12:-0.142857 37:0.0669546 45:0.142857 93:-0.070001 94:-0.900555 96:-0.221249 105:-0.25 106:-0.2 109:-0.75976 111:-0.10609 119:-0.226045 121:-0.366781 122:-0.914286 125:-0.771428 130:-0.234287 146:-1 147:-0.664001 184:-1 
1.105382 12:-0.142857 37:0.151188 45:-0.142857 93:-0.327711 94:-0.640561 96:0.0722904 105:-0.25 106:-0.4 109:-0.555556 111:0.0505011 119:0.022727 121:-0.197348 122:-0.854545 125:-0.981818 130:0.136 146:-1 147:-0.580001 184:-1 
1.105382 12:-0.714286 37:0.365011 45:-0.142857 93:-0.535001 94:-1 96:-0.332499 105:-0.25 106:-0.4 109:-0.607844 111:0.227763 119:0.20321 121:0.0623336 122:-0.847059 125:-0.517648 130:-0.440001 146:-1 147:-0.609304 184:-1 
1.105382 12:-0.142857 37:0.103672 45:-0.142857 93:-0.838261 94:-0.913526 96:-0.516303 105:-0.5 106:-0.4 109:-0.399399 111:0.39852 119:0.160934 121:0.268593 122:-0.384616 125:-0.553846 130:-0.08 146:-1 147:-1 184:-1 
1.105382 12:-0.428571 37:0.589633 45:-0.428571 93:-0.314738 94:0.256144 96:-0.297367 105:-0.5 106:-0.4 109:-0.166667 111:0.164556 119:-0.296875 121:-0.207692 122:-0.857143 125:-0.714286 130:-0.542858 146:-1 147:-0.626668 184:-1 
1.105382 12:-0.428571 37:0.114471 45:-0.428571 93:-0.880769 94:-1 96:-0.572115 105:-0.5 106:-0.6 109:-0.139785 111:0.0186297 119:0.385632 121:0.273049 122:-0.5 125:-0.5 130:1 146:-0.35294 147:-1 184:-1 
1.105382 12:-0.428571 37:0.583153 45:-0.428571 93:-0.483333 94:-0.861882 96:-0.536457 105:-0.5 106:-0.6 109:-0.25926 111:0.377044 119:0.278409 121:0.129975 122:-0.666666 125:-1 130:-0.08 146:-1 147:-1 184:-0.714286 
1.105382 12:-0.428571 37:0.0928726 45:-0.428571 93:-0.446429 94:-0.644841 96:-0.205356 105:-0.5 106:-0.6 109:-0.461279 111:0.00397957 119:0.177687 121:0.057518 122:-0.822222 125:-0.644444 130:-0.08 146:-1 147:-1 184:-1 
1.105382 12:-0.714286 37:0.358531 45:-0.142857 93:-0.164046 94:-0.664793 96:-0.249999 105:-0.25 106:-0.4 109:-0.461279 111:0.164776 119:-0.132232 121:-0.0265505 122:-0.722222 125:-0.555556 130:-0.200001 146:-0.463416 147:-1 184:-0.714286 
1.105382 12:-0.714286 37:0.237581 45:0.142857 93:-0.459303 94:-0.6531 96:-0.353197 105:-0.25 106:-0.2 109:-0.722222 111:0.167593 119:0.214488 121:0.294245 122:-0.333334 125:-1 130:0.280001 146:-1 147:-1 184:-1 
1.105382 12:-0.714286 37:0.74946 45:-0.428571 93:-0.703192 94:-0.894208 96:-0.526595 105:-0.5 106:-0.6 109:-0.619048 111:0.370124 119:0.227272 121:0.325534 122:-0.7 125:-0.566666 130:-0.62 146:-0.52174 147:-1 184:-0.714286 
1.105382 12:-0.428571 37:0.401728 45:-0.428571 93:-0.243025 94:-0.537467 96:-0.353197 106:-0.6 109:-0.569892 111:0.208029 119:-0.0762484 121:0.108189 122:-0.711112 125:-0.955556 130:-0.200001 146:-1 147:-1 184:-0.714286 
1.105382 12:-0.428571 37:-0.0777538 45:-0.428571 93:-0.557144 94:-0.621164 96:-0.364284 105:-0.5 106:-0.4 109:-0.444444 111:-0.083789 119:0.176136 121:-0.0781007 122:-0.5 125:-1 130:-0.08 146:-1 147:-0.285109 184:-1 
1.105382 12:-0.428571 37:0.0302376 45:-0.142857 93:-0.307447 94:-0.576831 96:-0.171541 105:-0.5 106:-0.4 109:-0.382716 111:-0.0146351 119:0.193183 121:0.010322 122:-0.954545 125:-0.704546 130:0.0742866 146:-1 147:-0.609304 184:-1 
1.105382 12:-0.714286 37:0.0669546 45:-0.142857 93:-0.557144 94:-0.526455 96:-0.337797 105:-0.25 106:-0.4 109:-0.477124 111:-0.0125809 119:0.20321 121:0.0537449 122:-0.952381 125:-0.285714 130:0.639999 146:-1 147:-1 184:-0.714286 
1.105382 12:-0.428571 37:0.291577 45:-0.142857 93:-0.373035 94:-0.664793 96:-0.374999 105:-0.5 106:-0.4 109:-0.86532 111:0.0918362 119:-0.00826568 121:0.0353962 122:-0.927273 125:-0.763636 130:-0.200001 146:-0.476191 147:-0.600002 184:-1 
1.105382 12:-0.714286 37:0.578834 45:-0.142857 93:-0.400001 94:-0.78614 96:-0.282257 105:-0.25 106:-0.4 109:-0.461279 111:0.163795 119:0.239668 121:0.150441 122:-0.738462 125:-0.938462 130:-0.234287 146:-0.511112 147:-1 184:-1 
1.105382 12:-0.142857 37:0.24838 45:-0.142857 93:-0.586668 94:-0.44753 96:-0.629166 105:-0.5 106:-0.4 109:-0.139785 111:0.153574 119:0.187685 121:-0.0142762 122:-0.4 125:-0.890909 130:-0.08 146:-1 147:-1 184:-1 
1.105382 12:-0.428571 37:0.758099 45:-0.428571 93:-0.8 94:-0.679211 96:-0.0430093 105:-0.5 106:-0.6 109:-0.346405 111:0.113935 119:0.263371 121:0.173997 122:-0.833333 125:-0.944444 130:0.280001 146:-1 147:-0.590246 184:-1 
1.105382 12:-0.428571 37:0.408207 45:-0.428571 93:-0.494566 94:-0.567632 96:-0.274455 105:-0.5 106:-0.6 109:-0.444444 111:0.0764605 119:0.150568 121:-0.0525475 122:-0.545454 125:-0.886364 130:0.280001 146:-1 147:-0.600002 184:-1 
1.105382 12:-0.714286 37:0.602592 45:-0.714286 93:-0.7 94:-0.465352 96:0.315867 105:-0.5 106:-0.6 109:-0.583333 111:0.268498 119:0.0866475 121:-0.0388598 122:-0.69697 125:-0.672728 130:-0.234287 146:-1 147:-1 184:-0.714286 
1.105382 12:-0.714286 37:0.291577 45:-0.428571 93:-0.896667 94:-0.558024 96:0.236112 105:-0.5 106:-0.6 109:-0.607844 111:0.14327 119:0.143049 121:0.126754 122:-0.542858 125:-0.485714 130:-0.234287 146:-1 147:-1 184:-0.714286 
1.105382 12:-0.714286 37:0.75378 45:-0.142857 93:-0.243025 94:-0.537467 96:-0.223836 105:-0.25 106:-0.4 109:-0.670782 111:0.248467 119:0.136364 121:-0.0545742 122:-0.507936 125:-0.698412 130:0.136 146:-1 147:-0.0400024 184:-1 
1.105382 12:-0.714286 37:0.209503 45:-0.428571 93:-0.494566 94:-0.675724 96:0.209245 105:-0.5 106:-0.6 109:-0.191919 111:0.172221 119:0.177687 121:0.256634 122:-0.888889 125:-0.8 130:0.0400009 146:-0.476191 147:-0.600002 184:-1 
1.105382 12:-0.428571 37:0.723542 45:-0.142857 93:-0.489011 94:-0.562881 96:-0.510989 105:-0.25 106:-0.4 109:-0.365079 111:0.501847 119:0.022727 121:0.122151 122:-0.78882 125:-0.937888 130:-0.542858 146:-1 147:-1 184:-0.714286 
1.105382 12:-0.142857 37:0.760259 45:-0.142857 93:-0.412632 94:-0.476607 96:-0.531578 105:-0.25 106:-0.4 109:-0.722222 111:0.35003 119:0.214488 121:0.326185 122:-0.712122 125:-0.69697 130:-0.440001 146:-1 147:-1 184:-1 
1.105382 12:-0.428571 37:0.868251 45:-0.428571 93:-0.400001 94:-0.358422 96:-0.641128 105:-0.25 106:-0.4 109:-0.477124 111:0.231104 119:0.143049 121:0.118165 122:-0.969697 125:-0.712122 130:-0.35 146:-1 147:-1 184:-1 
1.105382 12:-0.142857 37:0.529158 45:-0.142857 93:-0.726471 94:-0.415032 96:0.199755 105:-0.25 106:-0.4 109:-0.607844 111:0.30677 119:0.0828879 121:0.178289 122:-0.903509 125:-0.815789 130:0.0400009 146:-1 147:-0.626668 184:-1 
1.105382 12:-0.428571 37:0.395248 45:-0.142857 93:-0.321875 94:-0.689236 96:-0.304686 106:-0.4 109:-0.583333 111:0.441445 119:0.150568 121:0.184732 122:-0.613636 125:-0.568182 130:-0.35 146:-1 147:-1 184:-1 
1.105382 12:-0.714286 37:0.211663 45:-0.142857 93:-0.260228 94:-0.434974 96:-0.367897 105:-0.25 106:-0.4 109:-0.68254 111:0.202576 119:0.022727 121:0.0647897 122:-0.846154 125:-0.832168 130:0.73 146:-1 147:0.259996 184:-1 
1.105382 12:-0.428571 37:0.473002 45:-0.428571 93:-0.483333 94:-0.44753 96:-0.381943 105:-0.25 106:-0.4 109:-0.856631 111:0.153574 119:0.0557202 121:-0.00956564 122:-0.771428 125:-0.885714 130:-0.234287 146:-1 147:-0.618183 184:-1 
1.105382 12:-0.428571 37:0.889849 45:-0.428571 93:-0.494566 94:-0.243356 96:-0.153531 105:-0.5 106:-0.2 109:-0.492063 111:-0.0319004 119:0.110391 121:-0.0123925 122:-0.142858 125:-0.809524 130:-0.440001 146:-1 147:-1 184:-1 
1.105382 12:-0.428571 37:0.807775 45:-0.428571 93:-0.0349029 94:-0.0618436 96:-0.265329 106:-0.6 109:-0.607844 111:0.302741 119:-0.0374339 121:0.0193868 122:-0.666666 125:-0.809524 130:-0.200001 146:-0.592593 147:-1 184:-1 
1.105382 12:-0.428571 37:0.50324 45:-0.428571 93:-0.412632 94:-0.0578937 96:-0.180262 105:-0.5 106:-0.6 109:-0.869281 111:-0.0331198 119:-0.157756 121:-0.152398 122:-0.424242 125:-0.954545 130:-0.08 146:-0.499999 147:-1 184:-1 
1.105382 12:-0.428571 37:0.356371 45:-0.142857 93:-0.494566 94:-0.675724 96:-0.153531 105:-0.25 106:-0.4 109:-0.461279 111:0.109222 119:0.239668 121:-4.38054e-06 122:-0.76923 125:-0.692308 130:-0.08 146:-1 147:0.119997 184:-1 
1.105382 12:-0.428571 37:0.138229 45:-0.428571 93:-0.895505 94:-0.329587 96:1.1125e-06 105:-0.5 106:-0.6 109:-0.619048 111:0.211664 119:0.519482 121:0.580023 122:-0.714286 125:-1 130:1 146:-1 147:-1 184:-1 
1.105382 12:-0.714286 37:0.401728 45:-0.428571 93:-0.525511 94:-0.594104 96:-0.205356 105:-0.25 106:-0.6 109:-0.738562 111:0.0958494 119:-0.0975948 121:-0.143809 122:-0.6 125:-0.8 130:-0.200001 146:-1 147:-1 184:-0.714286 
1.105382 12:-0.714286 37:0.265659 45:-0.142857 93:-0.386814 94:-0.672161 96:-0.877747 105:-0.25 106:-0.4 109:-0.619048 111:-0.0178878 119:0.227272 121:0.0460147 122:-0.9 125:-0.4 130:0.0742866 146:-1 147:-0.618183 184:-1 
1.105382 12:-0.428571 37:0.226782 45:-0.428571 93:-0.731731 94:-0.71314 96:-0.465144 105:-0.5 106:-0.6 109:-0.766082 111:0.289113 119:0.291864 121:0.42105 122:-0.263888 125:-0.972222 130:0.46 146:-1 147:-0.634784 184:-1 
1.105382 12:-0.428571 37:0.269978 45:-0.428571 93:-0.478505 94:-0.721183 96:-0.480139 105:-0.25 106:-0.6 109:-0.279279 111:0.315863 119:0.271499 121:0.383039 122:-0.807692 125:-0.932692 130:0.0400009 146:-1 147:-0.657143 184:-1 
1.105382 12:-0.428571 37:0.308855 45:-0.428571 93:-0.806251 94:-0.689236 96:-0.420572 105:-0.5 106:-0.6 109:-0.238095 111:0.291712 119:0.285715 121:0.196206 122:-0.833333 125:-0.666666 130:-0.234287 146:-1 147:-0.634784 184:-1 
1.105382 12:-0.428571 37:0.183585 45:-0.428571 93:-0.557144 94:-0.526455 96:-0.364284 105:-0.25 106:-0.4 109:-0.0643289 111:0.203255 119:0.291864 121:0.278875 122:-0.953846 125:-0.63077 130:-0.234287 146:-1 147:-1 184:-1 
1.105382 12:-0.428571 37:0.414687 45:-0.428571 93:-0.824529 94:-0.718553 96:-0.160376 105:-0.5 106:-0.6 109:-0.430199 111:0.418662 119:0.101399 121:0.442135 122:-0.542858 125:-0.514286 130:-0.200001 146:-1 147:-0.650002 184:-0.428571 
1.105382 12:-0.714286 37:0.466523 45:-0.428571 93:-0.721 94:-0.602222 96:-0.221249 105:-0.25 106:-0.6 109:-0.519519 111:0.269495 119:0.437345 121:0.35147 122:-0.19697 125:-0.69697 130:-0.440001 146:-1 147:-1 184:-1 
1.105382 12:-0.428571 37:0.835853 45:-0.428571 93:-0.200001 94:-0.358422 96:-0.521504 105:-0.25 106:-0.6 109:-0.444444 111:0.148837 119:-0.105114 121:-0.143809 122:-0.970588 125:-0.838235 130:-0.35 146:-1 147:-0.650002 184:-0.714286 
1.105382 12:-0.714286 37:0.693305 45:-0.142857 93:-0.412632 94:-0.26725 96:-0.0631567 106:-0.6 109:-0.492063 111:0.230448 119:0.16883 121:0.300504 122:-0.944444 125:-0.611112 130:-0.35 146:-1 147:-1 184:-0.714286 
1.105382 12:-0.428571 37:0.483801 45:-0.428571 93:-0.300001 94:-0.679211 96:-0.521504 105:-0.25 106:-0.4 109:-0.477124 111:0.206174 119:0.0828879 121:0.0623336 122:-0.9 125:-0.933333 130:-0.200001 146:-0.488372 147:-1 184:-0.714286 
1.105382 12:-0.428571 37:0.302376 45:-0.428571 93:-0.494566 94:-0.0271722 96:-0.153531 105:-0.25 106:-0.6 109:-0.326599 111:0.124341 119:-0.00826568 121:0.137165 122:-0.688888 125:-0.977778 130:0.19 146:-1 147:-1 184:-1 
0.5249539092174261 12:-0.428571 37:0.101512 45:-0.142857 93:-0.102633 94:-0.302144 96:-0.316885 105:0.5 106:0.2 109:-0.649123 111:0.071819 119:-0.0311011 121:-0.197605 122:-0.461538 125:-0.759616 130:-0.08 146:-1 147:-0.664001 184:-1 
1.105382 12:-0.428571 37:0.11879 45:-0.428571 93:-0.703192 94:-0.788416 96:0.0651615 105:-0.25 106:-0.6 109:-0.477124 111:0.239404 119:0.383688 121:0.380139 122:-0.7 125:-0.8 130:0.639999 146:-1 147:-0.626668 184:-1 
1.105382 12:-0.714286 37:0.706263 45:-0.714286 93:-0.459303 94:-0.537467 96:-0.353197 105:-0.25 106:-0.4 109:-0.25926 111:0.191855 119:0.227272 121:0.25044 122:-0.977778 125:-0.666666 130:0.0742866 146:-1 147:-0.557896 184:-1 
1.105382 12:-0.428571 37:0.455724 45:-0.428571 93:-0.6 94:-0.572281 96:-0.282257 105:-0.25 106:-0.6 109:-0.73064 111:0.333314 119:0.42562 121:0.535397 122:-0.266666 125:-0.966667 130:0.352 146:0.499999 147:-0.618183 184:-1 
1.105382 12:-0.714286 37:0.645788 45:-0.428571 93:-0.300001 94:-0.679211 96:-0.0430093 106:-0.6 109:-0.856631 111:0.318356 119:0.0557202 121:0.0610866 122:-0.780952 125:-0.685714 130:-0.440001 146:-1 147:-0.618183 184:-1 
1.105382 12:-0.428571 37:0.395248 45:-0.428571 93:-0.686517 94:-0.664793 96:1.1125e-06 105:-0.5 106:-0.6 109:-0.713261 111:0.248133 119:0.253667 121:-0.0566681 122:-0.576924 125:-0.628206 130:-0.440001 146:-1 147:-1 184:-1 
1.105382 12:-0.142857 37:0.758099 45:-0.142857 93:-0.782031 94:-0.766927 96:-0.304686 105:-0.25 106:-0.4 109:-0.629629 111:0.625591 119:-0.0340916 121:0.626842 122:-0.811594 125:-0.561594 130:-0.163078 146:-0.241378 147:-0.710345 184:-1 
1.105382 12:-0.714286 37:0.233261 45:-0.428571 93:-1 94:-0.888264 96:-0.624999 105:-0.75 106:-0.6 109:-0.365079 111:0.245529 119:0.344154 121:0.396458 122:-0.085714 125:-0.885714 130:0.280001 146:-1 147:-0.618183 184:-1 
1.105382 12:-0.428571 37:0.352052 45:-0.428571 93:-0.567443 94:-0.768734 96:-0.0944759 105:0.25 106:-0.6 109:-0.703704 111:0.51266 119:0.363635 121:0.581413 122:-0.706294 125:-0.58042 130:0.73 146:-1 147:-0.580001 184:-1 
1.105382 12:-0.428571 37:0.295896 45:0.428571 93:-0.897802 94:-0.672161 96:-0.388735 105:-0.5 109:-0.0277778 111:0.244528 119:0.278409 121:0.339876 122:-0.944444 125:-0.944444 130:0.52 146:-0.45 147:-1 184:-1 
1.105382 12:-0.714286 37:0.105832 45:-0.428571 93:-0.351164 94:-0.190568 96:-0.223836 106:-0.6 109:-0.305556 111:0.1622 119:0.0866475 121:0.161915 122:-0.89899 125:-0.69697 130:0.73 146:-1 147:-1 184:-1 
1.105382 12:-0.428571 37:-0.276458 45:-0.142857 93:-0.791012 94:0.340822 96:-0.249999 105:-0.5 106:-0.4 109:-0.629629 111:-0.202525 119:0.022727 121:-0.277658 122:-0.8 125:-0.6 130:-0.296 146:-1 147:-1 184:-1 
1.105382 12:-0.428571 37:0.395248 45:-0.428571 93:-0.898913 94:-0.891908 96:-0.516303 105:-0.5 106:-0.6 109:-0.506172 111:0.346102 119:0.363635 121:0.432151 122:-0.777778 125:-0.111112 130:-0.62 146:-1 147:-0.618183 184:-0.714286 
1.105382 12:-0.714286 37:0.24622 45:-0.428571 93:-0.552885 94:-1 96:-0.465144 106:-0.6 109:-0.238095 111:0.458534 119:0.344154 121:0.358911 122:-0.643724 125:-0.554656 130:-0.234287 146:-1 147:-0.642554 184:-1 
1.105382 12:-0.714286 37:0.764579 45:-0.714286 93:-0.476057 94:-0.579812 96:-0.373239 105:-0.25 106:-0.4 109:-0.629629 111:0.355047 119:0.278409 121:0.39159 122:-0.933333 125:-0.466666 130:0.280001 146:-0.241378 147:-1 184:-1 
1.105382 12:-0.428571 37:0.213823 45:-0.428571 93:-0.50532 94:-0.894208 96:-0.289892 105:-0.25 106:-0.6 109:-0.619048 111:0.199942 119:0.344154 121:0.342224 122:-0.45238 125:-0.904762 130:0.19 146:-1 147:-1 184:-1 
1.105382 12:-0.428571 37:0.583153 45:-0.428571 93:-0.793334 94:-0.226542 96:-0.629166 105:-0.5 106:-0.6 109:-0.713261 111:0.344199 119:0.121702 121:0.320152 122:-0.444444 125:-0.611112 130:-0.200001 146:-1 147:-1 184:-0.714286 
1.105382 12:-0.714286 37:0.0863931 45:-0.428571 93:-0.896667 94:-0.337036 96:-0.0111094 105:-0.5 106:-0.6 109:-0.722222 111:0.127814 119:0.0866475 121:0.0478399 122:-0.7 125:-0.45 130:-0.08 146:-1 147:-1 184:-1 
1.105382 12:-0.714286 37:0.317495 45:-0.142857 93:-0.292392 94:-0.351448 96:-0.516303 105:-0.25 106:-0.4 109:-0.846743 111:0.242782 119:-0.224139 121:-0.0305192 122:-0.333334 125:-0.833333 130:-0.440001 146:-1 147:-1 184:-1 
1.105382 12:-0.428571 37:0.451404 45:-0.428571 93:-0.59121 94:-0.89072 96:-0.388735 106:-0.6 109:-0.629629 111:0.305671 119:0.420453 121:0.38348 122:-0.222222 125:-0.916667 130:-0.234287 146:-1 147:-0.618183 184:-0.714286 
1.105382 12:-0.142857 37:0.00215983 45:-0.142857 93:-0.561321 94:-0.155659 96:-0.160376 105:-0.5 106:-0.4 109:-0.382716 111:0.173695 119:0.136364 121:0.0265446 122:-0.944444 125:-0.597222 130:-0.08 146:-1 147:-1 184:-1 
1.105382 12:-0.714286 37:0.693305 45:-0.714286 93:-0.582023 94:-0.329587 96:-0.374999 105:-0.5 106:-0.6 109:-0.86532 111:-0.106141 119:0.0537198 121:-0.16372 122:-0.166666 125:-0.833333 130:-0.296 146:-1 147:-1 184:-1 
1.105382 12:-0.428571 37:0.773218 45:-0.142857 93:-0.393479 94:-0.0271722 96:-0.516303 105:-0.25 106:-0.4 109:-0.341564 111:0.441865 119:-0.166666 121:-0.0762083 122:-0.797386 125:-0.738562 130:-0.542858 146:-1 147:-1 184:-1 
1.105382 12:-0.142857 37:0.321814 45:-0.142857 93:-0.0152985 94:-0.649019 96:-0.0838226 105:0.25 106:-0.4 109:0.146951 111:0.280405 119:0.121702 121:0.188265 122:-0.384616 125:-0.673076 130:-0.35 146:-1 147:-1 184:-1 
1.105382 12:-0.714286 37:0.347732 45:-0.428571 93:-1 94:-0.89072 96:-0.510989 105:-0.75 106:-0.6 109:-0.0572356 111:0.208859 119:0.363635 121:0.230085 122:-0.857143 125:-0.428572 130:-0.08 146:-1 147:-1 184:-1 
1.105382 12:-0.714286 37:0.820734 45:-0.714286 93:-0.447526 94:-0.90154 96:-0.449256 105:-0.5 106:-0.4 109:-0.52381 111:0.572956 119:-0.123376 121:-0.190742 122:-0.994872 125:-0.994872 130:-0.440001 146:-1 147:-1 184:-1 
1.105382 12:-0.142857 37:0.196544 45:0.142857 93:-0.358622 94:0.143046 96:-0.232758 105:-0.25 106:-0.2 109:-0.206349 111:0.235917 119:-0.0503243 121:0.158656 122:-0.833333 125:-0.666666 130:1 146:-0.435898 147:-0.569233 184:-1 
1.105382 12:-0.428571 37:0.293737 45:-0.428571 93:-0.652337 94:-0.349427 96:-0.584111 105:-0.25 106:-0.6 109:-0.506172 111:0.287694 119:0.0795457 121:0.148227 122:-0.455882 125:-0.772058 130:0.52 146:-1 147:-1 184:-1 
1.105382 12:-0.428571 37:0.12311 45:-0.428571 93:-0.463462 94:-0.330661 96:-0.572115 105:-0.25 106:-0.6 109:-0.87988 111:0.358219 119:-0.00491523 121:0.201503 122:-0.775402 125:-0.358288 130:0.0999993 146:-1 147:-1 184:-0.428571 
1.105382 12:-0.714286 37:0.440605 45:-0.428571 93:-0.817648 94:-0.610021 96:-0.127449 105:-0.5 106:-0.6 109:-0.738562 111:0.345412 119:0.263371 121:0.152523 122:-0.692308 125:-0.846154 130:-0.440001 146:-1 147:-0.634784 184:-0.714286 
1.105382 12:-0.714286 37:0.0453564 45:-0.428571 93:-0.557144 94:-0.526455 96:-0.57619 105:-0.25 106:-0.6 109:-0.457995 111:0.192215 119:0.347005 121:0.349446 122:-0.777778 125:-0.611112 130:-0.08 146:-1 147:-1 184:-1 
1.105382 12:-0.428571 37:0.917927 45:-0.428571 93:-0.7 94:-0.89307 96:-0.282257 105:-0.25 106:-0.6 109:-0.305556 111:0.196202 119:0.278409 121:0.139101 122:-1 125:-0.555556 130:0.280001 146:-1 147:-1 184:-1 
1.105382 12:-0.714286 37:0.228942 45:0.142857 93:-0.582023 94:-0.664793 96:1.1125e-06 105:-0.25 106:-0.2 109:-0.346405 111:0.196035 119:0.323527 121:0.332896 122:-0.428572 125:-1 130:0.382858 146:-0.45 147:-1 184:-0.714286 
1.105382 12:-0.714286 37:0.639309 45:-0.428571 93:-1 94:-0.553058 96:-0.249999 105:-0.75 106:-0.6 109:-0.629629 111:0.177799 119:0.306816 121:0.184732 122:-0.785714 125:-0.571428 130:-0.440001 146:-1 147:-1 184:-0.714286 
1.105382 12:-0.428571 37:0.62851 45:-0.428571 93:-0.758442 94:-0.741703 96:-0.277596 105:-0.5 106:-0.6 109:-0.703704 111:0.195426 119:0.363635 121:0.192033 122:-1 125:-0.333334 130:-0.08 146:-0.371429 147:-0.520002 184:-0.428571 
1.105382 12:-0.428571 37:0.736501 45:-0.428571 93:-0.446429 94:-0.289681 96:-0.337797 105:-0.5 106:-0.6 109:-0.569892 111:0.241342 119:0.187685 121:0.254207 122:-0.6 125:-0.8 130:0.0742866 146:-1 147:-1 184:-1 
1.105382 12:-0.714286 37:0.365011 45:-0.428571 93:-1 94:-0.657087 96:0.0229898 105:-0.75 106:-0.6 109:-0.238095 111:0.305203 119:0.636363 121:0.655117 122:-0.833333 125:-0.5 130:0.639999 146:-1 147:-1 184:-1 
1.105382 12:-0.714286 37:0.228942 45:-0.428571 93:-0.897802 94:-0.89072 96:-0.510989 105:-0.5 106:-0.6 109:-0.73064 111:0.275101 119:0.42562 121:0.327432 122:-0.527272 125:-0.672728 130:-0.08 146:-1 147:-0.200003 184:-1 
1.105382 12:-0.714286 37:0.969762 45:-0.714286 93:-0.929008 94:-1 96:-0.745228 105:-0.5 106:-0.6 109:-1 111:0.76893 119:-0.00491523 121:0.765843 122:-0.25 125:-0.375 130:-0.495385 146:-0.67647 147:-1 184:-1 
1.105382 12:-1 37:0.896328 45:-0.714286 93:-0.826168 94:-1 96:-0.376167 105:-0.25 106:-0.6 109:-1 111:0.751379 119:0.0557202 121:0.720524 122:-0.238096 125:-0.52381 130:-0.728 146:-1 147:-0.341178 184:-1 
1.105382 12:-0.714286 37:-0.0475162 45:-0.428571 93:-0.696739 94:-0.891908 96:-0.274455 105:-0.5 106:-0.6 109:-0.298245 111:0.0966215 119:0.39952 121:0.378781 122:-0.428572 125:-0.714286 130:1 146:-0.499999 147:-1 184:-1 
1.105382 12:-0.714286 37:0.403888 45:-0.428571 93:-1 94:-0.738304 96:0.317436 105:-0.75 106:-0.6 109:-0.835391 111:0.19384 119:0.287879 121:0.275318 122:-0.809524 125:-0.904762 130:0.0742866 146:-0.333334 147:-0.490911 184:-1 
1.105382 12:-0.714286 37:0.393089 45:-0.428571 93:-0.358622 94:-0.885695 96:-0.232758 106:-0.6 109:-0.283154 111:0.422457 119:0.451614 121:0.574506 122:-0.313132 125:-0.454546 130:-0.08 146:-1 147:-1 184:-1 
1.105382 12:-0.428571 37:0.388769 45:-0.428571 93:-0.164046 94:-0.776529 96:-0.499999 105:0.25 106:-0.6 109:-0.444444 111:0.18822 119:0.214488 121:0.16648 122:-0.666666 125:-0.857143 130:-0.234287 146:-1 147:-1 184:-1 
1.105382 12:-0.428571 37:0.939525 45:-0.428571 93:-0.914679 94:-0.908766 96:-0.693807 105:-0.5 106:-0.6 109:-1 111:0.758279 119:-0.296875 121:0.663855 122:-0.142858 125:-0.428572 130:-0.62 146:-1 147:-0.626668 184:-1 
0.6217653679788857 12:-0.428571 37:-0.0539957 45:-0.428571 93:-0.867143 94:0.136513 96:-0.364284 105:-0.5 106:-0.6 109:-0.305556 111:-0.366416 119:0.214488 121:-0.143809 122:1 125:-1 130:1 146:-1 147:-1 184:-1 
1.105382 12:-0.714286 37:0.326134 45:-0.428571 93:-0.885185 94:-0.508916 96:-0.0385782 105:-0.5 106:-0.2 109:-0.54023 111:0.281516 119:0.269593 121:0.261517 122:-0.542858 125:-0.714286 130:-0.08 146:-1 147:-0.600002 184:-1 
1.105382 12:-0.428571 37:0.574514 45:-0.428571 93:-0.518966 94:-0.828544 96:-0.232758 105:-0.25 106:-0.6 109:-0.59596 111:0.267895 119:0.301653 121:0.280969 122:-0.8 125:-0.733334 130:0.136 146:-1 147:-1 184:-1 
1.105382 12:-0.714286 37:0.0431965 45:-0.142857 93:-0.564063 94:-0.0677069 96:-0.304686 105:-0.25 106:-0.4 109:-1 111:-0.249253 119:-0.166666 121:-0.330388 122:-0.333334 125:-0.333334 130:0.280001 146:-1 147:-1 184:-1 
1.105382 12:-0.142857 37:-0.0194384 45:-0.142857 93:-1 94:-0.439749 96:0.0968322 105:-0.75 106:-0.4 109:-0.84127 111:-0.271906 119:-0.0503243 121:-0.383696 122:-0.888889 125:-0.444444 130:0.280001 146:-1 147:-1 184:-1 
1.105382 12:-0.142857 37:0.857451 45:-0.142857 93:-0.759483 94:-0.742815 96:-0.520474 105:-0.5 106:-0.4 109:-0.457995 111:0.183952 119:0.396894 121:0.196305 122:-0.666666 125:-0.888889 130:0.0742866 146:-1 147:-1 184:-1 
1.105382 12:-0.714286 37:0.241901 45:-0.428571 93:-0.764557 94:-0.748241 96:-0.718353 105:-0.5 106:-0.6 109:-0.52381 111:0.265973 119:0.461039 121:0.37247 122:-1 125:-0.5 130:1 146:-1 147:-1 184:-1 
1.105382 12:-0.714286 37:0.712743 45:-0.714286 93:-0.738029 94:-0.859937 96:-0.216548 105:-0.5 106:-0.6 109:-0.703704 111:-0.0531255 119:0.431818 121:0.143359 122:-0.466666 125:-0.733334 130:-0.08 146:-0.35294 147:-1 184:-1 
1.105382 12:-0.142857 37:-0.401728 45:-0.142857 93:-0.386814 94:-1 96:-0.633242 105:-0.25 106:-0.4 109:-0.888889 111:-0.410237 119:0.176136 121:-0.180313 122:-0.2 125:-1 130:0.280001 146:-1 147:-0.618183 184:-1 
1.105382 12:-0.714286 37:0.341253 45:-0.428571 93:-0.77037 94:0.104939 96:-0.31327 105:-0.5 106:-0.6 109:-0.346405 111:0.0239134 119:0.383688 121:0.221236 122:-0.066666 125:-1 130:0.136 146:-1 147:-1 184:-0.714286 
1.105382 12:-1 37:0.846652 45:-0.714286 93:-0.916216 94:-0.731231 96:-0.899775 105:-0.5 106:-0.8 109:-1 111:0.443272 119:0.453348 121:0.517116 122:-0.799044 125:-0.799044 130:-0.234287 146:-1 147:-0.650002 184:-1 
1.105382 12:-0.428571 37:-0.075594 45:-0.428571 93:-0.497297 94:-0.641641 96:-0.298422 105:-0.25 106:-0.4 109:-0.57672 111:0.121616 119:0.16883 121:0.242096 122:-0.854545 125:-0.581818 130:0.280001 146:-1 147:-1 184:-0.714286 
1.105382 12:-0.142857 37:0.781857 45:-0.142857 93:-0.726471 94:-0.805011 96:-0.236518 105:-0.5 109:-0.0243911 111:0.0908393 119:0.297117 121:0.221236 122:-0.8 125:-0.85 130:-0.08 146:-1 147:-0.650002 184:-1 
1.105382 12:-0.428571 37:0.285097 45:-0.428571 93:-0.584821 94:0.243058 96:-0.205356 105:-0.25 106:-0.4 109:-0.382716 111:0.206153 119:-0.204547 121:-0.18437 122:-0.750724 125:-0.872464 130:-0.200001 146:-1 147:-0.420691 184:-1 
1.105382 12:0.142857 37:0.987041 45:0.142857 93:-0.592106 94:-0.56384 96:-0.316885 105:0.25 106:-0.2 109:-0.111111 111:0.624986 119:0.0519484 121:0.625914 122:-0.75 125:-0.666666 130:-0.296 146:-0.56 147:-0.664001 184:-1 
1.105382 12:-0.142857 37:0.166307 45:-0.142857 93:-0.642308 94:-0.0438014 96:-0.679086 105:-0.25 106:-0.4 109:-0.873016 111:0.217775 119:0.16883 121:0.187859 122:-0.506494 125:-0.545454 130:0.46 146:-0.541667 147:-0.300002 184:-1 
1.105382 12:-0.714286 37:0.822894 45:-0.428571 93:-0.0412362 94:-0.589919 96:-0.0824731 106:-0.6 109:-0.569892 111:0.308692 119:-0.0762484 121:-0.193265 122:-0.666666 125:-0.666666 130:-0.440001 146:-1 147:-0.37778 184:-0.714286 
1.105382 12:-0.428571 37:0.12743 45:-0.428571 93:-0.822858 94:-0.905291 96:-0.470238 105:-0.5 106:-0.6 109:-0.532164 111:0.375479 119:0.614833 121:0.632394 122:-0.9 125:-0.833333 130:0.280001 146:-1 147:-0.657143 184:-1 
1.105382 12:-0.714286 37:-0.25054 45:-0.142857 93:-0.510527 94:-1 96:-0.648684 105:-0.5 106:-0.4 109:-1 111:-0.0306809 119:0.136364 121:-0.0545772 122:-0.2 125:-0.6 130:0.19 146:0.466667 147:-0.626668 184:-1 
1.105382 12:-0.428571 37:0.362851 45:-0.142857 93:-0.617809 94:-1 96:-0.695205 105:-0.25 106:-0.2 109:-0.48718 111:0.217409 119:0.180072 121:-0.0427205 122:-0.714286 125:-0.657142 130:0.46 146:-1 147:-1 184:-1 
1.105382 12:-0.714286 37:0.365011 45:-0.428571 93:-0.77037 94:-1 96:-0.587963 105:-0.5 106:-0.6 109:-0.851852 111:0.129817 119:0.0909102 121:0.182299 122:-0.65 125:-0.55 130:-0.08 146:-0.405406 147:-1 184:-1 
1.105382 12:0.142857 37:0.451404 45:0.142857 93:-0.0958345 94:-0.723765 96:-0.381943 105:-0.5 106:-0.2 109:-0.145299 111:0.187061 119:0.022727 121:0.254931 122:0.333334 125:-0.6 130:0.136 146:-1 147:-1 184:-1 
1.105382 12:-0.714286 37:0.393089 45:-0.428571 93:-0.722389 94:-0.851575 96:-0.33582 105:-0.5 106:-0.6 109:-0.613526 111:0.0805594 119:-0.0217411 121:-0.102544 122:-0.8 125:-0.6 130:0.568 146:-1 147:-0.37778 184:-1 
1.105382 12:-0.714286 37:0.887689 45:-0.714286 93:-0.490412 94:-0.863775 96:-0.542807 105:-0.25 106:-0.4 109:-0.629629 111:0.280927 119:0.022727 121:0.00220925 122:-1 125:-0.857143 130:-0.08 146:-1 147:-1 184:-1 
1.105382 12:-0.142857 37:0.542117 45:-0.142857 93:-0.439759 94:-0.520749 96:-0.195781 105:-0.25 106:-0.4 109:-0.288889 111:0.380109 119:-0.181818 121:-0.333632 122:-0.980952 125:-0.828571 130:-0.08 146:-1 147:-0.626668 184:-1 
1.105382 12:-0.714286 37:0.531317 45:-0.142857 93:-0.0337683 94:-0.741703 96:-0.566558 105:0.5 106:-0.4 109:-0.206349 111:0.129186 119:0.022727 121:0.0178536 122:-0.506494 125:-0.636364 130:0.280001 146:-1 147:-1 184:-1 
1.105382 12:-0.428571 37:0.833693 45:-0.428571 93:-0.927344 94:-0.922309 96:-0.739257 105:-0.5 106:-0.6 109:-0.746032 111:0.721587 119:-0.2987 121:0.408975 122:-0.454546 125:-0.21591 130:-0.512 146:-0.607144 147:-0.400002 184:-0.428571 
1.105382 12:-0.142857 37:0.419006 45:-0.142857 93:-0.637663 94:-0.741703 96:-0.711039 105:-0.25 106:-0.4 109:0.152267 111:0.0960651 119:0.136364 121:0.0157305 122:-1 125:-0.5 130:-0.08 146:-1 147:-1 184:-1 
1.105382 12:-0.428571 37:0.263499 45:0.142857 93:-0.518966 94:-1 96:-0.520474 106:-0.2 109:-0.0697689 111:0.195945 119:0.284353 121:0.0616357 122:-0.422222 125:-0.822222 130:-0.62 146:-1 147:-1 184:-0.714286 
1.105382 12:-0.428571 37:0.771058 45:-0.428571 93:-0.510527 94:-0.476607 96:-0.414473 105:-0.25 106:-0.4 109:-0.206349 111:-0.0441022 119:0.16883 121:-0.11252 122:-0.833333 125:-0.25 130:0.46 146:-1 147:-0.490911 184:-1 
1.105382 12:-0.714286 37:0.598272 45:-0.714286 93:-0.565421 94:-0.721183 96:-0.792056 105:-0.25 106:-0.6 109:-0.346405 111:0.415535 119:-0.0374339 121:0.212647 122:-0.517028 125:-0.634674 130:-0.08 146:-1 147:-0.664001 184:-1 
1.105382 12:-0.428571 37:0.272138 45:-0.142857 93:-0.882279 94:-1 96:-0.436708 105:-0.5 106:-0.2 109:-0.111111 111:0.113367 119:0.431818 121:0.211503 122:-0.6 125:-0.8 130:-0.08 146:-1 147:-1 184:-1 
1.105382 12:-0.428571 37:0.460043 45:-0.428571 93:-0.7675 94:-1 96:-0.443749 105:-0.5 106:-0.6 109:-0.25926 111:0.18835 119:0.500001 121:0.299114 122:-0.6 125:-0.4 130:-0.08 146:-1 147:-1 184:-1 
1.105382 12:-0.428571 37:0.587473 45:-0.428571 93:-0.191305 94:-0.783816 96:-0.637228 106:-0.4 109:-0.846743 111:0.283104 119:-0.083072 121:-0.186607 122:-0.803922 125:-0.921569 130:-0.08 146:-1 147:-0.505883 184:-0.714286 
1.105382 12:-0.714286 37:0.833693 45:-0.714286 93:-0.703192 94:-0.682624 96:-0.644946 105:-0.25 106:-0.4 109:-0.569892 111:0.333129 119:-0.208213 121:0.145873 122:-0.660818 125:-0.333334 130:-0.08 146:-0.435898 147:-1 184:-1 
1.105382 12:-0.142857 37:0.693305 45:-0.142857 93:-0.869014 94:-1 96:-0.216548 105:-0.5 106:-0.4 109:-0.814815 111:0.181984 119:0.193183 121:0.0934705 122:-0.833333 125:-0.916667 130:0.280001 146:-0.290322 147:0.083867 184:-1 
1.105382 12:-0.428571 37:0.317495 45:-0.428571 93:-0.583583 94:-0.406301 96:-0.33582 105:-0.25 106:-0.6 109:0.0666667 111:0.27434 119:0.145454 121:0.221236 122:-0.928571 125:-0.428572 130:0.280001 146:-1 147:-1 184:-1 
1.105382 12:-0.714286 37:0.773218 45:-0.428571 93:-0.738029 94:-1 96:-0.216548 105:-0.5 106:-0.6 109:-1 111:0.41709 119:0.278409 121:0.245572 122:-0.545454 125:-0.931818 130:-0.728 146:-1 147:-1 184:-1 
1.105382 12:-0.428571 37:0.758099 45:-0.428571 93:-0.645715 94:-0.905291 96:-0.364284 105:-0.5 106:-0.6 109:-0.298245 111:0.273911 119:0.291864 121:0.155914 122:-0.846154 125:-0.846154 130:-0.62 146:-1 147:-1 184:-0.714286 
1.105382 12:-0.428571 37:0.24622 45:-0.428571 93:-0.284616 94:-0.745014 96:-0.429486 106:-0.6 109:-0.666667 111:0.133561 119:-0.0795457 121:0.0679174 122:-0.904762 125:-0.873016 130:-0.200001 146:-1 147:-0.115792 184:-1 
1.105382 12:-0.714286 37:0.49676 45:0.142857 93:-0.729127 94:-0.806903 96:-0.351941 105:-0.25 106:-0.2 109:-0.73064 111:0.473426 119:0.301653 121:0.25221 122:-0.454546 125:-0.818182 130:-0.542858 146:-1 147:-0.609304 184:-0.714286 
1.105382 12:-0.714286 37:0.49892 45:0.142857 93:-0.645715 94:-0.526455 96:-0.258332 105:-0.25 106:-0.2 109:-0.25926 111:0.225333 119:0.412337 121:0.45417 122:-0.555556 125:-1 130:0.19 146:-1 147:-1 184:-0.714286 
1.105382 12:-0.428571 37:0.725702 45:-0.428571 93:-0.439759 94:-0.640561 96:0.0722904 105:-0.5 106:-0.2 109:-0.569892 111:-0.0724032 119:0.121702 121:-0.0707998 122:-0.771428 125:-0.428572 130:0.136 146:-1 147:-1 184:-1 
1.105382 12:-0.142857 37:0.721382 45:-0.142857 93:-0.880769 94:-0.872507 96:-0.429486 105:-0.5 106:-0.4 109:-0.386973 111:0.238583 119:0.199057 121:0.100395 122:-1 125:-0.777778 130:-0.296 146:-0.405406 147:-1 184:-1 
1.105382 12:-0.714286 37:0.451404 45:0.428571 93:-0.217758 94:-0.721183 96:-0.168223 105:-0.25 109:0.111111 111:0.227026 119:0.176136 121:0.199334 122:-0.76923 125:-0.833333 130:-0.234287 146:-1 147:-1 184:-1 
1.105382 12:-0.428571 37:0.12743 45:0.142857 93:-0.284616 94:-0.660019 96:-0.3344 105:0.5 106:-0.2 109:-0.519519 111:0.309919 119:-0.00491523 121:-0.106317 122:-0.866667 125:-0.533334 130:0.0742866 146:-1 147:-1 184:-0.142857 
1.105382 12:-0.714286 37:0.205184 45:-0.142857 93:-0.342425 94:-0.698653 96:-0.325756 106:-0.4 109:-0.346405 111:0.290103 119:0.0828879 121:0.0923958 122:-0.285714 125:-0.72619 130:0.0742866 146:-1 147:-1 184:-1 
1.105382 12:-0.714286 37:0.239741 45:-0.142857 93:-0.195193 94:-0.90438 96:-0.465144 105:-0.25 106:-0.4 109:-0.279279 111:0.318094 119:0.160934 121:0.114684 122:-0.957219 125:-0.475936 130:-0.08 146:-1 147:-1 184:-0.714286 
1.105382 12:-0.142857 37:0.144708 45:-0.142857 93:-0.635294 94:-0.805011 96:-0.127449 105:-0.25 106:-0.4 109:-0.444444 111:0.184031 119:0.022727 121:-0.198566 122:-0.781512 125:-0.79832 130:0.280001 146:-1 147:-1 184:-1 
1.105382 12:-0.428571 37:0.177106 45:-0.428571 93:-0.400001 94:-0.919803 96:-0.19254 105:-0.25 106:-0.6 109:-0.566396 111:0.297165 119:0.147451 121:0.139323 122:-0.885714 125:-0.561904 130:0.0742866 146:-1 147:-1 184:-1 
1.105382 12:0.142857 37:0.0302376 45:0.142857 93:-0.307447 94:-0.894208 96:-0.644946 105:-0.25 106:-0.2 109:-0.346405 111:-0.0319004 119:-0.0975948 121:-0.272649 122:-0.685714 125:-0.914286 130:0.19 146:-1 147:-0.642554 184:-1 
1.105382 12:-0.714286 37:0.570194 45:-0.428571 93:-0.561321 94:-0.624738 96:-0.265329 105:-0.25 106:-0.6 109:-0.63964 111:0.322424 119:0.0503693 121:0.323843 122:-0.717948 125:-0.923077 130:-0.08 146:-1 147:-1 184:-0.714286 
1.105382 12:-0.714286 37:0.570194 45:-0.428571 93:-0.797827 94:-1 96:-0.0326074 105:-0.5 106:-0.6 109:-0.73064 111:0.222623 119:0.301653 121:0.278759 122:-0.589744 125:-0.726496 130:-0.08 146:-0.511112 147:-0.626668 184:-1 
1.105382 12:-0.714286 37:0.572354 45:-0.142857 93:-0.557144 94:-1 96:-0.364284 105:-0.25 106:-0.4 109:-0.519519 111:0.207669 119:0.10565 121:0.083112 122:-0.9 125:-0.5 130:-0.35 146:-1 147:-1 184:-1 
1.105382 12:-0.428571 37:0.190065 45:-0.428571 93:-0.686517 94:-0.888264 96:-0.249999 105:-0.5 106:-0.6 109:-0.703704 111:0.245529 119:0.227272 121:0.0411464 122:-0.818182 125:-1 130:-0.440001 146:-1 147:-1 184:-1 
1.105382 12:-0.714286 37:0.049676 45:-0.428571 93:-0.741667 94:-0.539608 96:-0.278934 105:-0.5 106:-0.6 109:-0.202279 111:0.225702 119:0.25874 121:0.299861 122:-0.764102 125:-0.507692 130:0.41091 146:-1 147:-1 184:-1 
1.105382 12:-0.714286 37:-0.0151188 45:0.142857 93:-0.552885 94:-0.330661 96:-0.251201 105:-0.5 106:-0.2 109:-0.492063 111:0.124148 119:0.0519484 121:-0.00821935 122:-0.555556 125:-0.873016 130:0.46 146:-1 147:-0.650002 184:-1 
1.105382 12:-0.428571 37:0.75378 45:-0.428571 93:-0.736793 94:-0.906184 96:-0.580189 105:-0.5 106:-0.2 109:-0.766082 111:0.315863 119:0.022727 121:0.0982745 122:-0.466666 125:-0.566666 130:-0.35 146:-1 147:-0.676924 184:0.142857 
1.105382 12:-0.428571 37:0.591793 45:-0.428571 93:-0.645715 94:-0.905291 96:-0.682143 105:-0.25 106:-0.4 109:-0.444444 111:0.0376524 119:0.0738634 121:-0.0379457 122:-0.821429 125:-0.571428 130:-0.440001 146:-1 147:-0.366041 184:-0.714286 
1.105382 12:-0.714286 37:0.140389 45:-0.428571 93:-0.225001 94:-0.723765 96:-0.587963 106:-0.6 109:-0.75976 111:0.242875 119:-0.00491523 121:-0.122105 122:-0.666666 125:-0.933333 130:0.0742866 146:-1 147:-0.650002 184:-0.714286 
1.105382 12:-0.428571 37:0.291577 45:-0.142857 93:-0.471591 94:-0.54798 96:-0.367897 105:-0.25 106:-0.4 109:-0.555556 111:0.0866546 119:-0.113635 121:-0.148677 122:-0.581818 125:-0.945455 130:-0.08 146:-0.45 147:-1 184:-1 
1.105382 12:-0.428571 37:0.198704 45:-0.428571 93:-0.902106 94:-0.895322 96:-0.414473 105:-0.5 106:-0.6 109:-0.477124 111:0.274375 119:0.443849 121:0.444559 122:-0.233334 125:-0.933333 130:0.73 146:-1 147:-1 184:-1 
1.105382 12:-0.142857 37:0.475162 45:-0.142857 93:-0.510527 94:-0.790643 96:-0.414473 105:-0.5 106:-0.4 109:-0.426524 111:0.276816 119:0.121702 121:-0.0660892 122:-0.277778 125:-0.555556 130:-0.542858 146:-1 147:-0.650002 184:-1 
1.105382 12:-0.428571 37:0.267819 45:-0.428571 93:-0.706317 94:-0.895322 96:-0.180262 105:-0.5 106:-0.6 109:-0.506172 111:0.0498542 119:0.0795457 121:-0.212761 122:-0.980769 125:-0.884615 130:-0.440001 146:-0.541667 147:-0.650002 184:-0.714286 
1.105382 12:-0.428571 37:0.211663 45:-0.428571 93:-0.886586 94:-0.878726 96:-0.592987 105:-0.5 106:-0.6 109:-0.59596 111:-0.0743113 119:0.239668 121:0.00884723 122:0.25 125:-0.9 130:0.136 146:-1 147:-1 184:-1 
1.105382 12:-0.428571 37:-0.0431965 45:-0.428571 93:-0.649057 94:-0.437106 96:-0.160376 105:-0.5 106:-0.6 109:-0.649123 111:0.116829 119:0.130383 121:0.0675319 122:-0.958333 125:-0.625 130:0.46 146:-1 147:-1 184:-1 
1.105382 12:-0.428571 37:0.669546 45:-0.142857 93:-0.311112 94:-0.386144 96:-0.31327 106:-0.4 109:-0.68254 111:0.181337 119:0.022727 121:0.0960784 122:-0.933333 125:-0.766666 130:0.382858 146:-1 147:-1 184:-1 
1.105382 12:-0.142857 37:0.678186 45:-0.142857 93:-0.165385 94:-0.490027 96:-0.429486 105:-0.25 106:-0.4 109:-0.206349 111:0.271278 119:0.16883 121:0.0543581 122:-0.714286 125:-0.571428 130:-0.296 146:-1 147:-1 184:-0.714286 
1.105382 12:0.142857 37:0.177106 45:0.142857 93:-0.764557 94:-0.622362 96:-0.295885 105:-0.5 106:-0.2 109:-0.0476178 111:0.172063 119:0.022727 121:0.163872 122:-0.6 125:-1 130:1 146:-0.405406 147:-1 184:-1 
1.105382 12:-0.714286 37:0.850972 45:-0.714286 93:-0.667857 94:-0.881613 96:-0.867559 105:-0.5 106:-0.4 109:-0.166667 111:0.155781 119:0.214488 121:0.139101 122:-0.714286 125:-0.428572 130:-0.08 146:-1 147:-1 184:-0.714286 
1.105382 12:-0.428571 37:0.062635 45:-0.428571 93:-0.248485 94:-0.799102 96:-0.325756 106:-0.6 109:-1 111:0.0418673 119:0.0795457 121:0.0508829 122:-0.552448 125:-0.762238 130:0.568 146:-0.52174 147:-1 184:-1 
1.105382 12:-0.142857 37:0.611231 45:-0.142857 93:-0.663856 94:-0.400936 96:-0.597891 105:-0.5 106:-0.2 109:0.07744 111:-0.142234 119:0.177687 121:-0.00442873 122:-1 125:0.5 130:0.136 146:-0.405406 147:-1 184:-1 
1.105382 12:-0.142857 37:0.215983 45:-0.142857 93:-0.806251 94:-0.171295 96:-0.0729156 105:-0.5 106:-0.4 109:-0.298245 111:0.146811 119:0.184212 121:0.290402 122:-0.84127 125:-0.587302 130:-0.234287 146:-1 147:-1 184:-0.714286 
1.105382 12:-0.428571 37:0.401728 45:-0.428571 93:-0.396104 94:-0.354255 96:-0.422076 105:-0.25 106:-0.4 109:-0.506172 111:0.0448789 119:-0.0909102 121:-0.206001 122:-0.733334 125:-0.644444 130:-0.440001 146:-1 147:-1 184:-1 
1.105382 12:-0.428571 37:0.280778 45:-0.142857 93:-0.240817 94:-0.797051 96:-0.659439 105:-0.25 106:-0.4 109:-0.365079 111:0.169188 119:-0.064937 121:-0.13755 122:-0.897059 125:-0.838235 130:-0.851429 146:-1 147:-1 184:-0.714286 
1.105382 12:-0.428571 37:0.00863931 45:-0.428571 93:-0.667857 94:-1 96:-0.470238 105:-0.25 106:-0.4 109:-0.722222 111:0.0288192 119:0.342329 121:0.134537 122:-0.833333 125:-0.666666 130:0.568 146:-1 147:-1 184:-1 
1.105382 12:-0.714286 37:-0.172786 45:-0.428571 93:-0.557144 94:-0.810582 96:-0.0464269 105:-0.25 106:-0.4 109:-0.649123 111:0.0133646 119:-0.138757 121:-0.0515867 122:-0.258742 125:-0.412588 130:0.607273 146:-1 147:-1 184:-0.714286 
1.105382 12:-0.714286 37:0.775378 45:-0.714286 93:-0.540741 94:-0.754457 96:-0.175924 105:-0.25 106:-0.2 109:-0.461279 111:0.00387756 119:0.177687 121:0.123892 122:-0.6 125:-0.6 130:0.280001 146:-1 147:-1 184:-0.714286 
1.105382 12:-0.714286 37:0.771058 45:-0.714286 93:-0.786207 94:-1 96:-0.744253 105:-0.5 106:-0.6 109:-0.399399 111:-0.0465574 119:0.216215 121:0.0673245 122:-0.619048 125:-0.142858 130:-0.296 146:-1 147:-1 184:-0.714286 
1.105382 12:-0.428571 37:0.680346 45:-0.428571 93:-0.667857 94:-0.881613 96:-0.470238 105:-0.25 106:-0.6 109:-0.0849689 111:0.0233013 119:0.263371 121:0.161112 122:-0.833333 125:-0.833333 130:-0.296 146:-1 147:-1 184:-0.714286 
1.105382 12:-0.714286 37:0.511879 45:-0.428571 93:-0.0595478 94:-0.553058 96:-0.499999 106:-0.4 109:-0.461279 111:-0.0696721 119:-0.132232 121:-0.261067 122:-0.381818 125:-0.672728 130:0.19 146:-1 147:-0.600002 184:-1 
1.105382 12:-0.428571 37:0.0712743 45:-0.142857 93:-0.567443 94:-0.884367 96:-0.482558 106:-0.2 109:-0.365079 111:0.0220169 119:0.461039 121:0.254613 122:0.333334 125:-0.428572 130:0.382858 146:-1 147:-1 184:-1 
1.105382 12:-0.428571 37:0.112311 45:-0.428571 93:-0.778572 94:-0.763227 96:-0.337797 105:-0.5 106:-0.6 109:-0.59596 111:0.0647014 119:0.487601 121:0.296459 122:0.5 125:-1 130:0.568 146:-1 147:-0.545948 184:-1 
1.105382 12:-0.428571 37:-0.0280778 45:-0.428571 93:-0.465517 94:-0.657087 96:-0.104883 105:-0.25 106:-0.6 109:-0.477124 111:-0.0172433 119:0.323527 121:0.195467 122:-0.142858 125:-0.714286 130:1 146:-1 147:-0.580001 184:-1 
1.105382 12:-0.428571 37:0.285097 45:-0.142857 93:-0.103616 94:-0.880187 96:-0.195781 105:-0.25 106:-0.4 109:-0.444444 111:0.232064 119:-0.147729 121:-0.375005 122:-0.944056 125:-0.622378 130:0.136 146:-1 147:-1 184:-1 
-4.025641585680443 12:-0.428571 37:0.669546 45:-0.428571 93:-0.500001 94:0.390086 96:0.19624 105:-0.25 106:-0.4 109:-0.569892 111:0.248555 119:-0.0762484 121:-0.0849314 122:-0.958333 125:-0.75 130:-0.234287 146:-1 147:-1 184:-1 
-15.09616 12:-0.142857 37:0.367171 45:-0.142857 93:-0.715307 94:-1 96:-0.432397 105:-0.5 106:-0.4 109:-0.03904 111:0.320595 119:0.54791 121:0.430398 122:-0.454546 125:-0.636364 130:-0.542858 146:-1 147:-0.642554 184:-1 
-15.09616 12:-0.714286 37:0.617711 45:-0.428571 93:-0.693407 94:-1 96:-0.877747 105:-0.5 106:-0.6 109:-0.555556 111:0.552802 119:0.227272 121:0.274775 122:-0.719298 125:-0.4269 130:-0.542858 146:-1 147:-1 184:-0.714286 
-3.503347529881431 12:-0.428571 37:0.544276 45:-0.428571 93:-0.504001 94:-0.867408 96:-0.554999 105:-0.25 106:-0.6 109:-0.444444 111:0.448785 119:0.193183 121:-0.0282121 122:0.2 125:-0.1 130:-0.08 146:-1 147:-1 184:-1 
-0.04416886602606334 12:-0.428571 37:0.460043 45:-0.428571 93:-0.551807 94:-0.281123 96:-0.195781 105:-0.25 106:-0.6 109:-0.506172 111:0.232064 119:0.0606048 121:0.010322 122:-0.8 125:-0.8 130:-0.296 146:-1 147:-0.533334 184:-1 
-15.09616 12:-0.428571 37:0.518359 45:-0.142857 93:-0.34353 94:-0.181045 96:-0.345588 105:-0.25 106:-0.4 109:-0.341564 111:0.337684 119:-0.0151507 121:0.0589957 122:-0.733334 125:-0.733334 130:-0.234287 146:-1 147:-1 184:-1 
-15.09616 12:-0.428571 37:0.62851 45:-0.428571 93:-0.791012 94:-1 96:-0.624999 105:-0.5 106:-0.6 109:-0.713261 111:0.404432 119:0.319649 121:0.258918 122:-0.86014 125:-0.748252 130:-0.35 146:-1 147:-0.590246 184:-0.714286 
-15.09616 12:-0.714286 37:0.50324 45:-0.428571 93:-0.804211 94:-0.685965 96:-0.297367 105:-0.25 106:-0.6 109:-0.492063 111:0.352469 119:0.577921 121:0.663464 122:-0.95 125:-0.85 130:0.280001 146:-1 147:-0.600002 184:-1 
-7.38628264547232 12:-0.714286 37:0.289417 45:-0.428571 93:-1 94:-1 96:-0.541237 105:-0.75 106:-0.6 109:-0.607844 111:0.421029 119:0.383688 121:0.581985 122:-0.584416 125:-0.844156 130:0.52 146:0.404255 147:-0.642554 184:-1 
-9.136628044092637 12:-0.714286 37:0.535637 45:-0.714286 93:-0.424743 94:-0.589919 96:-0.197164 105:0.25 106:-0.6 109:-0.477124 111:0.514244 119:0.323527 121:0.414494 122:0.047058 125:-0.764706 130:-0.08 146:-0.488372 147:-0.609304 184:-0.714286 
-10.52378499693623 12:-0.714286 37:0.313175 45:-0.428571 93:-0.682955 94:-0.54798 96:0.517052 105:-0.5 106:-0.6 109:-0.166667 111:0.0866546 119:0.278409 121:0.0660921 122:-0.333334 125:-0.833333 130:-0.08 146:-1 147:-1 184:-1 
-15.09616 12:-0.714286 37:0.75378 45:-0.428571 93:-0.808247 94:-0.89748 96:-0.197164 105:-0.25 106:-0.4 109:-0.444444 111:0.282401 119:0.214488 121:0.139101 122:-0.525 125:-0.375 130:-0.234287 146:-1 147:-1 184:-1 
-0.9721644530528166 12:-0.428571 37:0.838013 45:-0.428571 93:-0.59121 94:-1 96:-0.266482 105:-0.5 106:-0.6 109:-0.326599 111:-0.0204357 119:0.177687 121:-0.0840728 122:0.04762 125:-0.777778 130:-0.08 146:-1 147:-0.18049 184:-1 
-15.09616 12:-0.142857 37:0.5054 45:-0.142857 93:-0.791012 94:-0.776529 96:-0.374999 105:-0.5 106:-0.4 109:-0.569892 111:0.412247 119:0.319649 121:0.489723 122:-0.944056 125:-0.832168 130:-0.200001 146:-0.463416 147:-1 184:-1 
-15.09616 12:-0.428571 37:0.732181 45:-0.428571 93:-0.628 94:-0.900555 96:-0.221249 105:-0.5 106:-0.6 109:-0.326599 111:0.262539 119:0.0537198 121:-0.0929244 122:-0.813765 125:-0.781376 130:-0.234287 146:-1 147:-0.67059 184:-1 
-15.04894901420417 12:-0.428571 37:0.434125 45:-0.428571 93:-0.726471 94:-0.707516 96:-0.236518 105:-0.5 106:-0.6 109:-0.461279 111:0.361323 119:0.0537198 121:0.141589 122:-0.936508 125:-0.888889 130:-0.542858 146:-1 147:-0.664001 184:-1 
-15.09616 12:-0.428571 37:0.758099 45:-0.428571 93:-0.494566 94:-0.783816 96:-0.153531 105:-0.25 106:-0.6 109:-0.426524 111:0.393985 119:0.121702 121:0.348412 122:-0.722222 125:-1 130:0.19 146:-1 147:-1 184:-0.714286 
-15.09616 12:-0.714286 37:0.451404 45:-0.142857 93:-0.6 94:-1 96:-0.282257 105:-0.5 106:-0.4 109:-0.166667 111:0.325835 119:0.214488 121:0.303371 122:-0.974026 125:-0.506494 130:0.0742866 146:-1 147:-1 184:-1 
-13.94283406156037 12:-0.142857 37:0.775378 45:-0.142857 93:-0.682955 94:-1 96:-0.620738 105:-0.5 106:-0.4 109:-0.0476178 111:0.294786 119:0.16883 121:0.0178536 122:-0.52381 125:-0.873016 130:0.136 146:-0.511112 147:-0.626668 184:-1 
-15.09616 12:-0.428571 37:0.390929 45:-0.142857 93:-0.6 94:-0.572281 96:-0.401881 105:-0.5 106:-0.4 109:-0.407407 111:0.340793 119:0.0909102 121:0.0606165 122:-0.553572 125:-0.910714 130:-0.62 146:-1 147:-0.253336 184:-1 
-6.788974928590919 12:-0.714286 37:0.846652 45:-0.714286 93:-0.400001 94:-1 96:-0.521504 105:-0.25 106:-0.4 109:-0.444444 111:0.315863 119:0.150568 121:0.266867 122:-0.854545 125:-0.660606 130:-0.200001 146:-0.52174 147:-0.634784 184:-1 
-12.12538156043888 12:0.142857 37:0.691145 45:0.142857 93:-0.898913 94:-0.567632 96:-0.637228 105:-0.5 106:-0.2 109:-0.283154 111:0.373824 119:-0.0102661 121:0.254207 122:-0.960784 125:-0.51634 130:-0.542858 146:-1 147:-1 184:-1 
-15.09616 12:-0.428571 37:0.835853 45:-0.428571 93:-0.806251 94:-1 96:-0.304686 105:-0.5 106:-0.6 109:-0.607844 111:0.284467 119:0.263371 121:0.143931 122:-0.503268 125:-0.699346 130:-0.440001 146:-1 147:-1 184:-1 
-10.60542542278355 12:-0.428571 37:0.341253 45:-0.142857 93:-0.718182 94:-1 96:0.0113653 105:-0.5 106:-0.4 109:-0.346405 111:0.397829 119:0.263371 121:0.470325 122:-0.934066 125:-0.978022 130:0.0742866 146:-1 147:-1 184:-1 
-15.09616 12:-0.714286 37:0.915767 45:-0.714286 93:-0.565421 94:-0.814122 96:-0.584111 105:-0.25 106:-0.4 109:-0.569892 111:0.640876 119:-0.0102661 121:0.522693 122:-0.587302 125:-0.746032 130:-0.512 146:-0.568628 147:-0.67059 184:-1 
-1.387065600764199 12:-0.428571 37:0.740821 45:-0.428571 93:-0.586668 94:-1 96:0.112502 105:-0.25 106:-0.6 109:-0.84127 111:0.452393 119:0.0957784 121:0.101294 122:-0.823529 125:-0.705882 130:-0.542858 146:-1 147:-1 184:-0.714286 
-15.09616 12:-0.142857 37:0.712743 45:-0.142857 93:-0.530303 94:-0.698653 96:-0.550505 105:-0.25 106:-0.4 109:-0.279279 111:0.31118 119:0.271499 121:0.221236 122:-0.873016 125:-0.68254 130:-0.35 146:-1 147:-1 184:-0.714286 
-14.39762403543797 12:-0.428571 37:0.222462 45:-0.428571 93:-0.635294 94:-0.415032 96:0.0906878 105:-0.5 106:-0.6 109:-0.215686 111:0.272678 119:0.143049 121:0.00220925 122:-0.70238 125:-0.940476 130:-0.440001 146:-1 147:-1 184:-1 
-12.10529660075473 12:-0.428571 37:0.762419 45:-0.428571 93:-0.471591 94:-0.208963 96:-0.241476 106:-0.4 109:-0.233716 111:0.27371 119:0.128526 121:0.135641 122:-0.692308 125:-0.969231 130:-0.542858 146:-1 147:-1 184:-1 
-12.27348760235238 12:-0.428571 37:0.822894 45:-0.428571 93:-0.59121 94:-0.672161 96:-0.388735 105:-0.5 106:-0.6 109:-0.407407 111:0.221598 119:0.159089 121:0.0119428 122:-0.923077 125:-0.788462 130:-0.234287 146:-1 147:-1 184:-1 
-15.09616 12:-0.428571 37:0.555076 45:-0.142857 93:-0.358622 94:-0.657087 96:-0.232758 105:-0.25 106:-0.4 109:-0.48718 111:0.510398 119:0.022727 121:0.187541 122:-0.222222 125:-0.805556 130:-0.234287 146:-1 147:-0.609304 184:-0.714286 
-3.069857786325792 12:-0.714286 37:0.339093 45:-0.428571 93:-0.624243 94:-0.598204 96:-0.213382 105:-0.25 106:-0.4 109:-0.283154 111:0.313522 119:0.0557202 121:-0.00956564 122:-0.583334 125:-0.527778 130:-0.542858 146:-1 147:-1 184:-1 
-15.09616 12:-0.714286 37:0.930886 45:-0.714286 93:-1 94:-0.476607 96:-0.0631567 105:-0.75 109:0.481484 111:0.596515 119:0.56818 121:0.586281 122:-0.666666 125:-0.888889 130:-0.62 146:-1 147:-0.642554 184:-1 
-15.09616 12:-0.714286 37:0.758099 45:-0.428571 93:-0.9 94:-0.78614 96:-0.521504 105:-0.5 106:-0.6 109:-0.73064 111:0.355749 119:0.239668 121:0.247785 122:-0.935897 125:-0.961538 130:-0.35 146:-1 147:-1 184:-1 
-15.09616 12:-0.714286 37:0.550756 45:-0.428571 93:-0.608421 94:-0.895322 96:-0.180262 105:-0.5 106:-0.6 109:-0.583333 111:0.328065 119:0.150568 121:0.056966 122:-0.846154 125:-1 130:-0.234287 146:-1 147:-0.236367 184:-0.714286 
-13.95894002628684 12:-0.714286 37:0.265659 45:-0.428571 93:-0.582023 94:-0.664793 96:0.499997 106:-0.6 109:-0.444444 111:0.388803 119:0.342329 121:0.294245 122:-0.933333 125:-0.6 130:-0.08 146:-1 147:-0.590246 184:-0.714286 
-15.09616 12:-0.428571 37:0.580994 45:-0.142857 93:-0.163001 94:-0.900555 96:-0.443749 105:-0.25 106:-0.4 109:-0.0572356 111:0.325137 119:0.177687 121:0.230085 122:-0.835897 125:-0.651282 130:-0.234287 146:-1 147:-0.253336 184:-1 
-3.180349269524348 12:0.142857 37:0.833693 45:0.142857 93:-0.616495 94:-0.0773182 96:-0.197164 105:-0.25 106:-0.2 109:0.0457511 111:0.370835 119:0.0828879 121:0.375843 122:-0.977273 125:-0.988636 130:-0.296 146:-1 147:-1 184:-1 
-15.09616 12:-0.428571 37:0.732181 45:-0.428571 93:-0.500001 94:-0.572281 96:-0.641128 105:-0.5 106:-0.6 109:-0.111111 111:0.338299 119:0.022727 121:0.00220925 122:-0.733334 125:-1 130:-0.542858 146:-1 147:-1 184:-1 
-15.09616 12:-0.428571 37:0.704104 45:-0.428571 93:-0.819417 94:-0.903452 96:-0.24393 105:-0.5 106:-0.6 109:-0.703704 111:0.525196 119:-0.0454561 121:0.128757 122:-0.628572 125:-0.757142 130:-0.542858 146:-1 147:-1 184:-1 
-15.09616 12:-0.714286 37:0.526998 45:-0.428571 93:-0.6 94:-0.78614 96:-0.282257 105:-0.5 106:-0.4 109:-0.703704 111:0.447988 119:0.363635 121:0.386724 122:-0.74359 125:-0.538462 130:0.0742866 146:-1 147:-1 184:-0.714286 
-15.09616 12:-0.714286 37:0.825054 45:-0.428571 93:-0.489011 94:-0.453601 96:-0.144229 105:-0.25 106:-0.6 109:-0.703704 111:0.369366 119:0.159089 121:0.323449 122:-0.811765 125:-0.611764 130:0.46 146:-1 147:-0.634784 184:-1 
-15.09616 12:-0.714286 37:0.833693 45:-0.714286 93:-0.7 94:-0.572281 96:-0.521504 105:-0.25 106:-0.4 109:-0.426524 111:0.29592 119:0.121702 121:0.0186947 122:-0.925134 125:-0.657754 130:-0.440001 146:-1 147:-0.642554 184:-1 
-13.22173408695212 12:-0.428571 37:0.395248 45:-0.428571 93:-0.424743 94:-0.89748 96:-0.197164 105:-0.5 106:-0.6 109:-0.326599 111:0.344544 119:0.301653 121:0.380527 122:-0.444444 125:-0.777778 130:0.46 146:-0.463416 147:-0.590246 184:-1 
-15.09616 12:-0.428571 37:0.669546 45:-0.142857 93:-0.797827 94:-0.783816 96:-0.153531 105:-0.5 106:-0.4 109:-0.492063 111:0.283104 119:0.16883 121:0.346394 122:-0.866667 125:-0.644444 130:-0.08 146:-0.499999 147:-1 184:-0.714286 
-4.179832433925413 12:-0.714286 37:0.786177 45:-0.428571 93:-0.393479 94:-0.783816 96:0.0883171 105:-0.5 106:-0.6 109:-0.703704 111:0.363743 119:0.022727 121:0.26991 122:-0.71591 125:-0.613636 130:0.280001 146:-0.511112 147:-1 184:-1 
-15.09616 12:-0.428571 37:0.479482 45:-0.428571 93:-0.595652 94:-0.783816 96:-0.153531 105:-0.5 106:-0.4 109:-0.326599 111:0.225143 119:0.363635 121:0.314156 122:-0.5 125:-0.535714 130:0.280001 146:-0.52174 147:-0.634784 184:-1 
-2.175565263218355 12:-0.428571 37:0.488121 45:-0.428571 93:-1 94:-0.368605 96:-0.823413 105:-0.75 106:-0.6 109:0.0582044 111:0.337944 119:0.16883 121:0.311627 122:-0.75 125:-1 130:1 146:-1 147:-1 184:-1 
-15.09616 12:-0.714286 37:0.647948 45:-0.428571 93:-0.895505 94:-0.888264 96:-0.124998 105:-0.5 106:-0.6 109:-0.139785 111:0.268973 119:0.385632 121:0.27776 122:-0.762238 125:-0.986014 130:0.382858 146:-1 147:-1 184:-1 
-15.09616 12:-0.714286 37:0.36933 45:-0.428571 93:-0.734286 94:-0.810582 96:0.0595255 105:-0.25 106:-0.6 109:-0.132791 111:0.366648 119:0.496675 121:0.588063 122:0.076924 125:-0.48718 130:-0.542858 146:-1 147:-1 184:-0.714286 
-8.842669698759504 12:-0.428571 37:0.518359 45:-0.142857 93:-0.6 94:-0.679211 96:-0.282257 105:-0.25 106:-0.4 109:-0.703704 111:0.445496 119:0.363635 121:0.352652 122:-0.660714 125:-0.910714 130:0.46 146:-0.0222233 147:-0.626668 184:-1 
-15.09616 12:-0.714286 37:0.615551 45:-0.428571 93:-0.65125 94:-0.627083 96:-0.582812 105:-0.25 106:-0.4 109:-0.316239 111:0.353538 119:0.180072 121:0.238084 122:-0.7 125:-0.9 130:-0.234287 146:-1 147:-1 184:-1 
-10.32465310735457 12:-0.428571 37:0.544276 45:-0.142857 93:-0.706317 94:-0.476607 96:0.0539485 105:-0.5 106:-0.4 109:-0.326599 111:0.164556 119:0.301653 121:0.0265446 122:-0.979798 125:-0.636364 130:-0.296 146:-1 147:-1 184:-1 
-5.465317843017724 12:-0.714286 37:0.546436 45:0.142857 93:-0.243025 94:-1 96:0.0348858 105:-0.25 106:-0.2 109:-0.316239 111:0.483005 119:0.180072 121:0.260547 122:-0.966667 125:-0.9 130:-0.542858 146:-1 147:-1 184:-1 
-15.09616 12:-0.428571 37:0.673866 45:-0.428571 93:-0.586668 94:-0.779012 96:-0.505555 105:-0.5 106:-0.6 109:-0.25926 111:0.246311 119:0.295456 121:0.177431 122:-0.584616 125:-0.615384 130:-0.234287 146:-1 147:-1 184:-1 
-12.83545301060236 12:-0.142857 37:0.829374 45:0.428571 93:-0.901064 94:-1 96:-0.171541 105:-0.5 109:0.3468 111:0.461381 119:0.487601 121:0.561946 122:-0.560606 125:-0.969697 130:-0.62 146:-1 147:-0.618183 184:-1 
-15.09616 12:-0.428571 37:0.647948 45:-0.428571 93:-0.307447 94:-0.471039 96:-0.171541 106:-0.6 109:-0.0277778 111:0.298598 119:0.0866475 121:0.29881 122:-0.782052 125:-0.961538 130:-0.200001 146:-1 147:-1 184:-1 
-5.983080936666394 12:0.142857 37:0.820734 45:0.142857 93:-0.225001 94:-0.896412 96:-0.1888 105:-0.25 106:-0.2 109:-0.856631 111:0.332769 119:0.0557202 121:-0.113192 122:-0.419608 125:-0.552942 130:-0.440001 146:-1 147:-0.253336 184:-1 
-15.09616 12:-0.714286 37:0.440605 45:-0.428571 93:-0.452942 94:-0.649019 96:-0.0838226 105:-0.25 106:-0.4 109:-0.233716 111:0.389508 119:0.0579948 121:0.321939 122:-1 125:-0.5 130:0.280001 146:-1 147:-0.580001 184:-1 
-11.74974812141013 12:-0.428571 37:0.604752 45:0.142857 93:-0.400001 94:-0.78614 96:-0.162633 106:-0.2 109:-0.0123467 111:0.535242 119:0.21212 121:0.313175 122:0.09804 125:-0.796078 130:-0.234287 146:-1 147:-0.590246 184:-1 
-8.086491447994039 12:-0.428571 37:0.49892 45:-0.428571 93:-0.342425 94:-1 96:-0.325756 105:-0.25 106:-0.6 109:-0.693486 111:0.566441 119:0.0579948 121:0.472992 122:-0.69697 125:-0.721212 130:-0.296 146:-0.56 147:-1 184:-1 
-15.09616 12:-0.714286 37:0.74946 45:-0.714286 93:-0.232991 94:-0.69244 96:-0.197164 105:-0.25 106:-0.4 109:-0.191919 111:0.275231 119:0.115701 121:0.132741 122:-0.29697 125:-0.769696 130:-0.234287 146:-1 147:-1 184:-1 
-15.09616 12:-0.142857 37:0.63067 45:-0.142857 93:-0.696739 94:-0.891908 96:-0.516303 105:-0.25 106:-0.4 109:-0.139785 111:0.247822 119:0.187685 121:0.136452 122:-0.984127 125:-0.825397 130:-0.08 146:-1 147:-0.138463 184:-1 
-15.09616 12:-0.714286 37:0.490281 45:-0.428571 93:-0.577274 94:-0.886995 96:-0.367897 105:-0.5 106:-0.6 109:-0.386973 111:0.442322 119:0.199057 121:0.342078 122:-0.588236 125:-0.529412 130:0.19 146:-1 147:-1 184:-1 
-14.45743790618629 12:-0.714286 37:0.855292 45:-0.714286 93:-0.586668 94:-0.668518 96:-0.629166 105:-0.25 106:-0.4 109:0.00358222 111:0.344199 119:-0.0102661 121:0.178844 122:-0.803922 125:-0.588236 130:-0.234287 146:-0.388888 147:-1 184:-0.714286 
-15.09616 12:-0.428571 37:0.49892 45:-0.428571 93:-0.709375 94:-0.792824 96:-0.0729156 105:-0.5 106:-0.6 109:-0.569892 111:0.340014 119:0.187685 121:0.183555 122:-0.87013 125:-0.935065 130:-0.234287 146:-1 147:-1 184:-1 
-15.09616 12:-0.428571 37:0.650108 45:-0.428571 93:-0.520619 94:-0.89748 96:0.0322181 105:-0.25 106:-0.6 109:-0.461279 111:0.236988 119:0.115701 121:0.168138 122:-0.813187 125:-0.516484 130:-0.440001 146:-0.52174 147:-0.634784 184:-1 
-15.09616 12:-0.428571 37:0.654428 45:-0.428571 93:-0.489011 94:-0.89072 96:-0.266482 105:-0.25 106:-0.6 109:-0.0277778 111:0.371913 119:0.150568 121:0.171041 122:-0.324676 125:-0.844156 130:-0.440001 146:-1 147:-1 184:-0.714286 
-4.255635208762181 12:-1 37:0.954644 45:-1 93:-0.243025 94:-1 96:-0.741279 105:-0.5 106:-0.6 109:-0.54023 111:0.337429 119:0.199057 121:0.301797 122:-0.416666 125:-0.833333 130:-0.542858 146:-0.45 147:-1 184:-1 
-10.24623393868291 12:0.428571 37:0.647948 45:0.428571 93:-0.335715 94:-0.898526 96:-0.432397 105:-0.5 109:-0.139785 111:0.55007 119:0.253667 121:0.546243 122:-0.396826 125:-0.539682 130:-0.512 146:-1 147:-1 184:-1 
-7.878975141151368 12:-0.428571 37:0.587473 45:-0.142857 93:-0.693407 94:-0.781441 96:-0.388735 105:-0.5 106:-0.4 109:-0.407407 111:0.315863 119:0.159089 121:0.265042 122:-0.675214 125:-0.863248 130:0.0742866 146:-1 147:-1 184:-1 
-15.09616 12:-0.428571 37:0.520518 45:-0.428571 93:-0.781177 94:-1 96:-0.47647 105:-0.5 106:-0.6 109:-0.407407 111:0.239492 119:0.500001 121:0.308847 122:-0.666666 125:-0.733334 130:0.280001 146:-1 147:-0.520002 184:-1 
-15.09616 12:-0.428571 37:0.766739 45:-0.428571 93:-0.624243 94:-0.497754 96:-0.213382 105:-0.5 106:-0.4 109:-0.444444 111:0.229214 119:-0.0411934 121:-0.171187 122:-0.983806 125:-0.805668 130:-0.234287 146:-1 147:-0.328002 184:-1 
-15.09616 12:-0.714286 37:0.682505 45:-0.714286 93:-0.6 94:-1 96:-0.641128 105:-0.25 106:-0.6 109:-0.693486 111:0.547706 119:0.269593 121:0.4025 122:-0.5 125:-0.75 130:-0.542858 146:-1 147:-0.618183 184:-1 
-7.587830139403221 12:-0.714286 37:0.928726 45:-0.714286 93:-0.910577 94:-0.90438 96:-0.0372577 105:-0.5 106:-0.4 109:-0.59596 111:0.563311 119:-0.070247 121:0.570795 122:-0.111112 125:-0.933333 130:-0.512 146:-0.0638297 147:-0.642554 184:-1 
-15.09616 12:-0.428571 37:0.758099 45:-0.428571 93:-0.510527 94:-0.895322 96:-0.297367 105:-0.5 106:-0.6 109:-0.555556 111:0.347589 119:-0.0454561 121:0.0849518 122:-0.783334 125:-0.958333 130:-0.542858 146:-1 147:-0.618183 184:-1 
