svm_type c_svc
kernel_type rbf
gamma 0.125
nr_class 2
total_sv 112
rho 14.8069
label 1 -1
nr_sv 49 63
SV
249.7456 12:-0.428571 37:0.548596 45:-0.428571 93:-0.682955 94:-0.773989 96:-0.115055 105:-0.5 106:-0.6 109:-0.555556 111:0.294786 119:0.363635 121:0.226105 122:-0.9 125:-0.9 130:-0.296 146:-1 147:-1 184:-1 
249.7456 12:-0.142857 37:0.732181 45:-0.142857 93:-0.703192 94:-0.682624 96:-0.171541 105:-0.25 106:-0.4 109:-0.346405 111:0.308465 119:0.323527 121:0.397316 122:-0.44056 125:-0.93007 130:-0.200001 146:-1 147:-1 184:-1 
249.7456 12:-0.428571 37:0.660907 45:-0.428571 93:-0.655556 94:-0.508916 96:-0.31327 105:-0.25 106:-0.4 109:-0.407407 111:0.224272 119:0.227272 121:0.133625 122:-0.954545 125:-0.727272 130:-0.08 146:-1 147:-0.160003 184:-1 
67.30663923711354 12:-0.428571 37:0.557235 45:-0.428571 93:-0.660585 94:-0.201539 96:-0.10675 105:-0.25 106:-0.4 109:-0.0697689 111:0.359862 119:0.14165 121:0.0921972 122:-0.5 125:-0.5 130:-0.680001 146:-0.614034 147:-1 184:-0.714286 
113.542438991951 12:-0.714286 37:0.529158 45:-0.428571 93:-0.403846 94:0.0199436 96:-0.572115 105:-0.25 106:-0.6 109:-0.444444 111:0.535817 119:0.107953 121:0.476768 122:-0.515152 125:-0.878788 130:0.382858 146:-1 147:-1 184:-1 
89.23958762455226 12:-0.142857 37:0.537797 45:-0.142857 93:-0.847542 94:-0.266392 96:0.27664 105:-0.5 106:-0.2 109:0.300809 111:0.35577 119:0.247228 121:0.25685 122:-0.832727 125:-0.745454 130:-0.62 146:-1 147:-1 184:-1 
47.54064404494837 12:-0.428571 37:0.784017 45:-0.428571 93:-0.130842 94:0.0223303 96:-0.688083 105:-0.5 106:-0.6 109:-0.305556 111:0.404701 119:-0.0411934 121:0.0752183 122:-0.628572 125:-0.771428 130:-0.296 146:-0.576922 147:-0.353849 184:-1 
82.45947930584447 12:-0.714286 37:0.907127 45:-0.714286 93:-0.76356 94:-0.494349 96:-0.528601 105:-0.25 106:-0.4 109:-0.649123 111:0.575211 119:0.23804 121:0.401837 122:-0.222222 125:-0.962963 130:-0.512 146:-1 147:-0.657143 184:-0.714286 
35.42690478893851 12:-0.428571 37:0.853132 45:-0.428571 93:-0.695082 94:-0.673952 96:-0.27049 105:-0.25 106:-0.6 109:-0.457995 111:0.46599 119:-0.0521079 121:0.424236 122:-0.69855 125:-0.994203 130:-0.57091 146:-1 147:-0.733334 184:-1 
73.65673938951495 12:-0.714286 37:0.615551 45:-0.428571 93:-0.867143 94:-0.857936 96:-0.682143 105:-0.5 106:-0.6 109:-0.316239 111:0.352295 119:0.337412 121:0.541352 122:-0.642858 125:-0.571428 130:0.0742866 146:-0.333334 147:-1 184:-1 
97.16210883669153 12:-0.428571 37:0.693305 45:-0.428571 93:-0.535001 94:-0.801111 96:-0.7775 105:-0.5 106:-0.2 109:-0.607844 111:0.556979 119:0.20321 121:0.586281 122:-0.6 125:-0.733334 130:-0.512 146:-0.541667 147:-0.650002 184:-1 
85.42164830131888 12:-0.714286 37:0.334773 45:-0.428571 93:-0.577274 94:-0.434974 96:-0.115055 106:-0.6 109:-0.111111 111:0.397534 119:0.295456 121:0.347784 122:-0.472222 125:-0.486112 130:-0.08 146:-1 147:-0.557896 184:-1 
249.7456 12:-0.428571 37:0.7473 45:-0.428571 93:-0.788636 94:-0.773989 96:-0.620738 105:-0.5 106:-0.6 109:-0.346405 111:0.207846 119:0.323527 121:0.315719 122:-0.555556 125:-1 130:-0.234287 146:-1 147:-0.600002 184:-1 
83.51885147459448 12:-0.428571 37:0.516199 45:-0.428571 93:-0.764557 94:-0.748241 96:-0.436708 105:-0.5 106:-0.6 109:-0.48718 111:0.588793 119:0.573425 121:0.614361 122:-0.933333 125:-0.511112 130:0.568 146:-1 147:-1 184:-1 
29.51648383522498 12:-0.142857 37:0.863931 45:-0.142857 93:-0.471591 94:-1 96:0.137789 105:-0.25 106:-0.4 109:-0.365079 111:0.373824 119:0.0957784 121:0.0439295 122:-0.555556 125:-0.722222 130:-0.08 146:-1 147:-0.626668 184:-1 
41.22041782690908 12:-0.428571 37:0.557235 45:-0.428571 93:-0.500001 94:-0.89307 96:-0.521504 105:-0.25 106:-0.6 109:-0.0804622 111:0.445496 119:0.128526 121:0.296763 122:-0.591666 125:-0.841667 130:-0.08 146:-0.488372 147:-0.609304 184:-1 
29.52060945617436 12:-0.142857 37:0.704104 45:-0.142857 93:-0.795605 94:-0.672161 96:-0.144229 105:-0.25 106:-0.4 109:0.07744 111:0.455989 119:0.301653 121:0.415928 122:-0.533334 125:-0.866667 130:-0.35 146:-0.476191 147:-1 184:-0.428571 
71.75912377406655 12:-0.142857 37:0.896328 45:-0.142857 93:-0.418751 94:-1 96:-0.443749 105:-0.25 106:-0.4 109:-0.365079 111:0.498439 119:0.0957784 121:0.268169 122:-0.982906 125:-0.760684 130:-0.440001 146:-1 147:-0.533334 184:-0.714286 
82.47974893053467 12:-0.428571 37:0.414687 45:-0.428571 93:-0.667857 94:-0.526455 96:-0.470238 105:-0.5 106:-0.6 109:-0.25926 111:0.608427 119:-0.147729 121:0.257741 122:-0.727272 125:-1 130:-0.35 146:-1 147:-1 184:-1 
44.67093872433651 12:-0.714286 37:0.827214 45:-0.714286 93:-0.788636 94:-1 96:-0.747158 105:-0.5 106:-0.4 109:-0.532164 111:0.677679 119:0.184212 121:0.459476 122:-0.688276 125:-0.332414 130:-0.680001 146:-1 147:-1 184:-1 
58.88234224100211 12:-0.428571 37:0.436285 45:-0.428571 93:-0.628 94:-1 96:-0.332499 105:-0.5 106:-0.6 109:-0.0572356 111:0.441058 119:0.239668 121:0.212388 122:-0.542858 125:-0.622858 130:-0.542858 146:-1 147:-1 184:-1 
249.7456 12:-0.428571 37:0.62203 45:-0.428571 93:-0.592106 94:-0.912768 96:-0.316885 105:-0.5 106:-0.6 109:-0.492063 111:0.443986 119:-0.00649432 121:0.104422 122:-0.592678 125:-0.858124 130:-0.296 146:-1 147:-0.68302 184:-1 
249.7456 12:-0.428571 37:0.537797 45:-0.142857 93:-0.852381 94:-0.684303 96:-0.293649 105:-0.5 106:-0.4 109:-0.349594 111:0.341623 119:0.0476734 121:0.12864 122:-0.938375 125:-0.69748 130:-0.374546 146:-1 147:-0.115792 184:-0.714286 
142.4230371926825 12:-0.714286 37:0.473002 45:-0.142857 93:-0.786207 94:-1 96:0.150861 105:-0.5 106:-0.4 109:-0.206349 111:0.363831 119:0.16883 121:0.184732 122:-0.833333 125:-0.833333 130:-0.08 146:-1 147:-0.569233 184:-1 
99.89963979563215 12:-0.142857 37:0.75378 45:-0.142857 93:-0.354168 94:-1 96:-0.536457 105:-0.25 106:-0.4 109:0.111111 111:0.451104 119:0.278409 121:0.288162 122:-0.824176 125:-0.758242 130:-0.728 146:-1 147:-1 184:-1 
42.40856641323638 12:-0.714286 37:0.645788 45:-0.714286 93:-0.758442 94:-1 96:-0.277596 105:-0.5 106:-0.6 109:-0.233716 111:0.409203 119:0.551722 121:0.563622 122:-0.535714 125:-0.928571 130:0.382858 146:-0.388888 147:-1 184:-0.714286 
69.30121875166994 12:-0.714286 37:0.507559 45:-0.428571 93:-0.26854 94:-0.888264 96:1.1125e-06 105:-0.25 106:-0.6 109:-0.283154 111:0.383591 119:0.253667 121:0.447328 122:-0.8 125:-0.942857 130:-0.08 146:-1 147:-0.580001 184:-1 
60.85297782796376 12:0.142857 37:0.781857 45:0.142857 93:-1 94:-0.865616 96:-0.0979714 105:-0.75 106:-0.2 109:-0.227053 111:0.416119 119:0.0671952 121:0.33551 122:-0.919192 125:-0.79798 130:0.0742866 146:-1 147:-1 184:-1 
76.18564198152048 12:-0.428571 37:0.606911 45:-0.142857 93:-0.738029 94:-0.719875 96:-0.373239 105:-0.5 106:-0.4 109:-0.444444 111:0.302801 119:0.278409 121:0.10564 122:-0.944444 125:-0.805556 130:-0.296 146:-1 147:-0.475002 184:-1 
249.7456 12:-0.142857 37:0.75162 45:-0.142857 93:-0.256001 94:-0.900555 96:-0.554999 105:-0.25 106:-0.4 109:-0.0277778 111:0.366869 119:0.278409 121:0.193858 122:-0.497326 125:-0.572192 130:-0.542858 146:-0.476191 147:-0.600002 184:-1 
60.16048938528353 12:-0.428571 37:0.643629 45:-0.142857 93:-0.351164 94:-0.537467 96:-0.223836 105:-0.5 106:-0.2 109:-0.111111 111:0.340126 119:0.159089 121:0.114155 122:-0.466666 125:-0.733334 130:-0.296 146:-1 147:-1 184:-1 
5.632059557547805 12:-0.714286 37:0.7473 45:-0.428571 93:-0.7 94:-0.89307 96:-0.521504 105:-0.25 106:-0.6 109:-0.0572356 111:0.408102 119:0.301653 121:0.384955 122:-0.828571 125:-0.571428 130:0.19 146:-1 147:-0.600002 184:-0.714286 
107.9216969281846 12:-0.714286 37:0.637149 45:-0.428571 93:-0.661819 94:-0.728788 96:-0.190908 105:-0.25 106:-0.6 109:-0.238095 111:0.374879 119:0.16883 121:0.125282 122:-0.625418 125:-0.953177 130:-0.440001 146:-1 147:-1 184:-1 
249.7456 12:-0.428571 37:0.814255 45:-0.428571 93:-0.615703 94:-0.753443 96:-0.0805774 105:-0.5 106:-0.6 109:-0.666667 111:0.369514 119:-0.130682 121:0.279643 122:-0.939799 125:-0.752508 130:-0.512 146:-0.576922 147:-0.676924 184:-1 
193.1157876707751 12:-0.714286 37:0.565875 45:-0.428571 93:-0.815842 94:-1 96:-0.559405 105:-0.5 106:-0.6 109:-0.753086 111:0.488022 119:0.420453 121:0.525441 122:-0.833333 125:-0.566666 130:-0.440001 146:-1 147:-0.642554 184:-1 
249.7456 12:-0.714286 37:0.706263 45:-0.428571 93:-0.65125 94:-0.875694 96:-0.582812 105:-0.5 106:-0.6 109:-0.0740711 111:0.402804 119:0.022727 121:0.160396 122:-1 125:-1 130:-0.234287 146:-1 147:-1 184:-1 
29.27561283903733 12:-0.714286 37:0.444924 45:-0.714286 93:-0.664866 94:-0.820821 96:-0.498874 105:-0.25 106:-0.6 109:-0.506172 111:0.491312 119:0.477272 121:0.586281 122:-0.833333 125:-0.833333 130:0.136 146:0.245283 147:-1 184:-1 
168.3173970394805 12:-0.714286 37:0.667387 45:-0.428571 93:-0.551807 94:-0.640561 96:-0.0617461 105:-0.5 106:-0.6 109:-0.0476178 111:0.27955 119:0.16883 121:0.210808 122:-0.863248 125:-0.65812 130:0.0742866 146:-1 147:-1 184:-1 
249.7456 12:-0.714286 37:0.887689 45:-0.714286 93:-0.599139 94:-0.828544 96:-0.328663 105:-0.5 106:-0.4 109:-0.75976 111:0.395809 119:0.10565 121:0.0475917 122:-0.739348 125:-0.954887 130:-0.62 146:-1 147:-0.694547 184:-1 
119.6930542333118 12:-0.714286 37:0.431965 45:-0.428571 93:-0.489011 94:-1 96:-0.0219764 105:-0.25 106:-0.6 109:-0.0849689 111:0.399939 119:0.50401 121:0.401612 122:0.066666 125:-0.866667 130:-0.440001 146:-1 147:-0.569233 184:-1 
146.7415859026864 12:-0.428571 37:0.555076 45:-0.428571 93:-0.411393 94:-0.748241 96:0.549059 105:-0.25 106:-0.4 109:-0.506172 111:0.29532 119:0.136364 121:0.150932 122:-0.742424 125:-0.818182 130:0.0742866 146:-0.405406 147:-0.545948 184:-1 
161.7047492361169 12:-0.714286 37:0.658747 45:-0.714286 93:-0.577274 94:-0.849327 96:0.0113653 105:-0.25 106:-0.8 109:-0.777778 111:0.487988 119:0.227272 121:0.228537 122:-0.622222 125:-0.622222 130:-0.296 146:-1 147:-1 184:-1 
138.2822484859219 12:-0.714286 37:0.576674 45:-0.142857 93:-0.896667 94:-0.779012 96:-0.752778 105:-0.5 106:-0.4 109:-0.111111 111:0.315863 119:0.295456 121:0.128757 122:-0.166666 125:-0.424242 130:-0.728 146:-1 147:-1 184:-1 
108.692319492651 12:-0.714286 37:0.855292 45:-0.714286 93:-0.659756 94:-0.878726 96:-0.457316 105:-0.25 106:-0.6 109:-0.613526 111:0.513778 119:0.24506 121:0.272024 122:-0.791208 125:-0.593406 130:0.280001 146:-1 147:-0.520002 184:-1 
17.86231637540262 12:0.142857 37:0.7473 45:0.142857 93:-0.483333 94:-0.723765 96:-0.278934 105:-0.25 106:-0.2 109:0.176471 111:0.513358 119:0.263371 121:0.526157 122:-0.411764 125:-0.509804 130:-0.35 146:-1 147:-0.328002 184:-1 
66.79761733116523 12:-0.428571 37:0.365011 45:-0.428571 93:-0.791791 94:-0.777362 96:-0.0867529 105:-0.5 106:-0.2 109:-0.191919 111:0.473307 119:0.16219 121:0.390486 122:-0.846491 125:-0.837719 130:-0.296 146:-0.645162 147:-1 184:-1 
108.6568998089116 12:-0.142857 37:0.779698 45:-0.142857 93:-0.14592 94:-1 96:-0.0918348 105:-0.25 106:-0.4 109:-0.73064 111:0.415224 119:0.239668 121:0.261058 122:-0.978947 125:-0.473684 130:-0.680001 146:-1 147:-1 184:-1 
104.2212065279415 12:-0.714286 37:0.7473 45:-0.714286 93:-0.912264 94:-0.812369 96:-0.685141 105:-0.5 106:-0.6 109:-0.135803 111:0.296177 119:0.306816 121:0.21718 122:-0.736842 125:-0.884211 130:-0.542858 146:-1 147:-1 184:-1 
67.04818241031856 12:-0.428571 37:0.537797 45:-0.142857 93:-0.827778 94:-1 96:-0.278934 105:-0.5 106:-0.4 109:-0.382716 111:0.384558 119:0.420453 121:0.298302 122:-0.927126 125:-0.967611 130:-0.35 146:-0.185186 147:-0.37778 184:-1 
-227.4451085438598 12:-0.142857 37:0.367171 45:-0.142857 93:-0.715307 94:-1 96:-0.432397 105:-0.5 106:-0.4 109:-0.03904 111:0.320595 119:0.54791 121:0.430398 122:-0.454546 125:-0.636364 130:-0.542858 146:-1 147:-0.642554 184:-1 
-35.33248982229196 12:-0.714286 37:0.617711 45:-0.428571 93:-0.693407 94:-1 96:-0.877747 105:-0.5 106:-0.6 109:-0.555556 111:0.552802 119:0.227272 121:0.274775 122:-0.719298 125:-0.4269 130:-0.542858 146:-1 147:-1 184:-0.714286 
-43.75524897059443 12:-0.428571 37:0.62851 45:-0.428571 93:-0.791012 94:-1 96:-0.624999 105:-0.5 106:-0.6 109:-0.713261 111:0.404432 119:0.319649 121:0.258918 122:-0.86014 125:-0.748252 130:-0.35 146:-1 147:-0.590246 184:-0.714286 
-226.9192129917912 12:-0.714286 37:0.50324 45:-0.428571 93:-0.804211 94:-0.685965 96:-0.297367 105:-0.25 106:-0.6 109:-0.492063 111:0.352469 119:0.577921 121:0.663464 122:-0.95 125:-0.85 130:0.280001 146:-1 147:-0.600002 184:-1 
-0.06854450872296941 12:-0.714286 37:0.289417 45:-0.428571 93:-1 94:-1 96:-0.541237 105:-0.75 106:-0.6 109:-0.607844 111:0.421029 119:0.383688 121:0.581985 122:-0.584416 125:-0.844156 130:0.52 146:0.404255 147:-0.642554 184:-1 
-29.33877358669264 12:-0.714286 37:0.535637 45:-0.714286 93:-0.424743 94:-0.589919 96:-0.197164 105:0.25 106:-0.6 109:-0.477124 111:0.514244 119:0.323527 121:0.414494 122:0.047058 125:-0.764706 130:-0.08 146:-0.488372 147:-0.609304 184:-0.714286 
-24.76877086276469 12:-0.714286 37:0.313175 45:-0.428571 93:-0.682955 94:-0.54798 96:0.517052 105:-0.5 106:-0.6 109:-0.166667 111:0.0866546 119:0.278409 121:0.0660921 122:-0.333334 125:-0.833333 130:-0.08 146:-1 147:-1 184:-1 
-159.1748450856262 12:-0.142857 37:0.5054 45:-0.142857 93:-0.791012 94:-0.776529 96:-0.374999 105:-0.5 106:-0.4 109:-0.569892 111:0.412247 119:0.319649 121:0.489723 122:-0.944056 125:-0.832168 130:-0.200001 146:-0.463416 147:-1 184:-1 
-111.253054221304 12:-0.428571 37:0.434125 45:-0.428571 93:-0.726471 94:-0.707516 96:-0.236518 105:-0.5 106:-0.6 109:-0.461279 111:0.361323 119:0.0537198 121:0.141589 122:-0.936508 125:-0.888889 130:-0.542858 146:-1 147:-0.664001 184:-1 
-13.171473770671 12:-0.428571 37:0.758099 45:-0.428571 93:-0.494566 94:-0.783816 96:-0.153531 105:-0.25 106:-0.6 109:-0.426524 111:0.393985 119:0.121702 121:0.348412 122:-0.722222 125:-1 130:0.19 146:-1 147:-1 184:-0.714286 
-35.8160185939373 12:-0.142857 37:0.775378 45:-0.142857 93:-0.682955 94:-1 96:-0.620738 105:-0.5 106:-0.4 109:-0.0476178 111:0.294786 119:0.16883 121:0.0178536 122:-0.52381 125:-0.873016 130:0.136 146:-0.511112 147:-0.626668 184:-1 
-233.720339190666 12:-0.428571 37:0.835853 45:-0.428571 93:-0.806251 94:-1 96:-0.304686 105:-0.5 106:-0.6 109:-0.607844 111:0.284467 119:0.263371 121:0.143931 122:-0.503268 125:-0.699346 130:-0.440001 146:-1 147:-1 184:-1 
-249.7456 12:-0.714286 37:0.915767 45:-0.714286 93:-0.565421 94:-0.814122 96:-0.584111 105:-0.25 106:-0.4 109:-0.569892 111:0.640876 119:-0.0102661 121:0.522693 122:-0.587302 125:-0.746032 130:-0.512 146:-0.568628 147:-0.67059 184:-1 
-130.2730951553634 12:-0.714286 37:0.930886 45:-0.714286 93:-1 94:-0.476607 96:-0.0631567 105:-0.75 109:0.481484 111:0.596515 119:0.56818 121:0.586281 122:-0.666666 125:-0.888889 130:-0.62 146:-1 147:-0.642554 184:-1 
-191.4780647634082 12:-0.714286 37:0.758099 45:-0.428571 93:-0.9 94:-0.78614 96:-0.521504 105:-0.5 106:-0.6 109:-0.73064 111:0.355749 119:0.239668 121:0.247785 122:-0.935897 125:-0.961538 130:-0.35 146:-1 147:-1 184:-1 
-176.147548448482 12:-0.714286 37:0.550756 45:-0.428571 93:-0.608421 94:-0.895322 96:-0.180262 105:-0.5 106:-0.6 109:-0.583333 111:0.328065 119:0.150568 121:0.056966 122:-0.846154 125:-1 130:-0.234287 146:-1 147:-0.236367 184:-0.714286 
-60.79037838238991 12:-0.714286 37:0.265659 45:-0.428571 93:-0.582023 94:-0.664793 96:0.499997 106:-0.6 109:-0.444444 111:0.388803 119:0.342329 121:0.294245 122:-0.933333 125:-0.6 130:-0.08 146:-1 147:-0.590246 184:-0.714286 
-98.37519256451604 12:-0.428571 37:0.580994 45:-0.142857 93:-0.163001 94:-0.900555 96:-0.443749 105:-0.25 106:-0.4 109:-0.0572356 111:0.325137 119:0.177687 121:0.230085 122:-0.835897 125:-0.651282 130:-0.234287 146:-1 147:-0.253336 184:-1 
-19.23182308219234 12:0.142857 37:0.833693 45:0.142857 93:-0.616495 94:-0.0773182 96:-0.197164 105:-0.25 106:-0.2 109:0.0457511 111:0.370835 119:0.0828879 121:0.375843 122:-0.977273 125:-0.988636 130:-0.296 146:-1 147:-1 184:-1 
-246.22844818041 12:-0.428571 37:0.732181 45:-0.428571 93:-0.500001 94:-0.572281 96:-0.641128 105:-0.5 106:-0.6 109:-0.111111 111:0.338299 119:0.022727 121:0.00220925 122:-0.733334 125:-1 130:-0.542858 146:-1 147:-1 184:-1 
-82.80811763742672 12:-0.428571 37:0.704104 45:-0.428571 93:-0.819417 94:-0.903452 96:-0.24393 105:-0.5 106:-0.6 109:-0.703704 111:0.525196 119:-0.0454561 121:0.128757 122:-0.628572 125:-0.757142 130:-0.542858 146:-1 147:-1 184:-1 
-71.8968817078114 12:-0.714286 37:0.825054 45:-0.428571 93:-0.489011 94:-0.453601 96:-0.144229 105:-0.25 106:-0.6 109:-0.703704 111:0.369366 119:0.159089 121:0.323449 122:-0.811765 125:-0.611764 130:0.46 146:-1 147:-0.634784 184:-1 
-66.68809326577609 12:-0.714286 37:0.833693 45:-0.714286 93:-0.7 94:-0.572281 96:-0.521504 105:-0.25 106:-0.4 109:-0.426524 111:0.29592 119:0.121702 121:0.0186947 122:-0.925134 125:-0.657754 130:-0.440001 146:-1 147:-0.642554 184:-1 
-62.75982858780061 12:-0.714286 37:0.786177 45:-0.428571 93:-0.393479 94:-0.783816 96:0.0883171 105:-0.5 106:-0.6 109:-0.703704 111:0.363743 119:0.022727 121:0.26991 122:-0.71591 125:-0.613636 130:0.280001 146:-0.511112 147:-1 184:-1 
-119.0640728579183 12:-0.714286 37:0.647948 45:-0.428571 93:-0.895505 94:-0.888264 96:-0.124998 105:-0.5 106:-0.6 109:-0.139785 111:0.268973 119:0.385632 121:0.27776 122:-0.762238 125:-0.986014 130:0.382858 146:-1 147:-1 184:-1 
-55.29810545928735 12:-0.714286 37:0.36933 45:-0.428571 93:-0.734286 94:-0.810582 96:0.0595255 105:-0.25 106:-0.6 109:-0.132791 111:0.366648 119:0.496675 121:0.588063 122:0.076924 125:-0.48718 130:-0.542858 146:-1 147:-1 184:-0.714286 
-45.8105732643634 12:-0.714286 37:0.615551 45:-0.428571 93:-0.65125 94:-0.627083 96:-0.582812 105:-0.25 106:-0.4 109:-0.316239 111:0.353538 119:0.180072 121:0.238084 122:-0.7 125:-0.9 130:-0.234287 146:-1 147:-1 184:-1 
-23.3312944525132 12:-0.714286 37:0.546436 45:0.142857 93:-0.243025 94:-1 96:0.0348858 105:-0.25 106:-0.2 109:-0.316239 111:0.483005 119:0.180072 121:0.260547 122:-0.966667 125:-0.9 130:-0.542858 146:-1 147:-1 184:-1 
-249.7456 12:-0.428571 37:0.673866 45:-0.428571 93:-0.586668 94:-0.779012 96:-0.505555 105:-0.5 106:-0.6 109:-0.25926 111:0.246311 119:0.295456 121:0.177431 122:-0.584616 125:-0.615384 130:-0.234287 146:-1 147:-1 184:-1 
-34.53683361637966 12:-0.428571 37:0.647948 45:-0.428571 93:-0.307447 94:-0.471039 96:-0.171541 106:-0.6 109:-0.0277778 111:0.298598 119:0.0866475 121:0.29881 122:-0.782052 125:-0.961538 130:-0.200001 146:-1 147:-1 184:-1 
-7.687469028887402 12:-0.714286 37:0.440605 45:-0.428571 93:-0.452942 94:-0.649019 96:-0.0838226 105:-0.25 106:-0.4 109:-0.233716 111:0.389508 119:0.0579948 121:0.321939 122:-1 125:-0.5 130:0.280001 146:-1 147:-0.580001 184:-1 
-73.70827559670886 12:-0.428571 37:0.604752 45:0.142857 93:-0.400001 94:-0.78614 96:-0.162633 106:-0.2 109:-0.0123467 111:0.535242 119:0.21212 121:0.313175 122:0.09804 125:-0.796078 130:-0.234287 146:-1 147:-0.590246 184:-1 
-55.58911101604494 12:-0.714286 37:0.74946 45:-0.714286 93:-0.232991 94:-0.69244 96:-0.197164 105:-0.25 106:-0.4 109:-0.191919 111:0.275231 119:0.115701 121:0.132741 122:-0.29697 125:-0.769696 130:-0.234287 146:-1 147:-1 184:-1 
-44.15877832710822 12:-0.142857 37:0.63067 45:-0.142857 93:-0.696739 94:-0.891908 96:-0.516303 105:-0.25 106:-0.4 109:-0.139785 111:0.247822 119:0.187685 121:0.136452 122:-0.984127 125:-0.825397 130:-0.08 146:-1 147:-0.138463 184:-1 
-232.4609051813254 12:-0.714286 37:0.490281 45:-0.428571 93:-0.577274 94:-0.886995 96:-0.367897 105:-0.5 106:-0.6 109:-0.386973 111:0.442322 119:0.199057 121:0.342078 122:-0.588236 125:-0.529412 130:0.19 146:-1 147:-1 184:-1 
-202.7941177064483 12:-0.428571 37:0.49892 45:-0.428571 93:-0.709375 94:-0.792824 96:-0.0729156 105:-0.5 106:-0.6 109:-0.569892 111:0.340014 119:0.187685 121:0.183555 122:-0.87013 125:-0.935065 130:-0.234287 146:-1 147:-1 184:-1 
-82.52869662037128 12:-0.428571 37:0.650108 45:-0.428571 93:-0.520619 94:-0.89748 96:0.0322181 105:-0.25 106:-0.6 109:-0.461279 111:0.236988 119:0.115701 121:0.168138 122:-0.813187 125:-0.516484 130:-0.440001 146:-0.52174 147:-0.634784 184:-1 
-1.836792434812361 12:-0.428571 37:0.654428 45:-0.428571 93:-0.489011 94:-0.89072 96:-0.266482 105:-0.25 106:-0.6 109:-0.0277778 111:0.371913 119:0.150568 121:0.171041 122:-0.324676 125:-0.844156 130:-0.440001 146:-1 147:-1 184:-0.714286 
-145.4100744200663 12:-0.428571 37:0.766739 45:-0.428571 93:-0.624243 94:-0.497754 96:-0.213382 105:-0.5 106:-0.4 109:-0.444444 111:0.229214 119:-0.0411934 121:-0.171187 122:-0.983806 125:-0.805668 130:-0.234287 146:-1 147:-0.328002 184:-1 
-239.9430208187692 12:-0.714286 37:0.682505 45:-0.714286 93:-0.6 94:-1 96:-0.641128 105:-0.25 106:-0.6 109:-0.693486 111:0.547706 119:0.269593 121:0.4025 122:-0.5 125:-0.75 130:-0.542858 146:-1 147:-0.618183 184:-1 
-97.47201823832083 12:-0.428571 37:0.758099 45:-0.428571 93:-0.510527 94:-0.895322 96:-0.297367 105:-0.5 106:-0.6 109:-0.555556 111:0.347589 119:-0.0454561 121:0.0849518 122:-0.783334 125:-0.958333 130:-0.542858 146:-1 147:-0.618183 184:-1 
-228.7325501714163 12:-0.428571 37:0.572354 45:-0.428571 93:-0.552885 94:-0.617521 96:-0.0372577 105:-0.5 106:-0.6 109:-0.135803 111:0.14644 119:0.193183 121:0.0589927 122:-0.809524 125:-0.904762 130:-0.234287 146:-0.531915 147:-0.642554 184:-1 
-41.95794170989933 12:-0.714286 37:0.600432 45:-0.142857 93:-0.821154 94:-0.80876 96:-0.144229 105:-0.5 109:-0.181286 111:0.2044 119:0.291864 121:0.140541 122:-0.846154 125:-0.846154 130:-0.234287 146:-0.56 147:-0.664001 184:-1 
-26.60622086346715 12:0.142857 37:0.87689 45:0.428571 93:-0.638835 94:-0.806903 96:-0.675971 105:-0.25 109:0.0457511 111:0.585971 119:0.564171 121:0.758069 122:-0.160714 125:-0.946429 130:-0.440001 146:-0.102041 147:-1 184:-1 
-86.00138430865813 12:-0.142857 37:0.485961 45:-0.142857 93:-0.535001 94:-1 96:0.251564 105:-0.25 106:-0.4 109:-0.316239 111:0.420192 119:0.180072 121:0.120148 122:-0.923077 125:-0.961538 130:-0.440001 146:-1 147:-1 184:-1 
-163.4511208411914 12:-0.142857 37:0.803456 45:-0.142857 93:-0.179413 94:-1 96:-0.127449 105:-0.25 106:-0.4 109:-0.111111 111:0.243127 119:0.285715 121:0.146142 122:-0.784616 125:-0.784616 130:-0.542858 146:-0.55102 147:-0.657143 184:-1 
-29.52959057986486 12:-0.714286 37:0.663067 45:-0.142857 93:-0.608421 94:-0.26725 96:-0.648684 105:-0.25 106:-0.4 109:-0.166667 111:0.259732 119:0.150568 121:0.21211 122:-1 125:-0.833333 130:-0.200001 146:-1 147:-0.609304 184:-1 
-36.86135427230175 12:-0.428571 37:0.654428 45:-0.428571 93:-0.806251 94:-0.585647 96:-0.536457 105:-0.5 106:-0.6 109:-0.444444 111:0.291712 119:0.150568 121:0.16648 122:0.1 125:-1 130:0.46 146:-1 147:-0.160003 184:-1 
-127.5642227756438 12:-0.142857 37:0.572354 45:-0.142857 93:-0.510527 94:-0.581286 96:-0.0631567 105:-0.25 106:-0.4 109:-0.583333 111:0.35491 119:0.0866475 121:0.202984 122:-0.990385 125:-0.634616 130:-0.08 146:-0.531915 147:-0.285109 184:-1 
-1.393748255603141 12:0.142857 37:0.578834 45:0.142857 93:-0.797827 94:0.080923 96:-0.0326074 105:-0.5 106:-0.2 109:0.111111 111:0.381384 119:0.150568 121:0.367254 122:-0.76923 125:-0.961538 130:-0.62 146:-1 147:-1 184:-1 
-14.14586684856478 12:-0.428571 37:0.460043 45:-0.428571 93:-0.59121 94:-0.235041 96:-0.144229 105:-0.5 106:-0.4 109:-0.555556 111:0.336245 119:0.022727 121:0.235838 122:-0.705882 125:-0.435294 130:0.280001 146:-0.435898 147:-0.569233 184:-1 
-136.9188915998183 12:-0.428571 37:0.883369 45:-0.428571 93:-0.682955 94:0.0170498 96:-0.494318 105:-0.25 106:-0.6 109:0.0728 111:0.289517 119:0.0579948 121:0.175921 122:-0.736112 125:-0.597222 130:-0.08 146:-1 147:-1 184:-1 
-18.40677054994329 12:0.142857 37:0.779698 45:0.142857 93:-0.415708 94:-0.427283 96:-0.475785 106:-0.2 109:0.425573 111:0.665447 119:0.196398 121:0.397559 122:-0.436702 125:-0.772358 130:-0.651765 146:-0.297872 147:-0.463831 184:-1 
-5.568920434543172 12:-1 37:0.831533 45:-0.714286 93:-0.959565 94:-0.654106 96:-0.516303 105:-0.5 106:-0.6 109:-0.791667 111:0.803741 119:0.374292 121:0.848658 122:-0.104818 125:-0.793344 130:-0.755 146:-1 147:-0.322582 184:-1 
-73.92020037535109 12:-0.142857 37:0.511879 45:0.142857 93:-0.942236 94:-0.444099 96:-0.101707 105:-0.5 106:-0.2 109:-0.2 111:0.611066 119:-0.0590911 121:0.729379 122:-0.598014 125:-0.947891 130:-0.440001 146:-1 147:-0.370002 184:-1 
-56.20405782835076 12:-0.714286 37:0.863931 45:-0.714286 93:-0.794853 94:-0.780637 96:-0.46829 105:-0.5 106:-0.6 109:-0.746032 111:0.788924 119:-0.0941543 121:0.61757 122:-0.520978 125:-0.621562 130:-0.748572 146:-0.65625 147:-0.343752 184:-1 
-15.30005911477012 12:-0.142857 37:0.226782 45:-0.142857 93:-0.794476 94:-0.835175 96:0.167815 105:-0.5 106:-0.4 109:-0.377778 111:0.703974 119:0.268182 121:0.352652 122:-0.416488 125:-0.833692 130:-0.799999 146:-1 147:-0.642554 184:-0.714286 
-19.00278278309073 12:-0.714286 37:0.142549 45:-0.142857 93:-0.710881 94:-1 96:-0.193003 105:-0.5 106:-0.4 109:-0.111111 111:0.479233 119:0.261362 121:0.425661 122:-0.843698 125:-0.959664 130:-0.524705 146:-1 147:-1 184:-1 
-6.885463233342973 12:-0.428571 37:0.222462 45:0.142857 93:-0.677457 94:-0.655105 96:-0.0997091 105:-0.25 106:-0.2 109:-0.111111 111:0.570489 119:0.301653 121:0.57168 122:-0.819172 125:-0.686274 130:-0.651765 146:-1 147:-0.792593 184:-1 
-182.3855430135143 12:-0.428571 37:0.717063 45:-0.142857 93:-0.575127 94:-1 96:-0.322334 105:-0.25 106:-0.4 109:-0.125683 111:0.412365 119:0.106558 121:0.135062 122:-0.766296 125:-0.699524 130:-0.542858 146:-1 147:-0.826804 184:-0.714286 
-31.18560359653602 12:-0.428571 37:0.613391 45:-0.428571 93:-0.727201 94:-0.920444 96:-0.109999 105:-0.5 106:-0.2 109:-0.651416 111:0.589746 119:-0.0775411 121:0.282792 122:-0.9867 125:-0.889759 130:-0.84 146:-0.738094 147:-0.200003 184:-1 
-10.15127230307582 12:-0.428571 37:0.75594 45:-0.428571 93:-0.759483 94:-0.914272 96:-0.328663 105:-0.25 106:-0.6 109:-0.291466 111:0.683614 119:-0.0810266 121:0.633895 122:-0.462586 125:-0.510204 130:-0.728 146:-0.6 147:-0.54182 184:-0.714286 
-105.2387555483868 12:-0.428571 37:0.708423 45:-0.142857 93:-0.732099 94:-0.549839 96:-0.221707 105:-0.5 106:-0.2 109:-0.619048 111:0.517174 119:-0.240261 121:0.27547 122:-0.605476 125:-0.599034 130:-0.705264 146:-1 147:-0.453661 184:-1 
